~o
<STREAMINFO> 1 40
<VECSIZE> 40<NULLD><USER><DIAGC>
~h "in"
<BEGINHMM>
<NUMSTATES> 14
<STATE> 2
<NUMMIXES> 10
<MIXTURE> 1 8.858868e-02
<MEAN> 40
 1.618500e+03 3.634238e+03 -1.890070e+01 -1.409858e+01 1.170693e+03 3.132348e+03 -2.210169e+01 -9.250993e+00 7.375158e+02 2.895844e+03 -1.768103e+01 -2.605113e+01 3.798575e+02 2.707717e+03 -4.832574e+01 -2.345946e+01 3.209528e+02 2.877530e+03 -3.169579e+01 -8.284454e+00 -1.660832e+03 3.548815e+03 2.036711e+00 -7.303536e+00 -1.604654e+03 3.191719e+03 -4.423824e+01 1.510884e+01 -1.495414e+03 2.995157e+03 -7.447675e+01 1.873051e+01 -1.374867e+03 2.806639e+03 -8.441805e+01 4.017676e+01 -1.179125e+03 2.822336e+03 -6.657198e+01 1.206501e+01
<VARIANCE> 40
 2.971802e+04 1.823172e+04 3.398458e+03 1.763561e+03 6.088471e+04 6.790298e+04 5.570689e+03 1.054785e+04 4.175000e+04 8.488627e+04 9.163744e+03 1.073623e+04 1.169499e+05 1.898771e+05 2.068177e+04 3.530586e+04 4.057943e+04 8.874773e+04 1.069803e+04 2.750100e+04 2.111976e+04 9.886736e+03 4.396380e+03 2.700327e+03 2.825116e+04 6.923612e+04 7.130559e+03 4.251644e+04 6.561251e+04 1.835662e+05 1.612119e+04 5.172753e+04 8.661410e+04 2.271560e+05 2.349472e+04 7.734165e+04 4.882896e+04 1.343382e+05 1.776734e+04 5.175005e+04
<GCONST> 4.837836e+02
<MIXTURE> 2 8.509535e-02
<MEAN> 40
 2.450408e+03 4.163533e+03 -3.798557e+01 9.930316e+00 1.857420e+03 5.082082e+03 -8.136067e+01 -6.401909e+01 1.638745e+03 4.824720e+03 -1.002887e+02 -7.783881e+01 1.310977e+03 5.056196e+03 -1.073939e+02 -7.720660e+01 1.083135e+03 4.850152e+03 -1.242138e+02 -8.495100e+01 -2.581416e+03 3.694608e+03 -2.690076e+00 -1.433175e+01 -2.716602e+03 3.506334e+03 7.471203e+00 -3.143361e+02 -2.753426e+03 2.893900e+03 5.586046e+01 -3.622717e+02 -2.732280e+03 2.557813e+03 7.263009e+01 -5.210912e+02 -2.412947e+03 2.824116e+03 4.112265e+01 -3.723578e+02
<VARIANCE> 40
 2.497598e+05 1.350962e+05 7.474955e+03 3.499086e+03 4.336496e+05 2.623243e+05 2.505554e+04 2.850682e+04 3.807330e+05 2.318895e+05 4.651305e+04 2.994166e+04 4.501679e+05 5.176380e+05 6.799110e+04 9.510809e+04 4.196748e+05 2.900701e+05 4.945052e+04 6.099035e+04 7.203054e+05 1.466018e+05 1.384124e+04 1.162985e+04 6.491286e+05 6.392459e+05 2.961659e+04 7.832352e+04 3.528407e+05 7.213861e+05 4.906755e+04 9.915323e+04 4.633256e+05 1.077182e+06 1.284080e+05 2.451897e+05 3.280242e+05 6.856441e+05 8.032917e+04 1.225703e+05
<GCONST> 5.444776e+02
<MIXTURE> 3 9.357394e-02
<MEAN> 40
 2.687268e+03 3.789040e+03 -1.023746e+02 1.193734e+01 1.119767e+03 4.083171e+03 -1.471783e+02 -7.967870e+01 8.515535e+02 4.001260e+03 -1.274401e+02 -7.547293e+01 4.209555e+02 4.255685e+03 -1.306760e+02 -9.035619e+01 3.071528e+02 4.058432e+03 -1.271732e+02 -7.484920e+01 -3.219183e+03 3.138264e+03 5.906537e+01 -4.314888e+01 -1.659893e+03 2.232407e+03 9.008127e+01 -1.737644e+02 -1.458250e+03 1.663083e+03 1.112052e+02 -1.926603e+02 -1.009800e+03 1.930185e+03 1.066223e+02 -1.772745e+02 -1.183195e+03 2.007225e+03 1.149998e+02 -1.754107e+02
<VARIANCE> 40
 5.446697e+04 4.465379e+04 4.488213e+03 1.810258e+03 9.035917e+04 4.073745e+04 6.936977e+03 9.429779e+03 7.605284e+04 5.367966e+04 1.130558e+04 1.075114e+04 1.479269e+05 9.662305e+04 2.102415e+04 2.291627e+04 5.576491e+04 4.185032e+04 1.222011e+04 1.100538e+04 7.400152e+04 5.516554e+04 9.502125e+03 4.880287e+03 9.674396e+04 9.477780e+04 1.539873e+04 1.559591e+04 7.604267e+04 9.258642e+04 2.520584e+04 1.986455e+04 2.396364e+05 1.391613e+05 4.800335e+04 4.045317e+04 1.563039e+05 1.210818e+05 5.115262e+04 5.407720e+04
<GCONST> 4.912161e+02
<MIXTURE> 4 9.290437e-02
<MEAN> 40
 2.138069e+03 3.807723e+03 -1.646670e+00 -2.417344e-01 1.289853e+03 3.564141e+03 -4.446640e+00 -4.939109e+00 8.511748e+02 3.447404e+03 -7.060803e+00 -9.063763e+00 3.459551e+02 3.416727e+03 -1.377909e+01 -1.019869e+01 3.910765e+02 3.356008e+03 -1.337301e+01 -1.726212e+01 -2.607824e+03 2.987942e+03 -1.928688e+00 -6.364333e+00 -1.878081e+03 2.016781e+03 1.834237e+00 -8.351752e+00 -1.569707e+03 1.553406e+03 3.809792e+00 -9.546535e+00 -1.114948e+03 1.410859e+03 9.570444e+00 -9.988008e+00 -1.262367e+03 1.639693e+03 1.046873e+01 -8.492416e+00
<VARIANCE> 40
 2.216625e+05 1.702223e+05 5.164912e+01 3.052802e+01 3.658705e+05 6.765079e+05 7.834870e+01 1.664619e+02 2.232575e+05 7.417922e+05 2.299214e+02 7.020818e+02 3.483869e+05 1.239716e+06 6.735001e+02 1.820003e+03 2.102883e+05 8.588917e+05 6.594171e+02 4.239337e+03 5.796461e+05 4.267219e+05 8.821004e+01 1.135213e+02 4.704288e+05 1.010912e+06 1.147283e+02 2.571111e+02 4.120689e+05 1.226988e+06 4.868989e+02 7.889112e+02 6.246908e+05 1.382457e+06 1.192628e+03 1.656370e+03 4.150679e+05 1.077119e+06 1.283674e+03 2.827315e+03
<GCONST> 4.566856e+02
<MIXTURE> 5 8.120038e-02
<MEAN> 40
 2.290406e+03 3.604216e+03 2.332061e+00 -2.545894e+01 1.304716e+03 3.316746e+03 -1.847038e+02 -2.561606e+02 8.908762e+02 3.159776e+03 -2.121319e+02 -3.034148e+02 5.375900e+02 3.141504e+03 -1.969558e+02 -3.733074e+02 5.639964e+02 3.144575e+03 -1.944108e+02 -2.591642e+02 -2.754730e+03 2.595388e+03 2.162298e+01 -3.297583e+01 -1.593699e+03 1.529025e+03 1.721742e+02 -2.960546e+02 -1.229180e+03 1.140106e+03 1.812995e+02 -2.603582e+02 -8.308297e+02 1.130513e+03 1.653721e+02 -1.763640e+02 -1.005729e+03 1.301009e+03 1.767530e+02 -2.344052e+02
<VARIANCE> 40
 2.045932e+05 1.837029e+05 4.616470e+04 2.120507e+04 3.076082e+05 4.373698e+05 1.362506e+05 1.555253e+05 2.384874e+05 4.501236e+05 1.427719e+05 1.880329e+05 4.069388e+05 7.374777e+05 2.885373e+05 3.348358e+05 3.076875e+05 5.131852e+05 2.317515e+05 2.648010e+05 3.694039e+05 4.214194e+05 5.536268e+04 1.183978e+05 3.243373e+05 6.714951e+05 1.977687e+05 3.199838e+05 3.465157e+05 7.793266e+05 2.690563e+05 3.769602e+05 5.289193e+05 9.777445e+05 3.992046e+05 5.504026e+05 3.462066e+05 7.198882e+05 3.046733e+05 3.895188e+05
<GCONST> 5.755735e+02
<MIXTURE> 6 1.238852e-01
<MEAN> 40
 2.330442e+03 4.084456e+03 -2.971259e+01 -1.372297e+01 9.893898e+02 4.249474e+03 -9.168021e+01 -1.782102e+02 6.868977e+02 4.199400e+03 -1.212970e+02 -2.138518e+02 1.942128e+02 4.360069e+03 -1.982217e+02 -3.005695e+02 2.094951e+02 4.158520e+03 -1.189984e+02 -2.147531e+02 -2.865580e+03 3.339303e+03 -4.876904e+00 -9.386456e+01 -1.700919e+03 2.026250e+03 7.665229e+01 -1.856948e+02 -1.574620e+03 1.474712e+03 1.307803e+02 -1.793421e+02 -1.155003e+03 1.399402e+03 1.659014e+02 -1.034836e+02 -1.280701e+03 1.607486e+03 1.022266e+02 -1.439079e+02
<VARIANCE> 40
 1.061095e+05 6.802853e+04 6.496422e+03 1.878253e+03 1.439721e+05 1.479882e+05 2.219125e+04 2.647680e+04 1.181366e+05 1.929883e+05 5.640891e+04 5.026475e+04 2.414809e+05 3.638614e+05 1.194406e+05 1.298134e+05 1.186754e+05 1.976970e+05 9.188902e+04 5.265069e+04 2.073821e+05 1.807293e+05 9.356832e+03 1.211441e+04 1.608213e+05 2.095541e+05 1.817036e+04 4.327693e+04 1.360782e+05 2.311555e+05 4.230598e+04 7.432366e+04 2.391075e+05 3.416547e+05 7.240019e+04 1.129952e+05 1.832324e+05 2.231026e+05 8.271884e+04 1.072862e+05
<GCONST> 5.259124e+02
<MIXTURE> 7 9.917934e-02
<MEAN> 40
 2.254768e+03 3.603894e+03 -7.563496e+01 2.020043e+01 1.071246e+03 3.329153e+03 -1.175014e+02 -1.115373e+02 7.017007e+02 3.157741e+03 -1.158292e+02 -1.197616e+02 2.835119e+02 3.214413e+03 -1.528521e+02 -1.511521e+02 3.221758e+02 3.163725e+03 -1.103397e+02 -1.323212e+02 -2.513824e+03 3.254375e+03 3.446290e+01 -1.547222e+00 -1.446637e+03 2.708387e+03 8.212266e+01 -2.764239e+02 -1.364078e+03 2.398654e+03 -8.121979e+00 -2.794637e+02 -1.179559e+03 2.446968e+03 -6.498418e+01 -3.211814e+02 -1.172717e+03 2.522849e+03 -3.758809e+01 -2.381453e+02
<VARIANCE> 40
 1.852230e+05 6.819051e+04 1.261447e+04 5.644422e+03 1.122208e+05 1.001691e+05 1.493789e+04 2.003824e+04 8.620645e+04 1.142140e+05 3.269748e+04 2.613210e+04 2.084027e+05 2.155147e+05 5.643975e+04 4.476313e+04 8.784170e+04 1.315644e+05 4.920891e+04 4.854143e+04 2.431104e+05 8.489982e+04 2.121534e+04 1.079366e+04 1.402295e+05 3.057488e+05 2.972865e+04 1.139751e+05 1.834205e+05 3.314013e+05 1.224832e+05 1.815528e+05 3.016316e+05 4.133869e+05 1.726372e+05 2.841652e+05 2.255785e+05 2.759265e+05 1.806284e+05 2.408185e+05
<GCONST> 5.296305e+02
<MIXTURE> 8 1.152692e-01
<MEAN> 40
 2.581559e+03 4.164307e+03 -5.222805e+01 4.309940e+00 1.849976e+03 3.806251e+03 -1.405732e+02 -2.062871e+02 1.342750e+03 3.663514e+03 -1.768202e+02 -2.551198e+02 6.694561e+02 3.688574e+03 -2.494029e+02 -2.786844e+02 8.294081e+02 3.606146e+03 -1.671833e+02 -2.529868e+02 -3.609011e+03 2.634928e+03 3.276140e+01 -1.739656e+02 -2.741408e+03 1.241364e+03 1.959188e+02 -2.356284e+02 -2.174365e+03 7.057619e+02 2.985196e+02 -2.231326e+02 -1.536609e+03 5.911458e+02 3.541894e+02 -2.098508e+02 -1.886445e+03 8.728372e+02 2.470605e+02 -2.518475e+02
<VARIANCE> 40
 1.820574e+05 1.896130e+05 1.401981e+04 4.863683e+03 3.677732e+05 3.494744e+05 1.976700e+04 3.258054e+04 1.992444e+05 2.917098e+05 3.695764e+04 4.380215e+04 2.029560e+05 4.369006e+05 6.016184e+04 9.033498e+04 2.186046e+05 3.365530e+05 4.448196e+04 7.584934e+04 3.558845e+05 2.930467e+05 8.850216e+03 1.723959e+04 2.406418e+05 3.193108e+05 2.996654e+04 3.749322e+04 2.219121e+05 3.419171e+05 6.475676e+04 7.653171e+04 3.047906e+05 5.028246e+05 1.212447e+05 1.870950e+05 2.332475e+05 4.141419e+05 9.837893e+04 1.267196e+05
<GCONST> 5.378912e+02
<MIXTURE> 9 1.273182e-01
<MEAN> 40
 2.044993e+03 3.622404e+03 4.784560e+01 -1.565514e+01 9.973436e+02 3.289850e+03 3.030567e+01 3.295563e+00 5.834404e+02 3.085422e+03 1.852818e+01 2.867412e+01 -5.830914e+01 2.953203e+03 -1.466917e+01 7.718422e+01 1.521748e+02 2.997043e+03 -5.095518e-02 5.613924e+01 -2.455169e+03 2.796891e+03 -4.089362e+01 -6.654158e+01 -1.626674e+03 1.678291e+03 -3.117323e+01 -1.101177e+02 -1.385696e+03 1.141280e+03 -1.766205e+01 -1.411089e+02 -9.099380e+02 9.585284e+02 1.264252e+01 -1.283259e+02 -1.044501e+03 1.276202e+03 -5.887341e+00 -1.223574e+02
<VARIANCE> 40
 1.795705e+05 1.366481e+05 3.111996e+03 1.324840e+03 1.829480e+05 2.690170e+05 4.074708e+03 6.260185e+03 8.599499e+04 2.537666e+05 5.922105e+03 1.077571e+04 1.374952e+05 3.944452e+05 1.603030e+04 2.805578e+04 8.506935e+04 2.677877e+05 8.997104e+03 2.233999e+04 2.608068e+05 3.465406e+05 5.992873e+03 7.568717e+03 3.948338e+05 3.863110e+05 8.618213e+03 2.208178e+04 4.112780e+05 4.391610e+05 1.674995e+04 3.468895e+04 6.968143e+05 5.782630e+05 4.921771e+04 5.516642e+04 4.415977e+05 4.198613e+05 2.910348e+04 4.565012e+04
<GCONST> 5.129007e+02
<MIXTURE> 10 9.298319e-02
<MEAN> 40
 2.746526e+03 3.674137e+03 -8.694008e+01 4.089307e+01 1.427273e+03 3.509461e+03 -1.487314e+02 -1.176614e+02 9.725711e+02 3.432727e+03 -1.627791e+02 -1.503589e+02 6.197334e+02 3.613385e+03 -2.103983e+02 -1.291287e+02 5.294078e+02 3.497347e+03 -1.626496e+02 -1.306816e+02 -3.194375e+03 2.934972e+03 3.196757e+01 -3.016469e+01 -1.831721e+03 1.987700e+03 1.417728e+02 -1.933706e+02 -1.608155e+03 1.556016e+03 1.774455e+02 -2.182370e+02 -1.516476e+03 1.808818e+03 1.564554e+02 -1.850776e+02 -1.498823e+03 1.872144e+03 1.740347e+02 -1.856611e+02
<VARIANCE> 40
 6.734112e+04 6.708503e+04 7.941188e+03 3.286475e+03 1.187211e+05 7.336333e+04 2.364435e+04 1.347257e+04 1.067342e+05 9.287915e+04 3.943193e+04 2.462572e+04 2.433378e+05 9.826377e+04 7.373827e+04 3.234654e+04 9.286332e+04 7.744568e+04 4.067236e+04 3.076914e+04 1.585842e+05 1.116868e+05 5.006275e+03 4.745276e+03 8.495966e+04 9.286821e+04 1.542404e+04 1.866367e+04 1.416668e+05 9.969802e+04 4.139186e+04 3.298974e+04 3.197151e+05 1.788093e+05 4.040759e+04 4.836432e+04 1.969427e+05 1.344970e+05 6.828530e+04 5.804496e+04
<GCONST> 5.076522e+02
<STATE> 3
<NUMMIXES> 10
<MIXTURE> 1 1.112753e-01
<MEAN> 40
 2.285698e+03 4.021186e+03 -3.653847e+01 -1.063200e-02 7.671844e+02 4.004745e+03 -6.437963e+01 -8.618917e+01 4.945518e+02 3.867165e+03 -6.960579e+01 -9.052564e+01 -1.416042e+02 3.976840e+03 -1.030567e+02 -9.698231e+01 1.624166e+00 3.858729e+03 -5.879464e+01 -9.857268e+01 -2.728205e+03 3.451703e+03 4.577349e+00 -3.841254e+01 -1.495313e+03 2.225141e+03 6.364597e+01 -6.134254e+01 -1.477451e+03 1.637182e+03 1.309460e+02 -5.756804e+01 -1.231290e+03 1.602499e+03 1.347446e+02 -6.361724e+00 -1.201391e+03 1.782765e+03 1.088231e+02 -7.590465e+00
<VARIANCE> 40
 9.971872e+04 7.725595e+04 2.169013e+03 6.062875e+02 1.111866e+05 1.276165e+05 5.482988e+03 8.838284e+03 7.569061e+04 1.286157e+05 8.484803e+03 7.352172e+03 1.313979e+05 1.841285e+05 1.564501e+04 1.687741e+04 6.037639e+04 1.576154e+05 7.983877e+03 1.339925e+04 2.091941e+05 1.329356e+05 4.197391e+03 2.437897e+03 1.163212e+05 1.585265e+05 5.938079e+03 9.495144e+03 9.971526e+04 2.130163e+05 2.340011e+04 1.863435e+04 1.878800e+05 3.173894e+05 4.096811e+04 3.737009e+04 1.089314e+05 2.067110e+05 4.172598e+04 3.753681e+04
<GCONST> 4.934724e+02
<MIXTURE> 2 5.109381e-02
<MEAN> 40
 2.377354e+03 4.111060e+03 -5.936439e+01 2.936902e+01 1.554506e+03 5.011637e+03 -1.543522e+02 -4.984665e+01 1.383180e+03 4.829923e+03 -1.926198e+02 -3.819619e+01 1.122761e+03 5.062427e+03 -1.811919e+02 -5.848832e+01 8.616486e+02 4.785779e+03 -2.033331e+02 -4.255467e+01 -2.421178e+03 3.537250e+03 3.263511e+01 3.680267e+01 -2.057032e+03 3.203746e+03 1.090859e+02 -1.286535e+02 -2.104313e+03 2.583584e+03 1.871025e+02 -1.483336e+02 -1.979922e+03 2.182228e+03 2.951430e+02 -1.701916e+02 -1.784590e+03 2.512062e+03 1.997961e+02 -1.088917e+02
<VARIANCE> 40
 2.446306e+05 1.523515e+05 1.587379e+04 7.395859e+03 5.139246e+05 2.819027e+05 5.772675e+04 5.260488e+04 4.850825e+05 2.933933e+05 7.283599e+04 7.070253e+04 6.285006e+05 6.784457e+05 9.739635e+04 1.267731e+05 4.624941e+05 3.517529e+05 7.164748e+04 6.620441e+04 4.042448e+05 6.715268e+05 1.328610e+04 9.139143e+03 5.287919e+05 1.383074e+06 2.443877e+04 3.601770e+04 3.279936e+05 1.633963e+06 5.142025e+04 5.997380e+04 4.890158e+05 1.814152e+06 9.928229e+04 1.248168e+05 2.948719e+05 1.557644e+06 8.047712e+04 7.171098e+04
<GCONST> 5.519179e+02
<MIXTURE> 3 6.498923e-02
<MEAN> 40
 2.198479e+03 3.690129e+03 -1.652630e-01 -5.351077e-02 1.166277e+03 3.236517e+03 -3.799608e-01 -6.798771e-01 7.345546e+02 3.147751e+03 -6.591784e-01 -1.227590e+00 1.556673e+02 3.078396e+03 -1.442971e+00 -1.776408e+00 2.650682e+02 3.093764e+03 -1.567320e+00 -2.096767e+00 -2.608027e+03 2.829781e+03 -1.086616e-01 -9.736953e-01 -1.651867e+03 1.726707e+03 3.114835e-01 -1.108362e+00 -1.292094e+03 1.251677e+03 5.081649e-01 -1.384296e+00 -8.222403e+02 1.243993e+03 9.016167e-01 -1.559291e+00 -9.883292e+02 1.442664e+03 1.221316e+00 -1.785933e+00
<VARIANCE> 40
 1.874077e+05 1.447657e+05 6.073641e-01 2.594758e-01 2.363236e+05 3.840437e+05 8.619819e-01 1.528808e+00 1.252126e+05 3.660728e+05 4.690080e+00 8.059968e+00 2.127012e+05 6.640981e+05 1.155939e+01 4.607257e+01 1.375345e+05 4.190258e+05 1.378674e+01 6.918148e+01 4.480585e+05 3.347075e+05 6.770338e-01 1.603174e+00 2.238822e+05 8.494336e+05 7.981533e-01 2.428954e+00 1.772940e+05 9.585646e+05 3.549460e+00 6.519145e+00 3.663307e+05 1.024326e+06 6.183246e+00 1.561282e+01 1.837322e+05 8.386796e+05 1.037679e+01 1.880663e+01
<GCONST> 3.566732e+02
<MIXTURE> 4 9.668401e-02
<MEAN> 40
 1.676028e+03 3.582513e+03 -2.194719e+01 -1.712428e+01 9.475361e+02 3.103738e+03 -5.551816e+01 -5.597696e+01 5.405038e+02 2.855300e+03 -6.187959e+01 -6.106758e+01 1.884590e+02 2.797722e+03 -6.069384e+01 -5.275967e+01 1.402914e+02 2.876737e+03 -5.560109e+01 -5.399514e+01 -1.805980e+03 3.452449e+03 -1.202593e+01 -2.072227e+01 -1.601950e+03 2.769944e+03 1.376436e+01 -2.152735e+02 -1.494956e+03 2.486065e+03 5.651846e+01 -2.745466e+02 -1.394529e+03 2.384804e+03 5.243169e+01 -2.412462e+02 -1.215278e+03 2.454090e+03 1.220770e+01 -1.834110e+02
<VARIANCE> 40
 4.661306e+04 2.477916e+04 2.146970e+03 1.256233e+03 7.542193e+04 6.173325e+04 3.764371e+03 5.238509e+03 3.656265e+04 8.085084e+04 6.537810e+03 7.403438e+03 1.008605e+05 1.374752e+05 6.139545e+04 1.729474e+04 4.494227e+04 8.026861e+04 8.327642e+03 8.875854e+03 7.000759e+04 1.977390e+04 5.222303e+03 5.988815e+03 5.607395e+04 7.705280e+04 9.357424e+03 7.402873e+04 9.943374e+04 1.172625e+05 5.218723e+04 1.122413e+05 1.326439e+05 1.797956e+05 7.444656e+04 1.559922e+05 7.276044e+04 8.535824e+04 4.790375e+04 9.142800e+04
<GCONST> 4.903518e+02
<MIXTURE> 5 1.161746e-01
<MEAN> 40
 2.634259e+03 4.344544e+03 -5.568127e+01 -6.331068e+00 1.152606e+03 3.976098e+03 -9.095298e+01 -1.121256e+02 7.829144e+02 3.609635e+03 -9.633625e+01 -1.585085e+02 1.010987e+02 3.655886e+03 -1.310356e+02 -1.899680e+02 2.931721e+02 3.676411e+03 -5.580206e+01 -1.163271e+02 -3.719211e+03 2.393946e+03 7.324789e+01 -1.344501e+02 -2.131098e+03 1.304770e+03 1.962145e+02 -8.098142e+01 -1.468022e+03 8.376071e+02 2.647560e+02 -4.613810e+01 -7.191845e+02 9.848987e+02 3.356484e+02 3.935471e+01 -1.210975e+03 1.126981e+03 2.711876e+02 1.041691e+01
<VARIANCE> 40
 3.412990e+04 5.258399e+04 5.635626e+03 1.809700e+03 3.647327e+04 6.697218e+04 7.196776e+03 6.453526e+03 6.300434e+04 9.462180e+04 1.606054e+04 1.420122e+04 1.276926e+05 1.693708e+05 5.138795e+04 3.491886e+04 4.794980e+04 7.976556e+04 2.482620e+04 2.724210e+04 1.007814e+05 1.536256e+05 5.434544e+03 8.537339e+03 7.920218e+04 1.099865e+05 1.267901e+04 1.530830e+04 9.794106e+04 1.183570e+05 2.721829e+04 3.571495e+04 1.603243e+05 2.203658e+05 7.753607e+04 6.493939e+04 1.472394e+05 1.412969e+05 6.974639e+04 4.554691e+04
<GCONST> 4.987083e+02
<MIXTURE> 6 1.007759e-01
<MEAN> 40
 2.328756e+03 3.822325e+03 -5.420254e+01 -1.464737e+01 9.689627e+02 3.654787e+03 -1.333848e+02 -2.437545e+02 6.677665e+02 3.490713e+03 -1.858686e+02 -3.354890e+02 3.747560e+02 3.611809e+03 -2.119289e+02 -3.745554e+02 3.285071e+02 3.501009e+03 -1.359737e+02 -2.956311e+02 -2.739272e+03 2.983732e+03 4.084946e+01 -7.407165e+01 -1.346819e+03 1.902102e+03 8.514293e+01 -1.076410e+02 -1.081633e+03 1.466636e+03 1.137370e+02 -9.384455e+01 -7.163677e+02 1.576957e+03 8.126330e+01 -7.041801e+01 -8.723873e+02 1.675592e+03 7.605611e+01 -8.191131e+01
<VARIANCE> 40
 9.842055e+04 9.157978e+04 2.105607e+04 8.430587e+03 2.145832e+05 1.677710e+05 6.596716e+04 6.686416e+04 1.529036e+05 2.160905e+05 1.496820e+05 1.039273e+05 3.582334e+05 3.613862e+05 3.272449e+05 2.309992e+05 2.207642e+05 2.847811e+05 2.186610e+05 1.788334e+05 1.892314e+05 1.861398e+05 1.923659e+04 1.765654e+04 1.354305e+05 2.354699e+05 3.113591e+04 6.896139e+04 1.364908e+05 2.700806e+05 6.163342e+04 1.225533e+05 2.890795e+05 3.713212e+05 1.450128e+05 1.657856e+05 1.724129e+05 2.653190e+05 1.023640e+05 1.216527e+05
<GCONST> 5.432946e+02
<MIXTURE> 7 1.105272e-01
<MEAN> 40
 2.248608e+03 3.562883e+03 1.159037e+00 -3.207526e+01 1.328692e+03 2.832011e+03 -2.189977e+01 -8.297780e+01 8.234540e+02 2.713960e+03 -4.993717e+01 -1.009539e+02 2.337201e+02 2.626793e+03 -8.370749e+01 -9.094479e+01 3.870347e+02 2.669209e+03 -4.931615e+01 -8.095393e+01 -2.749734e+03 2.267152e+03 3.952208e+00 -1.064185e+02 -1.665113e+03 9.598976e+02 2.609508e+01 -8.756847e+01 -1.118435e+03 4.714993e+02 6.975762e+01 -8.264279e+01 -4.821673e+02 4.614769e+02 8.989582e+01 -7.122138e+01 -8.257992e+02 7.108308e+02 6.365291e+01 -6.741723e+01
<VARIANCE> 40
 2.264650e+05 1.769578e+05 9.842163e+03 4.247478e+03 2.961253e+05 1.719596e+05 1.102865e+04 1.922743e+04 1.741017e+05 2.161329e+05 1.946442e+04 3.446307e+04 2.495492e+05 3.840400e+05 2.874534e+04 7.696363e+04 1.729933e+05 2.563643e+05 2.751231e+04 6.994516e+04 3.403870e+05 2.561057e+05 9.472029e+03 1.438313e+04 2.590680e+05 2.314103e+05 1.276196e+04 2.533239e+04 1.957854e+05 2.668458e+05 2.366332e+04 4.274943e+04 2.339630e+05 3.786389e+05 5.739996e+04 8.670716e+04 1.863780e+05 2.838532e+05 5.672888e+04 8.215299e+04
<GCONST> 5.249103e+02
<MIXTURE> 8 1.016833e-01
<MEAN> 40
 2.421136e+03 3.837510e+03 -4.642321e+01 -2.985103e+01 9.627189e+02 3.748713e+03 -6.124824e+01 -9.965445e+01 6.182564e+02 3.604382e+03 -7.867710e+01 -1.265647e+02 1.395757e+02 3.743385e+03 -9.532178e+01 -1.288969e+02 1.581019e+02 3.633460e+03 -6.195920e+01 -1.175834e+02 -2.831417e+03 2.968887e+03 3.016670e+01 -9.344266e+01 -1.352889e+03 1.926089e+03 3.887172e+01 -1.079612e+02 -1.032217e+03 1.382386e+03 6.508604e+01 -1.108746e+02 -3.942757e+02 1.618163e+03 9.570772e+01 -8.247993e+01 -7.170206e+02 1.719897e+03 5.553220e+01 -8.863617e+01
<VARIANCE> 40
 6.747317e+04 5.840475e+04 7.708678e+03 1.943654e+03 9.891018e+04 4.915357e+04 1.287533e+04 1.206855e+04 6.568100e+04 5.877873e+04 2.301036e+04 1.879859e+04 1.686209e+05 1.314394e+05 8.668966e+04 4.013329e+04 6.307422e+04 5.723290e+04 2.091787e+04 2.171143e+04 1.088187e+05 5.489625e+04 7.306401e+03 4.523789e+03 7.663914e+04 5.577238e+04 9.585523e+03 1.228924e+04 4.923452e+04 5.679191e+04 9.131354e+03 1.722840e+04 7.661415e+04 1.683720e+05 1.967955e+04 3.110739e+04 5.327918e+04 6.394977e+04 1.054946e+04 1.469724e+04
<GCONST> 4.885216e+02
<MIXTURE> 9 1.378262e-01
<MEAN> 40
 2.415552e+03 3.593186e+03 -9.039628e+01 1.427707e+01 1.078312e+03 3.166893e+03 -1.331714e+02 -1.283968e+02 6.691577e+02 3.000823e+03 -1.428846e+02 -1.487189e+02 2.122276e+02 3.074834e+03 -2.038684e+02 -1.663019e+02 3.091295e+02 3.026572e+03 -1.411384e+02 -1.781046e+02 -2.851394e+03 2.830581e+03 8.313911e+01 -1.040054e+02 -1.450942e+03 1.779950e+03 1.285847e+02 -2.795590e+02 -1.243949e+03 1.371550e+03 2.027158e+02 -3.202271e+02 -1.012705e+03 1.485921e+03 2.185562e+02 -3.124700e+02 -1.109029e+03 1.629051e+03 2.092539e+02 -2.889629e+02
<VARIANCE> 40
 9.440234e+04 9.484341e+04 8.645456e+03 5.568097e+03 1.155840e+05 6.371292e+04 1.308742e+04 1.134591e+04 7.314261e+04 6.614665e+04 2.249760e+04 1.773273e+04 2.113691e+05 1.246693e+05 5.544662e+04 4.690841e+04 8.259303e+04 9.362988e+04 3.954122e+04 4.448775e+04 1.888851e+05 1.343985e+05 1.353633e+04 1.474091e+04 1.030558e+05 1.555377e+05 2.469381e+04 9.213850e+04 1.565871e+05 1.876321e+05 9.224938e+04 1.655628e+05 2.558790e+05 3.023653e+05 1.654559e+05 2.378598e+05 2.122303e+05 2.346385e+05 2.300932e+05 2.356762e+05
<GCONST> 5.219713e+02
<MIXTURE> 10 1.089704e-01
<MEAN> 40
 2.359039e+03 3.678748e+03 -6.239684e-01 -1.372260e+01 1.215527e+03 3.359875e+03 -1.199702e+01 -5.232475e+01 6.827498e+02 3.209308e+03 -1.993339e+01 -6.806491e+01 -1.490148e+01 3.240827e+03 -4.182254e+01 -6.197423e+01 2.501726e+02 3.203455e+03 -2.478446e+01 -6.087957e+01 -2.768357e+03 2.655438e+03 -9.502005e+00 -6.438396e+01 -1.592503e+03 1.417854e+03 2.114367e+01 -6.009977e+01 -1.159006e+03 9.030579e+02 4.895197e+01 -7.303544e+01 -6.521903e+02 9.893756e+02 6.564708e+01 -6.045356e+01 -8.543801e+02 1.171614e+03 4.611969e+01 -6.084007e+01
<VARIANCE> 40
 1.747457e+05 1.052526e+05 1.531665e+03 1.166776e+03 1.517546e+05 9.868086e+04 2.744303e+03 3.374279e+03 8.457873e+04 1.044539e+05 4.279904e+03 5.319842e+03 1.527432e+05 1.775966e+05 7.243666e+03 1.184105e+04 9.226698e+04 1.099692e+05 6.473181e+03 1.466709e+04 2.346914e+05 1.802714e+05 1.957923e+03 3.438136e+03 1.190526e+05 1.242745e+05 2.744188e+03 4.443592e+03 9.406044e+04 1.607429e+05 7.920890e+03 7.948964e+03 2.450348e+05 2.812346e+05 8.391124e+03 1.154767e+04 1.153491e+05 1.718611e+05 6.128261e+03 1.278252e+04
<GCONST> 4.811142e+02
<STATE> 4
<NUMMIXES> 10
<MIXTURE> 1 5.831083e-02
<MEAN> 40
 2.134249e+03 3.600540e+03 -1.581371e-02 -1.303987e-02 1.043688e+03 3.170463e+03 -2.945615e-02 -4.831438e-02 6.231505e+02 3.019305e+03 -4.555992e-02 -8.060257e-02 4.716982e+01 2.956863e+03 -8.292774e-02 -1.120234e-01 1.623504e+02 2.996440e+03 -6.777415e-02 -7.317847e-02 -2.535115e+03 2.679532e+03 -4.583044e-03 -5.448854e-02 -1.509768e+03 1.545649e+03 1.218433e-02 -5.286855e-02 -1.138891e+03 1.063215e+03 3.477808e-02 -7.200226e-02 -6.867081e+02 1.079403e+03 6.573578e-02 -6.946242e-02 -8.443226e+02 1.273451e+03 3.773556e-02 -1.049583e-01
<VARIANCE> 40
 1.695029e+05 1.570063e+05 2.028973e-03 1.954820e-03 1.872058e+05 4.532618e+05 3.478891e-03 8.296397e-03 1.160433e+05 4.582618e+05 1.072332e-02 2.841767e-02 2.192832e+05 6.985202e+05 4.120554e-02 9.617298e-02 1.037554e+05 4.923520e+05 2.724144e-02 1.966339e-01 3.110399e+05 3.742142e+05 3.027534e-03 1.613440e-02 2.046050e+05 6.840854e+05 3.996940e-03 1.218562e-02 2.020619e+05 8.524607e+05 1.619788e-02 4.017449e-02 3.508946e+05 8.745397e+05 3.891708e-02 1.053757e-01 1.658719e+05 7.254634e+05 4.277253e-02 9.229650e-02
<GCONST> 2.468008e+02
<MIXTURE> 2 5.365433e-02
<MEAN> 40
 2.229209e+03 4.150267e+03 -4.757077e+01 1.250454e+01 1.399689e+03 4.963974e+03 -1.072186e+02 -7.402844e+01 1.192760e+03 4.777303e+03 -1.206145e+02 -6.630279e+01 9.384798e+02 5.030059e+03 -1.316201e+02 -5.881116e+01 6.227605e+02 4.702347e+03 -1.449125e+02 -8.451760e+01 -2.243390e+03 3.710457e+03 1.492643e+01 3.749457e+00 -1.937560e+03 3.315834e+03 1.155860e+02 -9.031480e+01 -1.904814e+03 2.709844e+03 1.939621e+02 -8.542898e+01 -1.701544e+03 2.314452e+03 2.915405e+02 -2.451699e+01 -1.552725e+03 2.714999e+03 2.103621e+02 1.283740e+01
<VARIANCE> 40
 2.291329e+05 1.390796e+05 5.660346e+03 3.121965e+03 4.755813e+05 3.025404e+05 1.678510e+04 2.002096e+04 3.777490e+05 3.002359e+05 3.569623e+04 1.954708e+04 5.882291e+05 7.223097e+05 2.859683e+04 3.945764e+04 4.104795e+05 3.465248e+05 4.210355e+04 5.272717e+04 3.512917e+05 3.047991e+05 8.908982e+03 6.281641e+03 5.243224e+05 5.642459e+05 1.815685e+04 6.318624e+04 3.078541e+05 7.274798e+05 4.522787e+04 7.249011e+04 3.787793e+05 1.079212e+06 9.123866e+04 1.094380e+05 2.576410e+05 7.803909e+05 6.071985e+04 6.814603e+04
<GCONST> 5.368381e+02
<MIXTURE> 3 9.428939e-02
<MEAN> 40
 2.154412e+03 3.488482e+03 -1.460138e-01 -2.166935e+01 1.339370e+03 2.562600e+03 -1.213949e+01 -7.077007e+01 7.144504e+02 2.299751e+03 -2.098923e+01 -1.061876e+02 -2.768203e+01 2.112995e+03 -3.216838e+01 -1.285760e+02 2.788410e+02 2.248204e+03 -1.991034e+01 -1.020096e+02 -2.813857e+03 1.939477e+03 -1.180212e+00 -1.795172e+01 -1.767173e+03 5.938421e+02 2.574623e+01 2.728396e+01 -1.081598e+03 1.505251e+02 5.006952e+01 5.835452e+01 -3.306555e+02 1.390304e+02 3.684636e+01 6.432355e+01 -7.825417e+02 3.831065e+02 3.010046e+01 3.826368e+01
<VARIANCE> 40
 2.043645e+05 2.293275e+05 4.207600e+03 2.553225e+03 2.190177e+05 2.047637e+05 2.779995e+03 8.132591e+03 1.322214e+05 3.109636e+05 7.102065e+03 1.600823e+04 1.494240e+05 5.655484e+05 1.955384e+04 3.633955e+04 1.310453e+05 4.149192e+05 1.155098e+04 3.256402e+04 4.533851e+05 1.894101e+05 3.651962e+03 9.349673e+03 2.523854e+05 2.188408e+05 4.474912e+03 1.334270e+04 1.344555e+05 2.026143e+05 6.421991e+03 2.074484e+04 1.146462e+05 2.910303e+05 1.174169e+04 4.468919e+04 1.412394e+05 2.387714e+05 1.157866e+04 3.679252e+04
<GCONST> 5.050491e+02
<MIXTURE> 4 8.585147e-02
<MEAN> 40
 2.345888e+03 3.719705e+03 -1.877155e+01 -1.022652e+01 7.671649e+02 3.634667e+03 -3.176070e+01 -5.479984e+01 4.246826e+02 3.435935e+03 -3.168555e+01 -6.914751e+01 -1.180130e+02 3.566427e+03 -5.938428e+01 -6.785710e+01 -1.742486e+01 3.492550e+03 -2.700154e+01 -7.739751e+01 -3.013250e+03 2.811409e+03 1.572515e+01 -2.546660e+01 -1.350028e+03 1.930191e+03 3.482546e+01 -5.598879e+00 -1.043366e+03 1.357855e+03 5.063336e+01 -1.384768e+01 -5.396923e+02 1.687778e+03 4.622634e+01 -1.086343e+01 -7.916765e+02 1.710136e+03 2.852756e+01 -1.463323e+01
<VARIANCE> 40
 4.969860e+04 6.997478e+04 1.655234e+03 6.848662e+02 5.172435e+04 6.750177e+04 2.525607e+03 1.645658e+03 4.323395e+04 8.226402e+04 2.940958e+03 2.537497e+03 1.907112e+05 1.364696e+05 1.124363e+04 5.162536e+03 3.152558e+04 7.358584e+04 3.462302e+03 4.267516e+03 1.497211e+05 1.033148e+05 1.695098e+03 1.545975e+03 7.041650e+04 6.621602e+04 2.137947e+03 3.285628e+03 6.654015e+04 5.285579e+04 4.013651e+03 4.248198e+03 2.011435e+05 1.314624e+05 4.615281e+03 3.185551e+03 1.026185e+05 6.034976e+04 2.803895e+03 3.398088e+03
<GCONST> 4.584087e+02
<MIXTURE> 5 1.473536e-01
<MEAN> 40
 2.270185e+03 3.926658e+03 -8.013539e+01 -9.070038e+00 7.188218e+02 3.668317e+03 -7.564273e+01 -1.381017e+02 4.076052e+02 3.459729e+03 -9.601851e+01 -1.821239e+02 -1.418168e+02 3.563138e+03 -1.375426e+02 -2.307513e+02 -2.736629e+01 3.455275e+03 -7.103262e+01 -1.984659e+02 -2.758677e+03 3.176935e+03 7.376253e+01 -6.065182e+01 -1.257291e+03 2.136688e+03 1.386197e+02 7.409050e+00 -1.099860e+03 1.686789e+03 1.673016e+02 6.452168e+01 -8.276549e+02 1.776088e+03 1.313406e+02 8.570142e+01 -9.134660e+02 1.881353e+03 1.337204e+02 6.425900e+01
<VARIANCE> 40
 7.060258e+04 7.924061e+04 7.666910e+03 2.728741e+03 8.521799e+04 1.138898e+05 1.601277e+04 1.739790e+04 5.687143e+04 1.399955e+05 3.168883e+04 2.895038e+04 1.574684e+05 1.777602e+05 5.410937e+04 5.426992e+04 6.351379e+04 1.399837e+05 4.289915e+04 4.090696e+04 1.374163e+05 1.355115e+05 1.476242e+04 8.499882e+03 1.000243e+05 1.584549e+05 2.581210e+04 3.559557e+04 1.150260e+05 1.918300e+05 6.579085e+04 5.560108e+04 2.148434e+05 2.798538e+05 1.260984e+05 1.059348e+05 1.506097e+05 1.961674e+05 9.255577e+04 9.137153e+04
<GCONST> 5.161025e+02
<MIXTURE> 6 1.143550e-01
<MEAN> 40
 2.480098e+03 4.188413e+03 -5.579411e+01 -3.593833e+01 9.548431e+02 3.609780e+03 -7.746114e+01 -1.336659e+02 5.615281e+02 3.161842e+03 -6.931583e+01 -1.733003e+02 -1.797266e+02 3.180910e+03 -1.011618e+02 -1.912011e+02 1.256320e+02 3.313024e+03 -6.480756e+01 -1.405777e+02 -3.465128e+03 2.172977e+03 8.841931e+01 -3.787156e+01 -1.635879e+03 1.315206e+03 1.767334e+02 6.294427e+01 -8.644677e+02 9.133242e+02 2.214893e+02 8.323174e+01 -2.377977e+02 1.278076e+03 1.365321e+02 1.884039e+02 -6.949868e+02 1.308363e+03 1.606641e+02 1.092538e+02
<VARIANCE> 40
 4.086429e+04 9.345916e+04 4.681385e+03 2.427723e+03 4.225473e+04 8.921467e+04 7.261164e+03 7.955527e+03 5.237623e+04 8.502125e+04 1.029740e+04 1.200273e+04 1.074997e+05 1.430561e+05 3.106531e+04 2.847336e+04 4.817426e+04 8.377002e+04 2.403943e+04 2.586799e+04 7.239532e+04 1.094770e+05 3.379936e+03 7.220371e+03 4.381772e+04 9.476565e+04 6.944266e+03 8.185418e+03 4.818830e+04 8.712011e+04 2.535509e+04 2.423250e+04 7.020619e+04 2.280111e+05 3.002476e+04 4.524893e+04 4.464430e+04 9.605703e+04 2.938437e+04 1.877976e+04
<GCONST> 4.880540e+02
<MIXTURE> 7 1.189344e-01
<MEAN> 40
 2.259097e+03 3.645434e+03 -3.447654e+01 -1.322517e+01 1.114684e+03 3.095667e+03 -4.107440e+01 -6.986375e+01 5.888032e+02 2.922031e+03 -5.958339e+01 -9.033974e+01 2.604755e+01 2.903560e+03 -7.819453e+01 -1.166904e+02 2.496179e+02 2.914237e+03 -5.019577e+01 -8.986941e+01 -2.614266e+03 2.715943e+03 1.666123e+01 -7.945523e+01 -1.327722e+03 1.538955e+03 5.931691e+01 -4.608506e+01 -9.629212e+02 1.129832e+03 8.772071e+01 -1.582107e+01 -5.770242e+02 1.204720e+03 1.085921e+02 -2.942588e+01 -7.714157e+02 1.379700e+03 7.329552e+01 -2.633716e+01
<VARIANCE> 40
 1.106944e+05 8.432472e+04 1.977501e+03 1.120052e+03 1.197664e+05 6.402001e+04 3.105183e+03 3.416406e+03 5.145455e+04 5.820209e+04 5.335969e+03 6.082618e+03 2.259636e+05 1.215120e+05 2.055870e+04 1.602281e+04 7.231395e+04 6.579880e+04 7.582557e+03 9.298863e+03 1.132739e+05 9.228955e+04 4.706803e+03 4.375978e+03 7.397824e+04 7.788225e+04 6.115874e+03 1.269989e+04 1.209133e+05 1.243247e+05 2.652394e+04 4.456231e+04 2.402424e+05 2.477309e+05 6.941248e+04 8.136248e+04 1.232713e+05 1.361828e+05 4.437789e+04 5.431587e+04
<GCONST> 4.904270e+02
<MIXTURE> 8 1.160330e-01
<MEAN> 40
 2.235116e+03 3.611336e+03 -7.742487e+01 -4.070362e+01 1.066134e+03 2.927200e+03 -1.203883e+02 -1.709580e+02 6.359572e+02 2.671177e+03 -1.645538e+02 -2.537495e+02 1.929887e+02 2.595225e+03 -1.379179e+02 -3.199968e+02 2.852523e+02 2.648651e+03 -1.249423e+02 -2.446706e+02 -2.731898e+03 2.469183e+03 6.523323e+01 -1.109548e+02 -1.495780e+03 1.393260e+03 1.082293e+02 -5.768344e+01 -1.046025e+03 9.756083e+02 1.465447e+02 -5.926268e+01 -6.034592e+02 1.018459e+03 1.584593e+02 -3.130951e+01 -8.695931e+02 1.244233e+03 1.059596e+02 -1.947023e+01
<VARIANCE> 40
 1.291918e+05 1.434180e+05 2.280264e+04 9.025594e+03 2.225020e+05 1.519388e+05 4.729750e+04 4.592531e+04 1.277046e+05 1.272224e+05 7.747332e+04 7.014245e+04 2.530681e+05 2.598283e+05 2.043902e+05 1.706683e+05 1.420246e+05 1.853552e+05 1.093880e+05 1.367944e+05 2.831691e+05 2.881261e+05 2.475939e+04 3.042254e+04 2.391664e+05 3.033261e+05 4.088614e+04 9.912987e+04 1.788697e+05 3.734312e+05 9.256473e+04 1.481303e+05 2.657069e+05 4.664115e+05 1.786352e+05 1.821246e+05 2.110985e+05 3.673920e+05 1.411133e+05 1.869802e+05
<GCONST> 5.443577e+02
<MIXTURE> 9 1.015154e-01
<MEAN> 40
 2.171565e+03 3.647248e+03 -3.871995e+00 -1.099042e+00 1.073318e+03 3.206195e+03 -7.403276e+00 -1.154924e+01 5.777125e+02 3.025846e+03 -1.001146e+01 -2.181765e+01 -1.012081e+01 2.983928e+03 -2.438368e+01 -2.871911e+01 1.473507e+02 3.003059e+03 -1.475015e+01 -2.635551e+01 -2.622294e+03 2.689715e+03 -1.107605e+00 -1.635781e+01 -1.573078e+03 1.553312e+03 7.472236e+00 -1.470675e+01 -1.163479e+03 1.072487e+03 1.580501e+01 -1.555051e+01 -6.300353e+02 1.054003e+03 2.003573e+01 -1.260085e+01 -8.824922e+02 1.304796e+03 1.808747e+01 -8.481854e+00
<VARIANCE> 40
 1.932595e+05 1.276305e+05 1.584436e+02 9.827272e+01 1.614409e+05 2.534188e+05 1.521134e+02 1.705230e+02 8.039669e+04 2.109344e+05 3.359818e+02 6.563231e+02 2.053090e+05 3.276578e+05 1.566406e+03 2.095085e+03 7.954349e+04 2.225340e+05 6.426088e+02 2.278274e+03 3.503054e+05 3.500816e+05 2.663451e+02 4.069238e+02 2.002257e+05 4.292951e+05 3.446050e+02 5.366268e+02 1.723942e+05 5.079936e+05 7.985976e+02 1.069431e+03 2.897252e+05 6.712645e+05 1.443751e+03 2.510588e+03 1.784027e+05 4.756840e+05 1.729336e+03 1.936966e+03
<GCONST> 4.498521e+02
<MIXTURE> 10 1.097017e-01
<MEAN> 40
 1.665210e+03 3.567815e+03 -6.090485e+00 -1.027694e+01 8.993919e+02 2.998344e+03 -2.797960e+01 -4.795263e+01 4.621035e+02 2.766182e+03 -4.029203e+01 -5.143037e+01 4.950447e+01 2.690839e+03 -6.468524e+01 -5.670806e+01 8.549889e+01 2.778822e+03 -2.795531e+01 -5.230447e+01 -1.859206e+03 3.371515e+03 -5.138415e+01 -5.444154e+01 -1.545719e+03 2.293694e+03 1.420315e+01 -1.937423e+02 -1.302354e+03 2.006105e+03 6.909625e+01 -1.854999e+02 -1.166036e+03 1.944012e+03 7.847491e+01 -1.575754e+02 -1.140295e+03 2.091428e+03 1.952714e+01 -1.240660e+02
<VARIANCE> 40
 3.938539e+04 2.001888e+04 8.070656e+02 5.664301e+02 8.295520e+04 4.338429e+04 1.353679e+03 2.746348e+03 3.372546e+04 5.870727e+04 2.721856e+03 3.419455e+03 1.148324e+05 9.649599e+04 1.338353e+04 1.041181e+04 4.387427e+04 5.935714e+04 3.662779e+03 4.874880e+03 6.247923e+04 2.755943e+04 3.289134e+03 4.605595e+03 5.595790e+04 9.317645e+04 5.514137e+03 2.206162e+04 8.616881e+04 9.210411e+04 2.369898e+04 3.910075e+04 1.577396e+05 2.127960e+05 4.549494e+04 5.235002e+04 7.341080e+04 9.113852e+04 4.340968e+04 5.445200e+04
<GCONST> 4.741463e+02
<STATE> 5
<NUMMIXES> 10
<MIXTURE> 1 7.489654e-02
<MEAN> 40
 2.221159e+03 4.071772e+03 -7.582328e+01 3.615931e+00 1.073162e+03 4.417906e+03 -1.216539e+02 -1.357872e+02 8.298220e+02 4.201697e+03 -1.600788e+02 -1.575307e+02 3.871750e+02 4.344934e+03 -2.383384e+02 -1.937320e+02 3.398737e+02 4.137115e+03 -1.161723e+02 -1.584261e+02 -2.335530e+03 3.568458e+03 6.194957e+01 1.789919e-01 -1.518327e+03 3.186167e+03 1.502359e+02 1.127483e+02 -1.452747e+03 2.660838e+03 2.170835e+02 1.430141e+02 -1.216322e+03 2.414365e+03 2.414375e+02 1.502229e+02 -1.148591e+03 2.711417e+03 2.242647e+02 1.344296e+02
<VARIANCE> 40
 1.841650e+05 1.351619e+05 1.153605e+04 3.907409e+03 4.727705e+05 5.571474e+05 2.657197e+04 3.440852e+04 3.852589e+05 6.805964e+05 6.337905e+04 5.426046e+04 5.905134e+05 1.012763e+06 9.988616e+04 1.072454e+05 3.633320e+05 7.306508e+05 7.387956e+04 7.842112e+04 2.959659e+05 2.640446e+05 3.599472e+04 1.809699e+04 6.933570e+05 5.823918e+05 9.329998e+04 3.880202e+05 4.506855e+05 6.587433e+05 1.897827e+05 3.791040e+05 4.260752e+05 8.662978e+05 2.859318e+05 3.083727e+05 3.795931e+05 6.188920e+05 1.935860e+05 3.943874e+05
<GCONST> 5.601615e+02
<MIXTURE> 2 8.555139e-02
<MEAN> 40
 2.172947e+03 3.535630e+03 -1.393680e+00 -7.460018e-01 9.918360e+02 2.992193e+03 -2.268275e+00 -3.639888e+00 4.892957e+02 2.751983e+03 -3.609850e+00 -6.666070e+00 -9.134081e+01 2.661967e+03 -1.030158e+01 -1.099569e+01 1.299779e+02 2.750890e+03 -5.384632e+00 -1.103530e+01 -2.560189e+03 2.530558e+03 4.360101e-01 -1.585739e+00 -1.334771e+03 1.502665e+03 2.247725e+00 -1.861213e+00 -8.894431e+02 1.107870e+03 4.145883e+00 -1.318567e+00 -4.508728e+02 1.187390e+03 5.525433e+00 -1.487085e+00 -7.257675e+02 1.378268e+03 9.552815e+00 3.404232e-03
<VARIANCE> 40
 1.242712e+05 1.920731e+05 1.083588e+01 9.057607e+00 1.563841e+05 2.729671e+05 1.543855e+01 2.603415e+01 8.364225e+04 2.827779e+05 5.222456e+01 8.966808e+01 1.439246e+05 4.466376e+05 2.855740e+02 2.177125e+02 9.041120e+04 3.165063e+05 1.358196e+02 3.633994e+02 2.653135e+05 3.690302e+05 3.504304e+01 4.985744e+01 1.358191e+05 3.722516e+05 3.846595e+01 7.722775e+01 1.306651e+05 4.536555e+05 9.745061e+01 2.227041e+02 2.537085e+05 5.274680e+05 2.794307e+02 3.807282e+02 1.718220e+05 4.393677e+05 4.273916e+02 6.180707e+02
<GCONST> 4.105505e+02
<MIXTURE> 3 1.136164e-01
<MEAN> 40
 2.447435e+03 4.201744e+03 -1.890815e+01 -3.973140e+01 8.204042e+02 3.422043e+03 -4.488520e+01 -8.680357e+01 5.312654e+02 2.826713e+03 -1.763366e+01 -1.113951e+02 -2.722474e+02 2.662998e+03 -4.393735e+01 -1.672723e+02 3.856413e+01 3.022662e+03 -3.641346e+01 -1.132258e+02 -3.403574e+03 2.223434e+03 3.701323e+01 6.169908e+01 -1.383040e+03 1.597953e+03 6.766616e+01 1.274119e+02 -5.215611e+02 1.259573e+03 6.194691e+01 1.510102e+02 -1.539285e+02 1.814646e+03 -3.188887e+01 1.644333e+02 -4.432457e+02 1.592079e+03 5.750801e+01 8.629283e+01
<VARIANCE> 40
 3.123621e+04 4.896506e+04 2.506782e+03 1.548770e+03 2.549778e+04 6.137691e+04 3.112021e+03 4.822272e+03 3.665924e+04 8.729063e+04 6.829029e+03 6.391751e+03 8.007922e+04 2.054672e+05 3.180588e+04 3.755512e+04 4.697231e+04 8.909017e+04 1.111424e+04 1.245057e+04 2.190744e+04 8.663962e+04 1.899371e+03 2.868251e+03 2.254444e+04 5.777805e+04 3.331154e+03 5.466310e+03 2.968942e+04 6.581409e+04 1.084964e+04 2.750077e+04 3.801190e+04 1.882486e+05 1.555210e+04 3.278598e+04 3.331405e+04 5.283339e+04 1.559082e+04 2.062412e+04
<GCONST> 4.714386e+02
<MIXTURE> 4 1.405393e-01
<MEAN> 40
 2.219886e+03 3.884621e+03 -3.994969e+01 -1.572656e+01 6.440792e+02 3.645169e+03 -4.237876e+01 -1.072462e+02 3.513251e+02 3.418494e+03 -4.367934e+01 -1.303294e+02 -2.364260e+02 3.509039e+03 -7.019222e+01 -1.523670e+02 -7.108601e+01 3.416526e+03 -1.183021e+01 -1.418684e+02 -2.759697e+03 3.079590e+03 3.872036e+01 -2.068880e+01 -1.151589e+03 2.226573e+03 8.329981e+01 8.727664e+01 -9.498932e+02 1.743269e+03 7.140491e+01 1.185539e+02 -6.276859e+02 1.879963e+03 1.721980e+01 9.123323e+01 -7.539603e+02 1.950280e+03 4.483537e+01 7.114066e+01
<VARIANCE> 40
 4.177334e+04 9.074864e+04 3.432054e+03 1.212880e+03 6.094285e+04 5.877221e+04 6.424345e+03 8.391945e+03 3.991886e+04 7.014973e+04 1.247334e+04 9.425666e+03 1.261503e+05 9.260052e+04 8.059119e+04 2.804272e+04 4.331057e+04 7.725588e+04 1.481369e+04 1.454143e+04 1.274017e+05 1.365512e+05 4.673320e+03 3.283446e+03 7.981262e+04 1.349309e+05 8.991516e+03 1.297598e+04 1.098398e+05 1.678866e+05 2.733975e+04 3.396273e+04 1.703282e+05 2.286823e+05 2.176632e+04 3.024383e+04 1.023698e+05 1.384333e+05 2.582053e+04 2.232579e+04
<GCONST> 4.911144e+02
<MIXTURE> 5 5.577698e-02
<MEAN> 40
 2.222246e+03 3.590944e+03 -6.216869e+01 -3.646827e+01 1.387806e+03 2.270824e+03 -1.439824e+02 -1.188831e+02 7.833459e+02 1.902025e+03 -1.044429e+02 -1.855971e+02 1.187842e+02 1.449313e+03 -7.321529e+01 -3.332908e+02 4.336313e+02 1.699477e+03 -3.243006e+01 -2.622403e+02 -2.719464e+03 2.216909e+03 3.285735e+01 7.699954e+01 -1.647894e+03 1.123415e+03 9.532331e+01 2.434821e+02 -9.756100e+02 7.081293e+02 4.963953e+01 2.295354e+02 -2.489641e+02 6.107637e+02 1.429756e+01 1.667200e+02 -6.991164e+02 8.963290e+02 3.270765e+01 2.284371e+02
<VARIANCE> 40
 2.658529e+05 2.013143e+05 3.994845e+04 4.009090e+04 2.058475e+05 6.714305e+04 5.635498e+04 4.366707e+04 1.300175e+05 8.924355e+04 4.900536e+04 6.497597e+04 1.691309e+05 2.377477e+05 8.674813e+04 2.443219e+05 1.258361e+05 1.350655e+05 8.261330e+04 1.469736e+05 2.863845e+05 1.119042e+05 2.302883e+04 2.506441e+04 2.082630e+05 1.325509e+05 3.293813e+04 5.371046e+04 1.099650e+05 1.777919e+05 3.073353e+04 6.671412e+04 7.675344e+04 3.232256e+05 5.145743e+04 9.061950e+04 1.197335e+05 1.940970e+05 8.054690e+04 8.771880e+04
<GCONST> 5.319943e+02
<MIXTURE> 6 8.317550e-02
<MEAN> 40
 2.293683e+03 2.965698e+03 -7.436157e+00 -3.137898e+01 9.929830e+02 2.745882e+03 8.748212e-01 -4.207750e+01 3.947867e+02 2.577912e+03 -1.657501e+01 -3.954211e+01 -9.746965e+01 2.591321e+03 -1.878489e+01 -4.529288e+01 8.100075e+01 2.651185e+03 -1.534370e+01 -3.407040e+01 -2.427795e+03 1.903782e+03 1.521839e+01 -3.967186e+01 -1.141579e+03 9.936083e+02 3.086964e+01 -2.347198e+00 -6.654128e+02 5.002260e+02 5.427269e+01 -8.679452e+00 -1.278869e+02 6.846705e+02 5.708309e+01 -7.117482e+00 -4.632782e+02 8.213119e+02 4.165087e+01 -1.288095e+01
<VARIANCE> 40
 1.917902e+04 5.210341e+04 1.223730e+03 1.529539e+03 3.183274e+04 3.044034e+04 1.157489e+03 1.799852e+03 3.104785e+04 5.594663e+04 1.609751e+03 1.950735e+03 1.315752e+05 1.014483e+05 1.043550e+04 6.456119e+03 3.066569e+04 5.329062e+04 1.983789e+03 2.560394e+03 3.436723e+04 9.963700e+04 2.942554e+03 8.023343e+03 2.363077e+04 8.648263e+04 4.478819e+03 1.718459e+04 4.382525e+04 9.978638e+04 1.044875e+04 2.501792e+04 5.997020e+04 1.038527e+05 1.484383e+04 3.011365e+04 5.499411e+04 9.698565e+04 2.540251e+04 2.814511e+04
<GCONST> 4.635160e+02
<MIXTURE> 7 1.628034e-01
<MEAN> 40
 2.200635e+03 3.736118e+03 -5.536240e+01 -1.145696e+01 7.586295e+02 3.225362e+03 -6.237333e+01 -8.167506e+01 3.163145e+02 2.899463e+03 -7.880677e+01 -1.310900e+02 -2.768722e+02 2.848071e+03 -1.216573e+02 -2.276510e+02 -3.379092e+01 2.946039e+03 -5.489003e+01 -1.343375e+02 -2.852132e+03 2.718158e+03 4.875445e+01 -2.966446e+01 -1.239548e+03 1.920086e+03 1.213130e+02 1.290111e+02 -1.011466e+03 1.598309e+03 8.819324e+01 2.224863e+02 -8.330940e+02 1.659267e+03 1.078489e+01 1.941652e+02 -9.428372e+02 1.780853e+03 7.172962e+00 1.828537e+02
<VARIANCE> 40
 8.829325e+04 6.897556e+04 4.043502e+03 1.288289e+03 9.349317e+04 4.584136e+04 7.663113e+03 9.930702e+03 4.611415e+04 5.932746e+04 1.243913e+04 1.990353e+04 1.590698e+05 1.417827e+05 3.738331e+04 4.986266e+04 5.825321e+04 6.908232e+04 1.962656e+04 2.864722e+04 1.812396e+05 1.732776e+05 1.064129e+04 9.668716e+03 1.281801e+05 1.059028e+05 2.176643e+04 4.122364e+04 1.258411e+05 1.261305e+05 1.065195e+05 9.757238e+04 1.981137e+05 2.282666e+05 1.752542e+05 1.492966e+05 2.020300e+05 1.745592e+05 2.377384e+05 1.267644e+05
<GCONST> 5.103981e+02
<MIXTURE> 8 8.219934e-02
<MEAN> 40
 1.636384e+03 3.522576e+03 -3.120206e+01 -2.566479e+01 8.377601e+02 2.843765e+03 -3.813875e+01 -9.351951e+01 3.651590e+02 2.596073e+03 -6.563575e+01 -9.776230e+01 -3.736816e+01 2.452409e+03 -8.813005e+01 -1.445544e+02 5.107084e+01 2.608083e+03 -3.767553e+01 -9.936826e+01 -2.032641e+03 3.112455e+03 -9.354481e+01 -1.730674e+02 -1.433332e+03 1.870165e+03 6.813452e+01 -2.711824e+02 -1.016629e+03 1.607770e+03 1.803736e+02 -2.387167e+02 -9.048079e+02 1.679999e+03 1.860620e+02 -2.020277e+02 -1.020651e+03 1.852798e+03 9.325893e+01 -1.891105e+02
<VARIANCE> 40
 3.380886e+04 2.234031e+04 1.974250e+03 1.752562e+03 1.002053e+05 3.617353e+04 3.850214e+03 5.862550e+03 4.323632e+04 4.644037e+04 8.755154e+03 1.018730e+04 1.590182e+05 9.824668e+04 4.556947e+04 3.174795e+04 5.482186e+04 4.701314e+04 1.607022e+04 1.906017e+04 7.040991e+04 3.629605e+04 9.543978e+03 1.101889e+04 6.853191e+04 7.738424e+04 1.725087e+04 4.195406e+04 6.580342e+04 8.988559e+04 5.877926e+04 7.637091e+04 2.033343e+05 1.921467e+05 1.244440e+05 1.318420e+05 9.859081e+04 1.405576e+05 1.181131e+05 9.760626e+04
<GCONST> 4.955386e+02
<MIXTURE> 9 9.147558e-02
<MEAN> 40
 2.254538e+03 3.734291e+03 -7.183673e+01 -3.333725e+01 1.067131e+03 3.017683e+03 -9.490820e+01 -1.052994e+02 6.031265e+02 2.736918e+03 -9.921383e+01 -1.420583e+02 1.413149e+02 2.645824e+03 -1.300447e+02 -2.042094e+02 2.813467e+02 2.716654e+03 -7.710612e+01 -1.672189e+02 -2.663986e+03 2.613898e+03 9.032427e+00 -4.446840e+01 -1.173033e+03 1.671328e+03 6.207703e+01 4.804046e+01 -6.267839e+02 1.344783e+03 7.637694e+01 1.031094e+02 -2.258948e+02 1.539508e+03 1.241887e+01 8.916058e+01 -5.026489e+02 1.587392e+03 4.345157e+01 7.367020e+01
<VARIANCE> 40
 1.164858e+05 7.027579e+04 7.309026e+03 3.318213e+03 1.468273e+05 8.304079e+04 1.256930e+04 1.564539e+04 6.850612e+04 7.039269e+04 2.033251e+04 2.085186e+04 2.667125e+05 1.810946e+05 8.380497e+04 5.884134e+04 9.349635e+04 1.183181e+05 4.235141e+04 5.845570e+04 1.314856e+05 8.959562e+04 4.990721e+03 6.895007e+03 5.574706e+04 6.425462e+04 7.504518e+03 1.236455e+04 7.311447e+04 1.077157e+05 2.063994e+04 2.310033e+04 1.608582e+05 2.585570e+05 4.733152e+04 3.864085e+04 7.908591e+04 8.761212e+04 2.065310e+04 2.593901e+04
<GCONST> 5.016982e+02
<MIXTURE> 10 1.099676e-01
<MEAN> 40
 2.063907e+03 3.508396e+03 -6.659329e+01 -2.571167e+01 9.207414e+02 2.739620e+03 -6.984470e+01 -1.007121e+02 4.260847e+02 2.495308e+03 -9.111795e+01 -1.505016e+02 -2.168679e+02 2.377256e+03 -1.016819e+02 -1.855938e+02 4.933743e+01 2.472273e+03 -7.406142e+01 -1.606011e+02 -2.789311e+03 2.258691e+03 4.027068e+01 -3.769785e+01 -1.450922e+03 1.185190e+03 1.037990e+02 7.216734e+01 -9.453371e+02 7.874241e+02 1.220775e+02 1.384148e+02 -4.675161e+02 7.677372e+02 7.718606e+01 1.526981e+02 -7.457497e+02 1.016665e+03 9.672248e+01 1.037464e+02
<VARIANCE> 40
 1.309154e+05 8.595658e+04 5.469854e+03 3.436094e+03 1.287745e+05 8.095873e+04 8.004602e+03 1.129491e+04 4.355136e+04 8.689284e+04 1.708310e+04 1.900972e+04 9.772152e+04 1.617671e+05 4.681437e+04 4.910340e+04 5.416831e+04 1.107475e+05 2.480770e+04 4.362060e+04 2.055411e+05 1.360382e+05 9.338293e+03 1.291259e+04 7.344523e+04 6.416368e+04 1.598723e+04 2.293644e+04 7.575600e+04 1.056664e+05 3.811345e+04 6.933938e+04 1.441651e+05 2.415657e+05 1.008299e+05 1.103265e+05 1.050471e+05 1.439707e+05 9.312587e+04 8.377159e+04
<GCONST> 5.075816e+02
<STATE> 6
<NUMMIXES> 10
<MIXTURE> 1 7.120542e-02
<MEAN> 40
 2.098739e+03 4.176370e+03 -6.267561e+01 5.492049e+00 1.093913e+03 4.592726e+03 -9.234855e+01 -1.021098e+02 7.821176e+02 4.413608e+03 -1.541194e+02 -1.203517e+02 3.401269e+02 4.548797e+03 -1.712420e+02 -1.199881e+02 2.829521e+02 4.311826e+03 -1.230581e+02 -1.487734e+02 -2.236267e+03 3.716638e+03 2.587943e+00 -4.264880e-01 -1.601940e+03 3.276660e+03 9.051484e+01 4.234558e+01 -1.308481e+03 2.804555e+03 1.959389e+02 8.397848e+01 -9.424926e+02 2.573019e+03 2.407890e+02 1.558941e+02 -9.660035e+02 2.857539e+03 2.053714e+02 1.247978e+02
<VARIANCE> 40
 2.015385e+05 1.158852e+05 6.420707e+03 2.525458e+03 4.359368e+05 2.659411e+05 1.224981e+04 2.373186e+04 3.209582e+05 2.749260e+05 2.911119e+04 2.818481e+04 4.895060e+05 5.954121e+05 3.902802e+04 5.323575e+04 3.384148e+05 3.523216e+05 5.134927e+04 4.949224e+04 3.298269e+05 1.949036e+05 6.612623e+03 5.201454e+03 4.918370e+05 4.289882e+05 1.209844e+04 3.616912e+04 3.405538e+05 5.022491e+05 3.650336e+04 6.206699e+04 3.876652e+05 7.704420e+05 8.043109e+04 1.001635e+05 3.079148e+05 5.262780e+05 6.512743e+04 7.592891e+04
<GCONST> 5.326799e+02
<MIXTURE> 2 1.147396e-01
<MEAN> 40
 2.146491e+03 3.887958e+03 -6.087854e+01 -1.292157e+01 5.679598e+02 3.524139e+03 -4.388712e+01 -7.521181e+01 2.614709e+02 3.170248e+03 -7.709359e+01 -1.521161e+02 -4.544873e+02 3.146171e+03 -1.042368e+02 -2.168188e+02 -1.062757e+02 3.100871e+03 -1.917908e+01 -1.681001e+02 -2.573748e+03 3.160127e+03 5.600268e+01 -7.428358e+00 -9.254008e+02 2.658166e+03 1.049619e+02 2.253026e+02 -9.078664e+02 2.236623e+03 1.042395e+02 2.761326e+02 -6.855909e+02 2.223095e+03 6.021032e+01 2.368574e+02 -6.795181e+02 2.341525e+03 1.178067e+02 2.294381e+02
<VARIANCE> 40
 4.038588e+04 8.224416e+04 3.565426e+03 1.161475e+03 6.921888e+04 4.950706e+04 8.764941e+03 9.577452e+03 3.072015e+04 7.470909e+04 1.565988e+04 1.743205e+04 6.304416e+04 1.353785e+05 3.131812e+04 4.115316e+04 3.310477e+04 6.977198e+04 1.300796e+04 1.631887e+04 7.484017e+04 1.323385e+05 1.060902e+04 6.850822e+03 9.466394e+04 1.754490e+05 2.575851e+04 1.047451e+05 1.303670e+05 1.416794e+05 7.996317e+04 1.155167e+05 1.318710e+05 1.987708e+05 8.901728e+04 8.456800e+04 1.114886e+05 1.353019e+05 9.635830e+04 8.646979e+04
<GCONST> 5.023975e+02
<MIXTURE> 3 1.174111e-01
<MEAN> 40
 2.215548e+03 3.370636e+03 -2.542063e+01 -1.379644e+01 9.666761e+02 2.818972e+03 -2.983547e+01 -3.441116e+01 4.067534e+02 2.544396e+03 -3.193355e+01 -6.100718e+01 -2.262143e+02 2.444019e+03 -4.257000e+01 -8.280566e+01 1.097242e+02 2.580807e+03 -2.907340e+01 -5.628531e+01 -2.554872e+03 2.303737e+03 3.271184e+01 1.519926e+01 -1.076985e+03 1.558635e+03 7.522902e+01 1.725708e+02 -6.464194e+02 1.297440e+03 5.145419e+01 2.709227e+02 -3.720973e+02 1.399090e+03 -1.951951e+01 2.283680e+02 -5.424252e+02 1.443354e+03 2.555424e+01 2.010185e+02
<VARIANCE> 40
 6.400909e+04 1.404780e+05 1.363487e+03 1.116651e+03 6.661165e+04 4.320758e+04 2.063688e+03 2.268985e+03 2.791559e+04 3.455214e+04 2.875815e+03 4.097578e+03 1.019933e+05 9.263359e+04 1.406622e+04 1.315992e+04 3.786658e+04 4.230242e+04 3.729737e+03 5.340313e+03 1.040044e+05 1.084146e+05 6.949660e+03 6.901354e+03 4.077427e+04 8.162340e+04 1.868362e+04 2.796392e+04 1.148590e+05 1.302773e+05 8.799643e+04 7.351416e+04 2.154705e+05 1.742131e+05 1.121586e+05 9.764199e+04 1.245744e+05 1.048573e+05 1.022236e+05 7.485324e+04
<GCONST> 4.871541e+02
<MIXTURE> 4 8.188514e-02
<MEAN> 40
 2.119009e+03 3.519230e+03 -1.680400e+01 1.503713e+00 1.299720e+03 2.267447e+03 -2.341385e+01 2.716565e+01 6.892049e+02 1.944242e+03 -2.602629e+01 3.636051e+01 3.126588e+01 1.517366e+03 -2.974599e+01 2.348301e+01 2.910058e+02 1.762754e+03 -3.977332e+01 2.143169e+01 -2.692384e+03 2.207698e+03 1.062874e+01 4.511120e+01 -1.548798e+03 1.170791e+03 2.220420e+01 8.407207e+01 -8.771281e+02 7.526749e+02 2.282698e+01 8.335639e+01 -2.302972e+02 6.179413e+02 -9.270587e+00 8.328654e+01 -5.928956e+02 9.413164e+02 3.132236e+01 7.711631e+01
<VARIANCE> 40
 2.299335e+05 1.656569e+05 4.095183e+03 2.097059e+03 2.308805e+05 6.551693e+04 3.405504e+03 7.417686e+03 1.562955e+05 7.202420e+04 4.101257e+03 1.143829e+04 1.700458e+05 1.694802e+05 1.351363e+04 2.698275e+04 1.237261e+05 1.025741e+05 1.746708e+04 3.613243e+04 2.402406e+05 1.759288e+05 5.271635e+03 8.078735e+03 1.328612e+05 1.550805e+05 7.514934e+03 1.042968e+04 8.149597e+04 1.510572e+05 1.248903e+04 1.395435e+04 9.570393e+04 2.612868e+05 2.212564e+04 2.931316e+04 8.951593e+04 1.739012e+05 2.193968e+04 2.985400e+04
<GCONST> 4.966339e+02
<MIXTURE> 5 7.398222e-02
<MEAN> 40
 2.064513e+03 3.407422e+03 -4.337483e+01 -1.816329e+01 9.610484e+02 2.692605e+03 -3.426813e+01 -3.963719e+01 4.216152e+02 2.367199e+03 -3.389216e+01 -4.943074e+01 -1.878725e+02 2.132069e+03 -3.431330e+01 -9.951943e+01 1.011245e+02 2.331779e+03 -3.660819e+01 -4.391919e+01 -2.541959e+03 2.465020e+03 -3.580826e+01 4.413443e+01 -1.410088e+03 1.841550e+03 -1.540629e+01 1.649378e+02 -1.097981e+03 1.573320e+03 -1.181720e+02 2.505350e+02 -7.786074e+02 1.419849e+03 -1.783006e+02 2.007923e+02 -9.758582e+02 1.633710e+03 -1.310172e+02 1.856425e+02
<VARIANCE> 40
 1.434097e+05 1.598214e+05 1.044574e+04 5.269400e+03 2.162062e+05 1.383216e+05 1.216970e+04 2.352096e+04 1.108670e+05 1.228476e+05 1.237533e+04 3.568416e+04 2.033209e+05 2.979521e+05 5.906048e+04 1.269738e+05 1.071039e+05 1.904510e+05 4.650470e+04 1.033366e+05 1.846572e+05 2.029329e+05 8.301187e+04 4.173743e+04 3.448341e+05 4.090041e+05 2.765472e+05 5.381172e+05 2.742507e+05 3.691188e+05 3.580094e+05 5.342737e+05 3.742910e+05 4.198702e+05 4.195671e+05 4.396180e+05 4.323660e+05 3.584462e+05 5.059585e+05 4.476755e+05
<GCONST> 5.482878e+02
<MIXTURE> 6 8.259320e-02
<MEAN> 40
 2.466019e+03 4.053986e+03 6.243207e+00 -1.193150e+01 7.466432e+02 3.319224e+03 9.823116e-01 1.828395e+01 5.679528e+02 2.597132e+03 7.560997e+00 7.984567e+00 -2.714294e+02 2.345800e+03 -1.615134e+01 1.594453e+01 4.891712e+01 2.758679e+03 1.050628e+01 -1.784462e+00 -3.315416e+03 2.428631e+03 1.650475e+01 8.215368e+01 -1.256867e+03 1.928321e+03 8.962686e+00 8.861757e+01 -4.089522e+02 1.554692e+03 -9.569201e+00 9.694046e+01 -2.219771e+02 2.254160e+03 -1.008048e+01 6.904108e+01 -3.206163e+02 1.865838e+03 1.930332e+01 7.803648e+01
<VARIANCE> 40
 2.604719e+04 3.179479e+04 9.195481e+02 7.863163e+02 2.183268e+04 2.659071e+04 1.524359e+03 3.285195e+03 2.062346e+04 4.144861e+04 1.893188e+03 2.922772e+03 5.842147e+04 1.162230e+05 3.642209e+03 4.563429e+03 2.271193e+04 4.328335e+04 1.925426e+03 2.906861e+03 1.545801e+04 8.087047e+04 1.163361e+03 1.796018e+03 1.472770e+04 3.005006e+04 1.154508e+03 1.880811e+03 2.784388e+04 3.889251e+04 4.806228e+03 1.384919e+04 2.983891e+04 8.378880e+04 2.411815e+03 1.050710e+04 3.249155e+04 4.366137e+04 5.967725e+03 1.038640e+04
<GCONST> 4.412658e+02
<MIXTURE> 7 1.423374e-01
<MEAN> 40
 2.198778e+03 3.746321e+03 -1.791053e+01 -2.591807e+00 7.606943e+02 3.212439e+03 -2.381220e+01 -2.217599e+01 2.958221e+02 2.871279e+03 -3.184312e+01 -4.912741e+01 -2.833565e+02 2.755607e+03 -3.774443e+01 -8.416072e+01 -1.383528e+01 2.905305e+03 -2.525769e+01 -6.067240e+01 -2.931515e+03 2.649482e+03 1.457111e+01 1.855432e+01 -1.274975e+03 2.018520e+03 3.309773e+01 8.325428e+01 -8.527737e+02 1.718053e+03 3.451789e+01 9.584704e+01 -6.370178e+02 1.852551e+03 1.149434e+01 7.534866e+01 -7.655690e+02 1.908268e+03 4.322344e+01 7.233601e+01
<VARIANCE> 40
 8.055045e+04 1.444698e+05 9.360814e+02 5.192036e+02 8.697986e+04 5.250881e+04 1.558256e+03 4.540123e+03 5.252193e+04 6.124143e+04 2.422355e+03 6.424439e+03 1.996370e+05 1.342326e+05 9.053362e+03 2.159961e+04 8.100515e+04 7.140116e+04 6.277024e+03 1.107029e+04 2.589511e+05 2.030024e+05 2.068184e+03 2.291719e+03 1.326973e+05 1.112055e+05 2.764361e+03 9.202702e+03 1.116952e+05 1.173866e+05 1.845575e+04 2.106066e+04 1.973617e+05 2.293889e+05 1.577412e+04 1.775057e+04 1.420272e+05 1.176748e+05 2.391845e+04 1.645660e+04
<GCONST> 4.808059e+02
<MIXTURE> 8 9.320589e-02
<MEAN> 40
 1.636508e+03 3.486433e+03 -1.292397e+01 -7.927058e+00 8.139481e+02 2.756778e+03 -1.413137e+01 -3.558849e+01 3.572840e+02 2.493547e+03 -1.852347e+01 -4.494765e+01 -1.293478e+02 2.326581e+03 -4.851393e+01 -6.618957e+01 2.796508e+01 2.490386e+03 -5.787261e+00 -6.174650e+01 -2.122786e+03 2.926335e+03 -4.924869e+01 -7.592253e+01 -1.332646e+03 1.731213e+03 1.983586e+01 -4.340067e+01 -8.793974e+02 1.501208e+03 4.191721e+01 -2.424495e+01 -7.291755e+02 1.613688e+03 4.540998e+01 -1.419385e+01 -8.807426e+02 1.713671e+03 5.187540e+01 -3.209940e+01
<VARIANCE> 40
 3.571896e+04 2.089042e+04 6.499553e+02 3.626970e+02 1.183762e+05 3.333212e+04 5.478148e+02 1.090310e+03 4.165984e+04 4.592981e+04 1.059046e+03 1.864250e+03 1.390039e+05 1.014237e+05 8.538009e+03 6.868152e+03 5.570772e+04 4.117319e+04 1.413350e+03 2.846625e+03 7.833452e+04 6.167321e+04 3.406200e+03 3.388357e+03 7.137643e+04 7.384203e+04 3.939484e+03 5.327694e+03 8.258444e+04 1.036003e+05 5.809977e+03 5.491005e+03 2.426235e+05 1.834067e+05 7.474570e+03 7.057711e+03 9.300859e+04 1.058695e+05 8.439639e+03 8.292302e+03
<GCONST> 4.569241e+02
<MIXTURE> 9 9.008321e-02
<MEAN> 40
 2.218761e+03 3.834042e+03 -7.162964e+01 -2.357598e+01 7.823278e+02 3.311354e+03 -5.863775e+01 -6.644393e+01 3.625221e+02 2.947070e+03 -9.265984e+01 -1.549840e+02 -2.043439e+01 2.896984e+03 -3.298045e+01 -2.473748e+02 1.456544e+02 2.994944e+03 7.892241e+00 -1.528772e+02 -2.788802e+03 2.845177e+03 4.584982e+01 -6.908250e+00 -1.108919e+03 2.197077e+03 9.859005e+01 1.464308e+02 -7.193977e+02 2.003949e+03 1.436725e+02 2.896870e+02 -5.047418e+02 2.134503e+03 9.738514e+01 2.758017e+02 -6.217582e+02 2.084546e+03 1.224446e+02 2.091680e+02
<VARIANCE> 40
 8.620364e+04 7.387748e+04 9.148419e+03 3.068258e+03 1.267053e+05 6.773322e+04 2.505905e+04 3.111650e+04 8.716044e+04 7.579676e+04 5.480507e+04 6.303520e+04 2.755166e+05 2.182155e+05 2.540974e+05 2.146038e+05 1.673847e+05 1.171698e+05 1.703990e+05 1.663169e+05 1.513870e+05 1.378719e+05 8.643998e+03 8.574418e+03 8.943255e+04 1.221666e+05 1.450498e+04 2.448299e+04 1.158355e+05 1.315705e+05 7.672768e+04 1.048849e+05 1.942558e+05 2.114106e+05 1.431503e+05 1.754622e+05 1.238253e+05 1.355895e+05 1.268524e+05 9.214808e+04
<GCONST> 5.245225e+02
<MIXTURE> 10 1.325578e-01
<MEAN> 40
 1.905401e+03 3.570508e+03 -5.945549e+01 -3.514538e+01 6.827115e+02 2.806056e+03 -7.447166e+01 -7.691059e+01 2.490090e+02 2.446187e+03 -1.004425e+02 -1.297264e+02 -2.948768e+02 2.189899e+03 -1.889475e+02 -2.487992e+02 -5.166963e+01 2.392203e+03 -7.760245e+01 -1.625713e+02 -2.550922e+03 2.666000e+03 2.673035e+00 -8.220941e+01 -1.152995e+03 1.723628e+03 1.104395e+02 1.697177e+01 -8.331641e+02 1.493117e+03 9.803351e+01 9.071555e+01 -6.509335e+02 1.525690e+03 5.569272e+01 8.454711e+01 -7.576144e+02 1.698047e+03 7.085713e+01 7.141788e+01
<VARIANCE> 40
 1.153352e+05 4.064502e+04 5.463539e+03 2.822492e+03 1.287876e+05 5.053498e+04 1.033714e+04 1.575619e+04 4.447334e+04 5.687659e+04 2.452438e+04 2.828991e+04 1.313472e+05 1.416735e+05 1.137275e+05 1.067716e+05 6.100695e+04 8.050215e+04 4.170586e+04 6.274300e+04 1.453414e+05 1.032811e+05 1.309372e+04 1.721755e+04 7.580106e+04 8.382235e+04 2.085448e+04 4.110837e+04 8.089416e+04 9.960111e+04 5.043681e+04 7.161548e+04 1.656146e+05 1.971200e+05 7.446345e+04 9.514724e+04 1.234719e+05 1.169293e+05 7.024569e+04 8.323885e+04
<GCONST> 5.101124e+02
<STATE> 7
<NUMMIXES> 10
<MIXTURE> 1 3.200369e-02
<MEAN> 40
 2.245734e+03 3.793706e+03 -2.094010e+01 1.528518e+01 1.084933e+03 3.797833e+03 -1.224812e+02 -9.689644e+01 7.188160e+02 3.580031e+03 -1.138797e+02 -7.386442e+01 3.558527e+02 3.575431e+03 -9.669153e+01 -9.852765e+01 3.937991e+02 3.503531e+03 -4.077785e+01 -7.704661e+01 -2.549087e+03 3.142127e+03 -2.347555e+01 2.341483e+01 -1.479081e+03 2.880556e+03 1.363802e+02 1.161001e+02 -1.169131e+03 2.502796e+03 1.081947e+02 1.552276e+02 -8.464197e+02 2.360441e+03 4.163433e+01 1.563259e+02 -1.002792e+03 2.595805e+03 2.292382e+01 1.702457e+02
<VARIANCE> 40
 3.084119e+05 3.167003e+05 3.257907e+04 7.141150e+03 4.141050e+05 1.154578e+06 1.790017e+05 8.111750e+04 3.428092e+05 1.225679e+06 1.924256e+05 1.151171e+05 5.202196e+05 1.978054e+06 3.085705e+05 2.842766e+05 3.255174e+05 1.313417e+06 2.456486e+05 1.391247e+05 3.978288e+05 4.589964e+05 3.060975e+04 1.965463e+04 4.728887e+05 9.622444e+05 2.348861e+05 1.439571e+05 4.412433e+05 1.039420e+06 2.402830e+05 2.188162e+05 4.540414e+05 1.299869e+06 2.240384e+05 2.019725e+05 4.563300e+05 9.013907e+05 2.925415e+05 1.603385e+05
<GCONST> 5.745790e+02
<MIXTURE> 2 7.405842e-02
<MEAN> 40
 2.042032e+03 4.112994e+03 -2.157727e+01 -4.619002e-01 6.590048e+02 3.949695e+03 -1.834137e+01 -2.470974e+00 3.106792e+02 3.644230e+03 -4.476169e+01 -2.300967e+01 -3.387533e+02 3.642249e+03 -9.395911e+01 -2.348121e+01 -4.949596e+01 3.509126e+03 -1.108984e+01 -3.007382e+01 -2.459946e+03 3.546719e+03 6.653661e-01 1.496738e+01 -1.117694e+03 3.075444e+03 2.897307e+01 9.023944e+01 -9.478871e+02 2.707406e+03 6.189111e+01 1.306201e+02 -6.490302e+02 2.627182e+03 5.242991e+01 1.311496e+02 -6.216464e+02 2.761707e+03 5.681247e+01 1.086175e+02
<VARIANCE> 40
 6.500986e+04 8.423734e+04 2.252856e+03 5.074661e+02 1.466933e+05 1.489695e+05 5.252860e+03 1.088960e+04 5.200943e+04 1.799738e+05 1.094134e+04 1.551359e+04 1.155625e+05 3.186088e+05 3.341144e+04 3.889084e+04 5.561462e+04 2.161544e+05 1.461104e+04 2.554142e+04 1.653548e+05 1.292763e+05 3.100989e+03 2.203705e+03 1.608869e+05 1.349760e+05 7.234020e+03 1.662780e+04 1.119492e+05 1.144550e+05 2.917567e+04 2.971555e+04 1.381574e+05 1.902803e+05 4.589596e+04 4.583399e+04 9.215855e+04 1.089211e+05 3.807205e+04 3.764758e+04
<GCONST> 4.970856e+02
<MIXTURE> 3 1.477842e-01
<MEAN> 40
 2.038999e+03 3.719226e+03 -1.094851e-01 3.111011e+00 7.300035e+02 3.140069e+03 -7.045130e-01 1.382705e+01 2.774736e+02 2.804516e+03 -3.260973e+00 1.119541e+01 -1.429536e+02 2.630657e+03 -1.308991e+01 7.178482e+00 -6.635911e-01 2.736433e+03 -9.441512e+00 3.471024e+00 -2.677509e+03 2.737378e+03 3.783514e+00 1.166092e+01 -1.115645e+03 2.048687e+03 3.202355e+00 7.588493e+00 -6.888143e+02 1.819769e+03 2.258596e+00 1.040600e+00 -4.941028e+02 1.901655e+03 6.643292e+00 -1.284988e+00 -6.385858e+02 2.018895e+03 1.772318e+01 5.658875e+00
<VARIANCE> 40
 9.757955e+04 6.799487e+04 4.693302e+02 2.663735e+02 1.614202e+05 6.673470e+04 8.027388e+02 1.835024e+03 7.771970e+04 5.918986e+04 1.776197e+03 2.996541e+03 2.385163e+05 1.666817e+05 3.937271e+03 4.317564e+03 9.787561e+04 7.322634e+04 3.643839e+03 5.260754e+03 1.555083e+05 1.115153e+05 6.192853e+02 8.859655e+02 8.661751e+04 1.227826e+05 8.011620e+02 2.053979e+03 1.075400e+05 9.486259e+04 2.360610e+03 3.867622e+03 2.142349e+05 2.299999e+05 2.646189e+03 3.877648e+03 1.519897e+05 9.652961e+04 2.882793e+03 3.678316e+03
<GCONST> 4.570391e+02
<MIXTURE> 4 7.014371e-02
<MEAN> 40
 1.995196e+03 3.564211e+03 -1.326419e-01 -2.999442e-02 8.474216e+02 2.896397e+03 -1.979789e-01 -2.101034e-01 3.504158e+02 2.600766e+03 -2.568937e-01 -3.661743e-01 -2.054570e+02 2.352915e+03 -8.131903e-01 -5.869178e-01 4.311789e+01 2.496674e+03 -4.805007e-01 -5.681848e-01 -2.537980e+03 2.603813e+03 1.716100e-02 1.666075e-02 -1.228793e+03 1.780615e+03 7.217280e-02 -9.317593e-02 -8.001886e+02 1.520956e+03 1.700263e-01 -1.259598e-01 -4.647380e+02 1.531197e+03 3.229273e-01 2.353937e-03 -6.519032e+02 1.678557e+03 5.243629e-01 -1.555226e-01
<VARIANCE> 40
 1.169156e+05 1.070671e+05 1.890124e-01 1.489720e-01 1.852922e+05 2.008904e+05 3.319828e-01 7.519958e-01 8.159433e+04 2.070925e+05 1.032997e+00 2.934679e+00 1.560245e+05 4.411699e+05 4.528125e+00 8.922311e+00 9.796784e+04 2.870596e+05 4.340366e+00 1.187026e+01 1.784390e+05 1.443296e+05 3.314585e-01 8.275358e-01 1.364781e+05 3.257760e+05 4.190695e-01 1.040345e+00 1.252424e+05 3.618720e+05 1.215250e+00 2.506792e+00 2.044239e+05 5.328069e+05 2.700148e+00 4.634153e+00 1.329345e+05 3.327023e+05 3.066909e+00 6.297653e+00
<GCONST> 3.248943e+02
<MIXTURE> 5 9.070813e-02
<MEAN> 40
 1.906188e+03 3.548710e+03 -1.524548e+00 3.629015e-01 9.190217e+02 2.866753e+03 -2.376517e+00 -9.082386e-01 3.534599e+02 2.589101e+03 -3.255783e+00 -2.926743e-01 -2.377723e+02 2.329467e+03 -9.071153e+00 -3.923873e-01 4.890388e+01 2.466465e+03 -8.533964e+00 5.903133e-01 -2.461867e+03 2.633647e+03 -5.872248e-02 1.310632e+00 -1.268673e+03 1.761422e+03 2.673083e-01 2.664050e-01 -7.955236e+02 1.527383e+03 8.750522e-01 -1.661099e-02 -4.850015e+02 1.451814e+03 3.068661e+00 8.257496e-01 -6.438407e+02 1.673532e+03 3.851507e+00 1.693603e+00
<VARIANCE> 40
 1.272581e+05 1.114700e+05 1.064113e+01 1.157308e+01 1.706016e+05 1.755546e+05 1.943528e+01 5.471868e+01 6.929941e+04 1.755714e+05 7.560711e+01 3.533121e+02 1.666723e+05 3.543281e+05 4.020396e+02 1.142838e+03 9.150066e+04 2.477950e+05 6.948690e+02 2.149000e+03 1.682211e+05 1.721982e+05 1.373995e+01 3.418733e+01 1.092518e+05 2.376578e+05 1.623452e+01 4.401171e+01 1.167278e+05 2.971949e+05 4.468156e+01 1.021320e+02 2.255905e+05 5.055363e+05 1.294049e+02 1.834221e+02 1.273201e+05 2.773562e+05 2.018577e+02 3.222809e+02
<GCONST> 4.065053e+02
<MIXTURE> 6 1.021921e-01
<MEAN> 40
 2.029781e+03 3.775798e+03 3.005184e+00 2.371090e+00 9.998779e+02 3.035028e+03 2.266027e+00 2.057899e+01 4.970927e+02 2.763699e+03 -1.779819e+00 4.062907e+01 4.354158e+01 2.513136e+03 -2.392927e+00 -5.322381e-01 2.133736e+02 2.678861e+03 5.357776e+00 1.498851e+01 -2.661349e+03 2.606658e+03 -2.876533e+00 2.452814e+01 -1.204566e+03 1.872106e+03 1.964873e+00 3.736992e+01 -5.873361e+02 1.742003e+03 1.054098e+01 2.716306e+01 -2.337449e+02 1.907451e+03 1.038475e+01 3.535135e+01 -5.049677e+02 1.906397e+03 1.963649e+01 2.741321e+01
<VARIANCE> 40
 1.318270e+05 9.434277e+04 3.121619e+03 1.891393e+03 1.520407e+05 7.866336e+04 5.925793e+03 1.160956e+04 6.602072e+04 5.557110e+04 1.535372e+04 2.281885e+04 2.209784e+05 1.429850e+05 1.237020e+05 7.144605e+04 8.531663e+04 8.084362e+04 4.760362e+04 5.175430e+04 2.264268e+05 1.284345e+05 2.621120e+03 4.394171e+03 6.265808e+04 1.020532e+05 4.525671e+03 1.146562e+04 6.446767e+04 9.584467e+04 1.313385e+04 2.053368e+04 1.598610e+05 2.020355e+05 1.938372e+04 3.557561e+04 8.636228e+04 7.478048e+04 2.580289e+04 2.431197e+04
<GCONST> 4.967059e+02
<MIXTURE> 7 1.373962e-01
<MEAN> 40
 1.901963e+03 3.372454e+03 6.067241e-01 2.590419e+00 8.879206e+02 2.652671e+03 -2.018892e+01 8.580166e+00 3.235298e+02 2.380139e+03 -2.311757e+01 1.859598e+00 -3.423316e+02 2.093856e+03 -5.208090e+01 -3.135519e+01 4.976628e+01 2.298127e+03 -1.251150e+01 -2.473388e+01 -2.461994e+03 2.422580e+03 -1.466990e+01 -5.610022e+00 -1.228380e+03 1.583033e+03 2.949370e+01 5.217656e+01 -7.713525e+02 1.456679e+03 4.912939e+01 1.000884e+02 -5.678936e+02 1.444840e+03 1.567582e+01 7.444245e+01 -7.181448e+02 1.578344e+03 1.008815e+01 8.116012e+01
<VARIANCE> 40
 1.245203e+05 8.827208e+04 2.361149e+03 1.593109e+03 8.865059e+04 3.726154e+04 3.652277e+03 6.964751e+03 2.966872e+04 4.742652e+04 4.482501e+03 7.567816e+03 5.382182e+04 1.112419e+05 1.875084e+04 2.027440e+04 3.495641e+04 6.616361e+04 5.625597e+03 1.024066e+04 1.280444e+05 1.214254e+05 1.052095e+04 1.401722e+04 6.756219e+04 9.224580e+04 2.540268e+04 4.373254e+04 9.552212e+04 1.033508e+05 5.985159e+04 5.515447e+04 1.939721e+05 2.009822e+05 8.706996e+04 7.491995e+04 1.379614e+05 1.051015e+05 1.128852e+05 6.373292e+04
<GCONST> 4.945175e+02
<MIXTURE> 8 1.273909e-01
<MEAN> 40
 2.184840e+03 3.767844e+03 -1.411429e+01 -3.115866e+00 6.442067e+02 3.318250e+03 -9.801359e+00 -1.099111e+00 2.757876e+02 2.910288e+03 -2.001027e+01 -2.757514e+01 -3.087864e+02 2.844086e+03 -2.698839e+01 -4.316061e+01 -7.308142e+01 2.900734e+03 -8.815742e+00 -4.403806e+01 -2.687331e+03 2.891806e+03 3.341831e+01 2.222878e+01 -9.535857e+02 2.367370e+03 3.271370e+01 8.992136e+01 -7.357919e+02 2.064471e+03 5.751182e+01 1.363764e+02 -6.256654e+02 2.119519e+03 9.467381e+00 1.347885e+02 -6.769640e+02 2.215169e+03 5.095558e+01 1.559516e+02
<VARIANCE> 40
 5.550251e+04 7.424991e+04 1.849677e+03 7.165964e+02 7.203773e+04 3.927978e+04 3.921446e+03 8.244586e+03 4.656197e+04 5.499377e+04 9.457326e+03 1.476130e+04 1.644661e+05 1.699449e+05 1.549405e+04 2.815420e+04 4.476472e+04 6.961219e+04 1.084333e+04 1.981453e+04 1.513714e+05 1.023496e+05 6.801845e+03 4.503766e+03 9.100759e+04 1.147822e+05 1.135844e+04 3.964777e+04 1.152070e+05 1.224022e+05 8.894012e+04 1.001091e+05 1.805122e+05 2.628839e+05 1.454639e+05 1.545721e+05 1.665154e+05 1.501429e+05 1.997308e+05 9.896853e+04
<GCONST> 5.002613e+02
<MIXTURE> 9 1.081861e-01
<MEAN> 40
 1.844429e+03 3.405128e+03 -5.949707e+00 6.437802e+00 9.565538e+02 2.504180e+03 -8.693070e+00 2.395552e+01 4.090076e+02 2.173035e+03 -9.874486e+00 2.441470e+01 -2.198050e+02 1.773385e+03 -1.615683e+01 1.485727e+01 6.330449e+01 2.007374e+03 -1.239286e+01 1.130183e+01 -2.536692e+03 2.289200e+03 -7.070545e+00 9.470678e+00 -1.342327e+03 1.407145e+03 -3.649291e-01 1.594787e+01 -7.957131e+02 1.082512e+03 6.115318e+00 1.565497e+01 -3.607145e+02 9.685703e+02 3.782947e+00 1.212425e+01 -6.079272e+02 1.283905e+03 1.049256e+01 1.557487e+01
<VARIANCE> 40
 1.542229e+05 1.010385e+05 8.799930e+02 6.291414e+02 1.663485e+05 6.074895e+04 1.648539e+03 5.307581e+03 5.918630e+04 6.645205e+04 3.104666e+03 9.315051e+03 9.463489e+04 1.572068e+05 1.306524e+04 2.791520e+04 7.001460e+04 1.015769e+05 1.087838e+04 2.371392e+04 2.285819e+05 1.390022e+05 1.049749e+03 3.035144e+03 7.996309e+04 9.710002e+04 1.680276e+03 3.919749e+03 8.487923e+04 1.280609e+05 3.754175e+03 5.398221e+03 1.498984e+05 2.985272e+05 4.524038e+03 6.181076e+03 9.277340e+04 1.425853e+05 6.061443e+03 7.780106e+03
<GCONST> 4.739021e+02
<MIXTURE> 10 1.101363e-01
<MEAN> 40
 1.958542e+03 3.666318e+03 -6.675857e+00 1.707806e+00 3.188297e+02 3.047182e+03 -3.845094e+00 2.649038e+01 4.457643e+01 2.632151e+03 -1.952488e+01 1.609797e+01 -2.611887e+02 2.462449e+03 -2.344169e+01 -1.524003e+00 -2.719809e+02 2.534823e+03 -1.116484e+01 -5.568247e+00 -2.756152e+03 2.781172e+03 -4.059422e+00 4.519136e-02 -9.443749e+02 2.109422e+03 1.312899e+01 4.021042e+01 -9.305496e+02 1.749277e+03 -5.621282e+00 2.677621e+01 -8.531946e+02 1.665179e+03 -1.597219e+01 7.030177e+00 -8.240380e+02 1.936514e+03 -7.490708e+00 2.418936e+01
<VARIANCE> 40
 6.144627e+04 2.971065e+04 2.662781e+03 7.299574e+02 3.253308e+04 3.506325e+04 4.124524e+03 1.566737e+04 3.037970e+04 5.488024e+04 2.222466e+04 2.434018e+04 1.881203e+05 1.679973e+05 4.390362e+04 5.518600e+04 3.079720e+04 6.215520e+04 2.354367e+04 3.652011e+04 7.124251e+04 7.914830e+04 4.332964e+03 4.472713e+03 4.292077e+04 5.356658e+04 8.381015e+03 2.296522e+04 8.555815e+04 8.574872e+04 4.408486e+04 5.240089e+04 1.130601e+05 1.883677e+05 3.722683e+04 3.777619e+04 1.398125e+05 1.108094e+05 5.802349e+04 5.379190e+04
<GCONST> 4.915439e+02
<STATE> 8
<NUMMIXES> 10
<MIXTURE> 1 5.079761e-02
<MEAN> 40
 2.055757e+03 4.176088e+03 -3.250739e+01 4.704113e+00 8.219897e+02 4.375346e+03 -4.706150e+01 -5.391582e+01 4.720945e+02 4.122285e+03 -7.363172e+01 -6.141100e+01 -7.238797e+01 4.194715e+03 -1.395549e+02 -1.225592e+02 1.217909e+02 4.004957e+03 -2.183345e+01 -6.683968e+01 -2.333065e+03 3.701071e+03 1.143209e+01 1.588064e+01 -1.283071e+03 3.460010e+03 5.762154e+01 7.644463e+01 -9.746854e+02 3.179729e+03 7.787814e+01 1.554703e+02 -6.697977e+02 3.078735e+03 4.136184e+01 1.880206e+02 -6.905485e+02 3.286656e+03 1.027775e+02 2.016443e+02
<VARIANCE> 40
 1.720745e+05 9.392870e+04 5.383380e+03 1.856750e+03 3.211748e+05 2.724896e+05 1.133446e+04 2.166648e+04 2.426512e+05 2.945839e+05 2.539417e+04 3.537700e+04 4.213461e+05 5.330207e+05 5.768408e+04 8.337210e+04 2.159394e+05 3.789564e+05 4.696373e+04 7.093998e+04 3.008437e+05 1.548309e+05 5.075276e+03 4.665516e+03 3.520393e+05 3.159734e+05 1.457214e+04 4.048616e+04 2.557592e+05 3.846092e+05 8.372595e+04 7.232034e+04 2.886129e+05 6.650971e+05 1.084913e+05 1.739815e+05 2.544237e+05 3.934708e+05 1.369377e+05 1.056232e+05
<GCONST> 5.321249e+02
<MIXTURE> 2 7.362093e-02
<MEAN> 40
 1.937706e+03 3.547765e+03 -7.024741e-03 4.567838e-03 8.600633e+02 2.937735e+03 -1.155301e-02 6.141508e-03 3.569531e+02 2.608536e+03 -2.177400e-02 1.364225e-02 -2.543698e+02 2.355409e+03 -7.515027e-02 1.480272e-02 4.699290e+01 2.476198e+03 -4.933794e-02 -8.584433e-04 -2.499571e+03 2.650565e+03 6.721961e-03 2.467888e-02 -1.222790e+03 1.894235e+03 7.759766e-03 1.100652e-02 -7.834363e+02 1.618646e+03 1.535766e-02 1.775969e-03 -4.898669e+02 1.583193e+03 2.607951e-02 1.357897e-02 -6.372530e+02 1.762194e+03 3.882965e-02 1.432688e-02
<VARIANCE> 40
 1.074246e+05 1.041568e+05 1.361330e-03 1.168960e-03 1.620376e+05 1.831654e+05 2.437158e-03 4.909069e-03 6.421910e+04 1.567896e+05 7.228585e-03 2.024956e-02 1.300616e+05 3.528002e+05 3.002716e-02 6.082220e-02 7.795679e+04 2.138603e+05 5.347646e-02 1.040537e-01 1.428829e+05 1.593002e+05 2.287304e-03 4.573725e-03 1.338745e+05 3.028406e+05 3.465579e-03 5.351549e-03 1.148729e+05 3.531009e+05 1.185200e-02 1.295965e-02 1.890496e+05 5.080339e+05 1.312586e-02 1.939984e-02 1.249630e+05 2.637644e+05 3.014634e-02 3.804582e-02
<GCONST> 2.228916e+02
<MIXTURE> 3 1.017316e-01
<MEAN> 40
 2.170643e+03 3.923814e+03 4.365062e+00 4.193585e+00 6.158503e+02 3.654026e+03 8.237597e+00 3.928294e+01 1.841648e+02 3.294227e+03 -4.903612e+00 4.391098e+01 -4.487086e+02 3.284962e+03 -1.830910e+01 4.776767e+01 -1.338478e+02 3.193269e+03 -1.049710e+01 2.664160e+01 -2.640958e+03 3.288986e+03 4.308164e+00 3.192704e+01 -1.030524e+03 2.906988e+03 -1.497954e+01 5.938956e+01 -7.887230e+02 2.590012e+03 2.211169e+01 6.048726e+01 -6.886404e+02 2.645277e+03 9.407642e+00 4.908959e+01 -5.723309e+02 2.724515e+03 3.742032e+01 7.068941e+01
<VARIANCE> 40
 4.550270e+04 7.044422e+04 7.362155e+02 2.626810e+02 7.835735e+04 4.456691e+04 1.608234e+03 2.527159e+03 3.096452e+04 5.913149e+04 2.959375e+03 4.775658e+03 2.279864e+05 1.085419e+05 5.317614e+03 7.782638e+03 3.416692e+04 3.424522e+04 2.957077e+03 4.230858e+03 1.072901e+05 1.410817e+05 2.614829e+03 1.302032e+03 6.214324e+04 1.045305e+05 4.086849e+03 5.568690e+03 9.286511e+04 8.253517e+04 2.158625e+04 1.247502e+04 1.350147e+05 1.417779e+05 1.788902e+04 1.403755e+04 1.102161e+05 8.824724e+04 3.137287e+04 2.663343e+04
<GCONST> 4.679975e+02
<MIXTURE> 4 6.638799e-02
<MEAN> 40
 2.075606e+03 3.507616e+03 -6.662954e-01 8.535414e+00 1.052489e+03 2.630480e+03 4.044919e+00 2.124256e+01 5.271913e+02 2.354708e+03 -1.668040e+01 2.688690e+01 1.041508e+01 2.071539e+03 -1.456990e+01 3.163231e+01 2.096998e+02 2.222170e+03 8.356842e+00 3.086782e+00 -2.666672e+03 2.466396e+03 -7.603573e+00 4.864529e+01 -1.418970e+03 1.724784e+03 4.930837e+00 8.553572e+01 -9.167774e+02 1.461534e+03 -5.149181e+00 1.103472e+02 -5.000242e+02 1.401132e+03 -2.514595e+01 1.024249e+02 -7.608718e+02 1.611957e+03 -7.370715e+00 7.509231e+01
<VARIANCE> 40
 1.968846e+05 1.822014e+05 6.953199e+03 3.745014e+03 2.520945e+05 1.741287e+05 1.349362e+04 2.233688e+04 1.627707e+05 1.556468e+05 5.024745e+04 3.838227e+04 2.191508e+05 3.134712e+05 1.118464e+05 1.091347e+05 1.545726e+05 2.280755e+05 9.072194e+04 9.868711e+04 2.542378e+05 1.944956e+05 9.302220e+03 1.254959e+04 1.692170e+05 1.929087e+05 2.269068e+04 3.189655e+04 1.496741e+05 2.405647e+05 4.646785e+04 4.903544e+04 2.437792e+05 3.888960e+05 4.656645e+04 5.931910e+04 1.878464e+05 2.012705e+05 4.354909e+04 7.525652e+04
<GCONST> 5.265801e+02
<MIXTURE> 5 1.040831e-01
<MEAN> 40
 2.080823e+03 3.578745e+03 -2.478396e+00 8.792215e+00 7.219083e+02 3.037951e+03 -9.582569e+00 3.632386e+01 2.545958e+02 2.671248e+03 -1.664200e+01 2.683406e+01 -3.899806e+02 2.431325e+03 -5.864674e+01 -1.344689e+01 -3.059626e+01 2.616334e+03 -1.053319e+01 1.052814e+01 -2.631136e+03 2.670869e+03 7.587729e+00 5.702522e+01 -1.099023e+03 2.148374e+03 2.807564e+01 9.789122e+01 -7.948272e+02 1.948510e+03 4.531029e+01 1.793820e+02 -6.702181e+02 1.930656e+03 -3.026756e+01 1.875952e+02 -7.759546e+02 2.049877e+03 -6.142903e+01 1.554233e+02
<VARIANCE> 40
 9.763337e+04 1.387342e+05 3.261629e+03 1.826647e+03 8.245700e+04 7.276425e+04 5.522389e+03 8.363893e+03 2.960873e+04 5.723075e+04 8.191703e+03 1.245843e+04 9.412024e+04 1.488721e+05 2.976812e+04 3.430854e+04 3.169950e+04 8.024773e+04 7.341819e+03 1.549161e+04 1.270930e+05 1.263632e+05 1.908444e+04 1.328489e+04 1.266127e+05 1.746830e+05 5.076336e+04 1.438322e+05 1.560630e+05 1.484509e+05 1.678258e+05 1.994426e+05 2.705856e+05 2.931385e+05 2.878207e+05 2.259329e+05 2.306480e+05 1.589728e+05 2.404728e+05 2.095251e+05
<GCONST> 5.130579e+02
<MIXTURE> 6 1.453879e-01
<MEAN> 40
 2.191773e+03 3.888651e+03 7.522834e+00 5.083914e+00 7.331486e+02 3.368284e+03 1.508693e+01 3.834910e+01 3.402050e+02 2.926233e+03 2.752024e+00 3.779319e+01 -2.624833e+02 2.739006e+03 -7.812918e+00 2.293792e+01 -1.800288e+01 2.889746e+03 -4.321326e+00 2.942494e+01 -2.859948e+03 2.858866e+03 3.306226e+00 5.163314e+01 -1.159142e+03 2.315486e+03 -3.723419e+00 6.818011e+01 -6.345141e+02 2.079541e+03 1.212376e+01 7.991546e+01 -4.215843e+02 2.224387e+03 1.796042e+01 5.613337e+01 -5.057900e+02 2.227369e+03 2.720531e+01 6.083849e+01
<VARIANCE> 40
 8.269031e+04 9.675718e+04 1.727112e+03 1.029421e+03 7.803474e+04 3.805273e+04 4.178747e+03 5.606684e+03 5.180089e+04 4.708620e+04 1.062000e+04 1.066743e+04 1.285296e+05 1.331107e+05 3.604058e+04 3.493526e+04 5.958142e+04 6.517961e+04 1.678075e+04 2.248182e+04 1.887786e+05 9.704515e+04 1.788104e+03 4.140446e+03 8.172379e+04 7.766834e+04 2.968619e+03 4.941320e+03 7.029319e+04 5.873513e+04 1.344943e+04 1.949661e+04 1.259810e+05 1.506641e+05 7.408597e+03 1.151589e+04 7.887602e+04 5.509270e+04 1.583228e+04 1.685560e+04
<GCONST> 4.795657e+02
<MIXTURE> 7 9.843206e-02
<MEAN> 40
 1.591604e+03 3.561947e+03 5.483255e+00 2.054696e+01 9.663375e+02 2.819345e+03 7.144793e+00 4.960233e+01 3.176474e+02 2.636099e+03 5.177270e+00 5.561201e+01 -3.773621e+02 2.226003e+03 2.377490e+00 4.595350e+01 1.029112e+02 2.453895e+03 5.102064e+00 4.472470e+01 -2.201163e+03 2.746111e+03 9.635318e+00 4.310891e+01 -1.307963e+03 1.573354e+03 1.949006e-02 5.755346e+01 -6.753522e+02 1.776744e+03 2.112318e+01 5.484980e+01 -4.905963e+02 1.842143e+03 3.474628e+01 4.922181e+01 -7.148614e+02 1.850531e+03 4.934991e+01 4.185985e+01
<VARIANCE> 40
 2.846552e+04 1.670967e+04 1.117627e+03 8.030427e+02 2.635677e+04 2.457570e+04 1.527913e+03 3.179490e+03 1.433343e+04 2.272996e+04 1.723228e+03 2.967456e+03 1.565587e+04 4.076820e+04 3.385752e+03 5.042737e+03 1.299825e+04 2.540110e+04 2.210184e+03 4.535536e+03 2.674677e+04 5.928959e+04 3.103772e+03 4.343834e+03 2.376383e+04 4.651478e+04 5.070967e+03 6.855829e+03 5.319536e+04 5.340006e+04 7.815825e+03 1.028213e+04 1.857635e+05 1.566618e+05 1.645252e+04 1.207514e+04 9.567798e+04 6.308955e+04 1.810938e+04 1.029089e+04
<GCONST> 4.511236e+02
<MIXTURE> 8 1.281658e-01
<MEAN> 40
 2.110784e+03 3.721203e+03 2.312031e+00 7.109560e+00 6.027886e+02 3.164670e+03 5.479576e+00 4.194491e+01 2.157309e+02 2.649042e+03 -7.166000e+00 2.592390e+01 -5.306344e+02 2.296822e+03 -1.963004e+01 1.478330e+01 -9.202720e+01 2.573010e+03 -6.403826e+00 1.761564e+01 -2.643108e+03 2.807786e+03 1.081869e+01 4.804884e+01 -8.781006e+02 2.197347e+03 -2.522222e+00 5.177399e+01 -7.145782e+02 1.845795e+03 8.815590e+00 5.084497e+01 -5.378087e+02 1.879115e+03 3.004469e+01 3.420897e+01 -5.347328e+02 2.039993e+03 5.022090e+01 3.845112e+01
<VARIANCE> 40
 6.585093e+04 3.985900e+04 5.562557e+02 2.118547e+02 4.748685e+04 2.751108e+04 8.148180e+02 1.900076e+03 2.307290e+04 2.379246e+04 1.294915e+03 1.908178e+03 3.472185e+04 7.387836e+04 2.834096e+03 3.769077e+03 1.627441e+04 2.595675e+04 1.411088e+03 2.441545e+03 1.203567e+05 1.259706e+05 1.447960e+03 2.060091e+03 8.712434e+04 8.115247e+04 2.114292e+03 5.433823e+03 6.565527e+04 6.937589e+04 1.698534e+04 1.520293e+04 1.081229e+05 1.731680e+05 1.466363e+04 1.242493e+04 9.597075e+04 8.999882e+04 2.772269e+04 2.385599e+04
<GCONST> 4.544888e+02
<MIXTURE> 9 1.031677e-01
<MEAN> 40
 2.026049e+03 3.312413e+03 1.690319e+00 5.480582e+00 8.595290e+02 2.704610e+03 -7.087084e-01 9.908949e+00 3.031637e+02 2.391119e+03 -1.978506e+00 9.140112e+00 -2.613058e+02 2.132287e+03 -1.136039e+01 8.988476e+00 1.267267e+01 2.295132e+03 -6.306189e+00 7.926785e+00 -2.584701e+03 2.358507e+03 2.213662e-02 1.519173e+01 -1.286604e+03 1.731323e+03 6.572391e-01 1.013282e+01 -7.538113e+02 1.497362e+03 1.284385e+00 5.151945e+00 -4.637313e+02 1.460789e+03 2.879223e+00 3.341496e+00 -7.791373e+02 1.607459e+03 5.611402e+00 7.626573e+00
<VARIANCE> 40
 1.475804e+05 1.516887e+05 1.726810e+02 1.796676e+02 1.142872e+05 7.559232e+04 2.782962e+02 3.970591e+02 5.295190e+04 7.680824e+04 4.327085e+02 6.616383e+02 1.684159e+05 2.137786e+05 1.067483e+03 1.317594e+03 5.318981e+04 1.054756e+05 7.677517e+02 1.219790e+03 1.448384e+05 1.387532e+05 2.682715e+02 7.084329e+02 8.408743e+04 1.422502e+05 2.527641e+02 4.447415e+02 1.239363e+05 1.511767e+05 3.059857e+02 4.936419e+02 2.243958e+05 3.222548e+05 4.312773e+02 6.457338e+02 1.839272e+05 1.503510e+05 3.900845e+02 5.686582e+02
<GCONST> 4.317209e+02
<MIXTURE> 10 1.282240e-01
<MEAN> 40
 2.025463e+03 3.385761e+03 7.447820e+00 1.340018e+01 6.518914e+02 2.744838e+03 4.090945e+00 3.367112e+01 2.011836e+02 2.347341e+03 -1.838589e+00 2.592377e+01 -3.393511e+02 2.050547e+03 -1.506091e+01 6.088991e+00 -8.062886e+01 2.270571e+03 -1.004521e+00 1.446833e+01 -2.748030e+03 2.355468e+03 1.618946e+00 3.638814e+01 -1.157650e+03 1.759604e+03 6.696250e+00 4.385375e+01 -7.378701e+02 1.520476e+03 1.213232e+01 4.127586e+01 -5.043293e+02 1.626966e+03 1.703406e+01 4.048523e+01 -6.130856e+02 1.699691e+03 1.567294e+01 3.758290e+01
<VARIANCE> 40
 1.170270e+05 1.016574e+05 6.209960e+02 7.407061e+02 8.317502e+04 3.330756e+04 1.308044e+03 2.666769e+03 3.535587e+04 2.821494e+04 2.118250e+03 3.772994e+03 1.616162e+05 1.285570e+05 6.693911e+03 5.339891e+03 3.967515e+04 4.334301e+04 2.413089e+03 3.944374e+03 1.333542e+05 1.042014e+05 1.799051e+03 4.083375e+03 8.697966e+04 7.899628e+04 4.046777e+03 5.524407e+03 1.190683e+05 8.293558e+04 1.773584e+04 1.707170e+04 1.911306e+05 1.911485e+05 1.500096e+04 1.676909e+04 1.442774e+05 8.256470e+04 1.282385e+04 1.202553e+04
<GCONST> 4.686575e+02
<STATE> 9
<NUMMIXES> 10
<MIXTURE> 1 5.708330e-02
<MEAN> 40
 2.155180e+03 3.874992e+03 1.966370e+00 7.739348e+00 9.138976e+02 3.646723e+03 1.307222e+00 2.032680e+01 5.099255e+02 3.358630e+03 -5.150383e+00 1.755008e+01 -4.002573e+01 3.327348e+03 -2.884951e+01 2.606957e+01 1.968199e+02 3.257250e+03 6.783463e+00 1.097223e+01 -2.488252e+03 3.302718e+03 1.181943e+01 2.905676e+01 -1.209604e+03 2.876790e+03 1.079545e+01 5.743036e+01 -8.227112e+02 2.652539e+03 3.997726e+01 8.289578e+01 -5.093205e+02 2.623042e+03 3.260093e+01 1.129251e+02 -5.950395e+02 2.747405e+03 1.770773e+01 1.082635e+02
<VARIANCE> 40
 2.085831e+05 2.068569e+05 4.515424e+03 1.433495e+03 2.929781e+05 7.050818e+05 9.425311e+03 1.629885e+04 2.108440e+05 7.752782e+05 2.211113e+04 3.329790e+04 4.018578e+05 1.104242e+06 7.502446e+04 7.712557e+04 2.112899e+05 8.426169e+05 8.842102e+04 7.259467e+04 2.864838e+05 2.831044e+05 8.184661e+03 5.496702e+03 3.224282e+05 7.203448e+05 2.027490e+04 3.254014e+04 2.409228e+05 7.350801e+05 7.775003e+04 5.792336e+04 2.879278e+05 9.451085e+05 6.342543e+04 8.639616e+04 2.436183e+05 6.833999e+05 9.653455e+04 8.879431e+04
<GCONST> 5.374233e+02
<MIXTURE> 2 1.285491e-01
<MEAN> 40
 2.032934e+03 3.589261e+03 -7.967683e-04 8.997392e-05 7.548819e+02 3.200172e+03 -1.649995e-03 1.503801e-04 2.868604e+02 2.842767e+03 -3.195164e-03 4.078724e-04 -3.613333e+02 2.670731e+03 -6.022365e-03 2.018324e-03 -1.991788e+01 2.783154e+03 -4.601806e-03 1.858337e-04 -2.512875e+03 2.812504e+03 3.428381e-05 2.983051e-03 -1.125368e+03 2.310520e+03 -3.500837e-04 1.620468e-03 -7.746539e+02 1.963606e+03 -4.623883e-04 4.579977e-05 -5.525985e+02 1.950501e+03 6.284812e-04 1.645630e-03 -6.070187e+02 2.080315e+03 1.325261e-03 -2.022844e-05
<VARIANCE> 40
 1.017012e+05 1.279591e+05 5.000000e-04 5.000000e-04 1.263011e+05 2.137004e+05 5.000000e-04 5.000000e-04 5.255689e+04 1.917959e+05 5.000000e-04 5.000000e-04 1.357194e+05 3.798995e+05 5.000000e-04 5.000000e-04 5.410951e+04 2.479251e+05 5.000000e-04 7.228211e-04 1.321266e+05 1.778665e+05 5.000000e-04 5.000000e-04 1.298311e+05 3.731305e+05 5.000000e-04 5.000000e-04 1.227990e+05 4.040753e+05 5.000000e-04 5.000000e-04 1.543701e+05 6.928807e+05 5.000000e-04 5.000000e-04 1.294695e+05 4.058073e+05 5.000000e-04 5.000000e-04
<GCONST> 1.633852e+02
<MIXTURE> 3 6.175527e-02
<MEAN> 40
 2.108521e+03 4.005037e+03 4.234699e+00 2.370455e+00 7.140396e+02 3.933626e+03 3.527018e+00 1.991064e+01 2.690959e+02 3.616681e+03 -6.674221e-01 1.883052e+01 -3.779761e+02 3.641934e+03 -5.356325e+00 2.501747e+01 -3.459200e+01 3.474022e+03 -3.908976e+00 1.975767e+01 -2.479472e+03 3.481061e+03 9.259242e-01 1.470203e+01 -1.152960e+03 3.232634e+03 -5.994583e+00 2.507867e+01 -8.121661e+02 2.930788e+03 1.636857e+00 2.713549e+01 -6.187778e+02 2.997703e+03 1.907643e+00 2.665627e+01 -5.574417e+02 3.062052e+03 1.044808e+01 1.475249e+01
<VARIANCE> 40
 7.239159e+04 1.009870e+05 2.701445e+02 7.069441e+01 1.112398e+05 8.838023e+04 8.923602e+02 1.197929e+03 4.749743e+04 8.509212e+04 1.172792e+03 2.198118e+03 2.142879e+05 1.464256e+05 2.115526e+03 2.834881e+03 5.786990e+04 1.029512e+05 2.601132e+03 3.597291e+03 1.950818e+05 1.454575e+05 4.405420e+02 4.390388e+02 1.338267e+05 1.617286e+05 6.595032e+02 1.596539e+03 1.348985e+05 1.157770e+05 3.437033e+03 2.913292e+03 1.604827e+05 2.464307e+05 3.303427e+03 3.002919e+03 1.093624e+05 1.400204e+05 2.806045e+03 2.906533e+03
<GCONST> 4.515689e+02
<MIXTURE> 4 7.764274e-02
<MEAN> 40
 2.067033e+03 3.658578e+03 -1.872322e-03 3.802338e-02 7.297789e+02 3.264948e+03 -4.033145e-02 1.448959e-01 2.756252e+02 2.891586e+03 -1.522543e-01 2.165639e-01 -3.621741e+02 2.708805e+03 -3.981155e-01 3.486867e-01 -3.588704e+01 2.830358e+03 -3.098763e-01 2.691849e-01 -2.556725e+03 2.868469e+03 2.571853e-02 2.854790e-01 -1.075884e+03 2.386318e+03 -4.708048e-02 2.375297e-01 -7.358367e+02 2.092967e+03 -1.145362e-02 1.617026e-01 -5.769662e+02 2.112386e+03 1.171708e-01 2.818269e-01 -5.926262e+02 2.219766e+03 1.518465e-01 1.242113e-01
<VARIANCE> 40
 9.773570e+04 1.218763e+05 4.620871e-02 3.777296e-02 1.252330e+05 1.789381e+05 8.910155e-02 1.716338e-01 5.484166e+04 1.735742e+05 2.275228e-01 5.482359e-01 1.490941e+05 3.792708e+05 7.157716e-01 1.424332e+00 5.320533e+04 2.123839e+05 6.036029e-01 2.498915e+00 1.425724e+05 1.758185e+05 9.462746e-02 2.360069e-01 1.068671e+05 3.148097e+05 1.589187e-01 2.333595e-01 1.024493e+05 2.815744e+05 4.756085e-01 5.818795e-01 1.723483e+05 4.373687e+05 6.931870e-01 9.718071e-01 1.656599e+05 2.807330e+05 1.159965e+00 1.861096e+00
<GCONST> 2.931207e+02
<MIXTURE> 5 9.347769e-02
<MEAN> 40
 2.359972e+03 4.140828e+03 1.189500e+01 1.125618e+01 7.984750e+02 3.565407e+03 2.102464e+01 5.001089e+01 4.397997e+02 3.035774e+03 3.701142e+00 4.596568e+01 -3.814203e+02 2.769852e+03 -1.541050e+01 4.835027e+01 3.275734e+01 3.085267e+03 7.015408e+00 4.376175e+01 -3.230510e+03 2.989319e+03 -4.910275e+00 8.120100e+01 -1.340668e+03 2.474910e+03 -2.366136e+01 8.380695e+01 -6.492592e+02 2.168844e+03 -1.809481e+01 6.750095e+01 -3.367952e+02 2.544865e+03 4.751829e+00 5.452831e+01 -4.876653e+02 2.351570e+03 -6.468234e+00 5.898790e+01
<VARIANCE> 40
 3.556134e+04 1.048009e+05 8.537440e+02 7.653698e+02 3.925875e+04 2.978172e+04 1.759469e+03 2.554322e+03 2.831319e+04 4.422591e+04 2.912036e+03 4.092321e+03 5.153389e+04 7.573202e+04 7.777638e+03 8.679592e+03 1.903703e+04 3.820847e+04 2.834993e+03 3.904780e+03 1.319897e+05 9.185281e+04 1.307225e+03 3.858198e+03 5.112581e+04 4.726314e+04 1.758826e+03 3.388013e+03 5.969250e+04 7.143275e+04 6.588263e+03 1.230534e+04 5.886528e+04 1.195942e+05 3.823675e+03 9.909449e+03 6.612875e+04 5.400739e+04 1.283872e+04 9.628906e+03
<GCONST> 4.561171e+02
<MIXTURE> 6 1.001283e-01
<MEAN> 40
 2.096372e+03 3.625400e+03 5.071237e-02 3.701301e-01 7.423935e+02 3.205454e+03 -1.600705e-01 1.019221e+00 2.535772e+02 2.836604e+03 -7.159261e-01 1.216317e+00 -3.881511e+02 2.642257e+03 -3.955197e+00 1.875368e+00 -3.775411e+01 2.784708e+03 -1.782821e+00 2.099210e+00 -2.559011e+03 2.841125e+03 1.232866e-01 2.974917e+00 -1.085739e+03 2.307465e+03 -4.111958e-01 2.273700e+00 -6.981322e+02 2.020113e+03 -1.859663e-01 5.418460e-01 -5.485983e+02 2.042248e+03 1.022181e+00 1.908281e+00 -6.083260e+02 2.168750e+03 1.622784e+00 2.256819e+00
<VARIANCE> 40
 9.420763e+04 1.050061e+05 4.499357e+00 2.702503e+00 1.010320e+05 1.397474e+05 7.264898e+00 8.252653e+00 4.101482e+04 1.360819e+05 1.506227e+01 2.279180e+01 1.386966e+05 3.295523e+05 6.077170e+01 7.572179e+01 4.499382e+04 1.743374e+05 4.420818e+01 8.052633e+01 1.206628e+05 1.536852e+05 7.634584e+00 1.775357e+01 1.059059e+05 2.738392e+05 1.446223e+01 1.655769e+01 1.198478e+05 2.537977e+05 4.499522e+01 5.262274e+01 1.627509e+05 4.280196e+05 7.046761e+01 6.233164e+01 1.499040e+05 2.455987e+05 8.254933e+01 1.081353e+02
<GCONST> 3.755243e+02
<MIXTURE> 7 1.177413e-01
<MEAN> 40
 2.146402e+03 3.710608e+03 1.734311e+00 4.947379e+00 6.644483e+02 3.345642e+03 2.636766e+00 1.024910e+01 2.192627e+02 2.913733e+03 -2.881371e+00 8.327041e+00 -4.697964e+02 2.729008e+03 -1.555999e+01 7.649962e+00 -8.699096e+01 2.885327e+03 -4.531739e+00 1.037749e+01 -2.583315e+03 2.914710e+03 -1.509175e-01 1.918454e+01 -9.660127e+02 2.464065e+03 -6.027468e+00 1.862557e+01 -6.764366e+02 2.145786e+03 -3.774425e+00 1.330739e+01 -5.687707e+02 2.186387e+03 4.212991e+00 1.006695e+01 -5.654438e+02 2.308049e+03 7.168464e+00 8.802059e+00
<VARIANCE> 40
 6.527901e+04 1.136727e+05 1.601263e+02 1.260357e+02 7.761770e+04 3.215011e+04 3.121155e+02 3.762282e+02 3.348310e+04 3.481549e+04 4.207992e+02 4.421998e+02 1.264836e+05 1.320746e+05 1.331428e+03 1.102608e+03 3.094629e+04 4.855031e+04 5.565563e+02 8.286852e+02 1.219273e+05 1.117858e+05 3.812910e+02 5.346626e+02 8.287086e+04 8.651800e+04 5.402050e+02 1.028196e+03 9.993569e+04 7.047662e+04 3.376881e+03 2.488431e+03 1.329808e+05 1.591891e+05 2.046061e+03 2.063257e+03 1.583219e+05 7.651677e+04 1.855354e+03 2.021419e+03
<GCONST> 4.318746e+02
<MIXTURE> 8 1.403480e-01
<MEAN> 40
 2.040676e+03 3.622689e+03 9.566627e+00 1.281159e+01 7.577946e+02 3.145236e+03 1.374891e+01 3.539803e+01 2.612357e+02 2.771545e+03 4.724435e+00 3.170525e+01 -4.894338e+02 2.473809e+03 -1.041740e+01 3.127289e+01 -1.734780e+01 2.692994e+03 2.552655e+00 3.293455e+01 -2.483922e+03 2.874180e+03 1.320416e+01 6.121475e+01 -1.034376e+03 2.260226e+03 -7.791212e+00 7.075430e+01 -6.833679e+02 2.045754e+03 -3.992796e+00 7.855054e+01 -6.090438e+02 2.045380e+03 -1.917166e+00 6.567728e+01 -6.552999e+02 2.197990e+03 1.952816e+00 9.279530e+01
<VARIANCE> 40
 1.041674e+05 7.315680e+04 7.540806e+02 5.580702e+02 6.895182e+04 4.701066e+04 1.196428e+03 1.988661e+03 2.576122e+04 3.661340e+04 1.585392e+03 2.154905e+03 3.546575e+04 9.614848e+04 3.042655e+03 4.480836e+03 2.565531e+04 4.107037e+04 1.722742e+03 3.253100e+03 1.001375e+05 1.073866e+05 3.900543e+03 3.807845e+03 9.825246e+04 1.298772e+05 6.701412e+03 1.168857e+04 9.505437e+04 8.383786e+04 5.090328e+04 4.761350e+04 1.806899e+05 1.979312e+05 8.418365e+04 5.446550e+04 1.582546e+05 8.414155e+04 1.299623e+05 6.575093e+04
<GCONST> 4.743951e+02
<MIXTURE> 9 1.112439e-01
<MEAN> 40
 2.037425e+03 3.497939e+03 2.090399e+01 8.836094e+00 8.932828e+02 2.753743e+03 1.887008e+01 2.321127e+01 3.963191e+02 2.472736e+03 1.785559e+01 2.894172e+01 -2.341092e+02 2.166127e+03 7.180153e+00 2.852310e+01 3.450517e+01 2.350193e+03 9.188703e+00 3.438483e+01 -2.586210e+03 2.628990e+03 -1.410652e+00 5.332257e+01 -1.287852e+03 1.825998e+03 -7.228083e+00 3.263661e+01 -7.723015e+02 1.581649e+03 -5.274523e+00 2.159846e+01 -4.668273e+02 1.486693e+03 1.037366e+01 2.315303e+01 -6.495914e+02 1.727187e+03 8.733448e+00 2.594810e+01
<VARIANCE> 40
 1.293444e+05 1.084981e+05 2.046400e+03 1.512472e+03 1.445794e+05 8.482961e+04 2.825174e+03 4.809431e+03 7.709740e+04 5.884322e+04 4.558809e+03 7.338480e+03 1.302164e+05 1.528838e+05 1.596527e+04 1.737088e+04 6.527292e+04 8.496521e+04 8.258092e+03 1.550525e+04 1.588266e+05 1.364085e+05 2.526048e+03 5.255740e+03 1.059576e+05 1.397537e+05 4.874158e+03 6.026804e+03 9.420727e+04 1.464189e+05 8.024402e+03 1.199493e+04 1.601425e+05 3.122292e+05 1.083149e+04 1.220846e+04 1.184221e+05 1.307640e+05 1.045355e+04 1.283108e+04
<GCONST> 4.833577e+02
<MIXTURE> 10 1.120316e-01
<MEAN> 40
 1.992369e+03 3.559259e+03 5.242797e+00 5.098213e+00 7.961230e+02 2.960257e+03 6.254495e+00 1.145062e+01 2.729262e+02 2.616641e+03 3.625330e+00 1.058566e+01 -4.648333e+02 2.239635e+03 -2.632520e+00 1.141698e+01 -6.114006e+00 2.505182e+03 1.591795e-01 1.070547e+01 -2.481404e+03 2.763439e+03 4.441254e+00 3.317053e+01 -1.088821e+03 1.980420e+03 -6.641579e+00 2.505818e+01 -6.760440e+02 1.787892e+03 2.635485e+00 1.407595e+01 -5.186807e+02 1.792273e+03 7.747806e+00 1.555935e+01 -5.605212e+02 1.941496e+03 1.049359e+01 1.513935e+01
<VARIANCE> 40
 1.155036e+05 7.403613e+04 1.729353e+02 1.552159e+02 8.055299e+04 4.037838e+04 2.236344e+02 4.017314e+02 2.642484e+04 3.235165e+04 2.351435e+02 3.887923e+02 3.298063e+04 7.305770e+04 4.278563e+02 6.125842e+02 2.607770e+04 3.213841e+04 3.311783e+02 7.241464e+02 1.198297e+05 1.079656e+05 6.080668e+02 1.007105e+03 8.644865e+04 1.024805e+05 6.433162e+02 8.609949e+02 8.705787e+04 5.146930e+04 1.905069e+03 1.891305e+03 1.610899e+05 2.200186e+05 2.006060e+03 1.804293e+03 1.180499e+05 7.004094e+04 1.670873e+03 1.636871e+03
<GCONST> 4.260026e+02
<STATE> 10
<NUMMIXES> 10
<MIXTURE> 1 5.274505e-02
<MEAN> 40
 2.260105e+03 3.521120e+03 3.248909e+01 1.405265e+01 1.126064e+03 3.039633e+03 5.172981e+01 9.908615e+00 5.954144e+02 2.818619e+03 3.404345e+01 4.868444e+01 3.952570e+01 2.647222e+03 7.289347e+01 7.536838e+01 2.722735e+02 2.763709e+03 6.135082e+01 4.984520e+01 -2.577062e+03 2.865436e+03 1.940106e+01 8.144775e+01 -1.428735e+03 2.364977e+03 1.202280e+01 4.467107e+01 -1.021940e+03 2.055787e+03 -1.081067e+01 5.181878e+01 -6.211042e+02 1.980789e+03 -7.839697e-01 9.649624e+01 -8.198046e+02 2.175614e+03 -3.355866e+01 4.973212e+01
<VARIANCE> 40
 2.371119e+05 3.998049e+05 1.232903e+04 3.784927e+03 2.389447e+05 9.409534e+05 1.752271e+04 2.592086e+04 2.137118e+05 9.218995e+05 3.830011e+04 4.045505e+04 3.699676e+05 1.284590e+06 1.202433e+05 1.132155e+05 2.120465e+05 1.032103e+06 7.936027e+04 7.707444e+04 3.108687e+05 3.122857e+05 5.652854e+04 3.967268e+04 3.057947e+05 8.977060e+05 1.248929e+05 2.791672e+05 2.962592e+05 9.057415e+05 1.764137e+05 2.595432e+05 3.466654e+05 1.114950e+06 2.059940e+05 2.510382e+05 3.023039e+05 8.559528e+05 1.938333e+05 2.478788e+05
<GCONST> 5.590860e+02
<MIXTURE> 2 8.487745e-02
<MEAN> 40
 2.035906e+03 4.220889e+03 8.785046e+00 4.161906e+00 6.360144e+02 4.216313e+03 1.573500e+01 4.265100e+01 2.479870e+02 3.969713e+03 7.276696e+00 4.962849e+01 -5.041473e+02 3.958809e+03 -2.751302e+00 5.222041e+01 -9.060831e+01 3.741266e+03 -6.771498e+00 5.536099e+01 -2.319628e+03 3.808843e+03 1.173959e+01 2.062733e+01 -1.102406e+03 3.605686e+03 -2.347918e+01 7.109250e+01 -9.014156e+02 3.305609e+03 -1.586967e+01 7.983252e+01 -5.663908e+02 3.269709e+03 1.813873e+01 1.081487e+02 -5.038681e+02 3.352184e+03 -1.122600e+00 5.850095e+01
<VARIANCE> 40
 6.049844e+04 4.859977e+04 9.050262e+02 1.967313e+02 1.280640e+05 9.422314e+04 2.058561e+03 3.796198e+03 3.083562e+04 8.615466e+04 4.814884e+03 5.530103e+03 7.319250e+04 1.208030e+05 8.581766e+03 7.720136e+03 3.456077e+04 9.115098e+04 6.740711e+03 1.213988e+04 9.486589e+04 4.988301e+04 1.678576e+03 9.592645e+02 1.258338e+05 1.017997e+05 5.139939e+03 6.634724e+03 9.466294e+04 1.037176e+05 1.824265e+04 1.415133e+04 1.186026e+05 2.142490e+05 2.144178e+04 2.080224e+04 6.176702e+04 9.848273e+04 1.855557e+04 1.734308e+04
<GCONST> 4.718493e+02
<MIXTURE> 3 5.762209e-02
<MEAN> 40
 2.163821e+03 3.771994e+03 1.430976e-02 7.662590e-03 8.314871e+02 3.377420e+03 8.619164e-03 4.460879e-02 3.422307e+02 3.043173e+03 -1.436495e-02 8.056423e-02 -3.821964e+02 2.887577e+03 -9.062929e-02 1.174277e-01 1.873580e+00 2.969728e+03 -7.545380e-02 6.773895e-02 -2.630056e+03 3.041082e+03 -2.920537e-03 7.685646e-02 -1.118533e+03 2.482851e+03 -2.134269e-02 5.977301e-02 -7.224309e+02 2.217906e+03 -1.199433e-02 2.773130e-02 -5.176380e+02 2.279353e+03 1.552114e-02 5.906757e-02 -5.814160e+02 2.370469e+03 3.268104e-02 5.059027e-02
<VARIANCE> 40
 8.582262e+04 1.142594e+05 4.555098e-03 2.542427e-03 1.199777e+05 2.261562e+05 8.749141e-03 1.191008e-02 5.028180e+04 2.011435e+05 2.563843e-02 3.829725e-02 1.309305e+05 3.692743e+05 6.304889e-02 1.209128e-01 5.773855e+04 2.049386e+05 7.244205e-02 1.419454e-01 1.452210e+05 1.920027e+05 6.539844e-03 1.621663e-02 9.122337e+04 3.652287e+05 1.289116e-02 1.549446e-02 8.626424e+04 3.260658e+05 3.383295e-02 4.881335e-02 1.824831e+05 5.638609e+05 3.369471e-02 4.798889e-02 1.130925e+05 3.291888e+05 6.938875e-02 6.099996e-02
<GCONST> 2.405330e+02
<MIXTURE> 4 7.453085e-02
<MEAN> 40
 2.031486e+03 3.523694e+03 1.336153e+01 2.454351e+00 1.313931e+03 2.591906e+03 9.746323e+00 1.164038e+01 6.472101e+02 2.409478e+03 9.286243e+00 2.536241e+01 -2.797269e+01 2.084099e+03 -6.703148e+00 4.457140e+01 2.653016e+02 2.255738e+03 -7.646555e+00 5.362696e+01 -2.445512e+03 2.587670e+03 1.324769e+00 2.543693e+01 -1.400781e+03 1.701228e+03 -3.298492e+00 1.104098e+01 -8.424847e+02 1.472154e+03 -5.071861e+00 9.367268e+00 -3.651725e+02 1.350925e+03 -1.981823e-01 6.296417e+00 -6.339243e+02 1.610740e+03 7.089280e-01 1.122246e+01
<VARIANCE> 40
 2.065173e+05 1.489373e+05 8.650802e+02 4.425872e+02 1.333795e+05 1.404884e+05 1.003050e+03 1.178638e+03 1.073652e+05 9.886714e+04 1.840146e+03 4.624486e+03 1.690937e+05 2.699172e+05 4.207266e+03 1.163595e+04 9.742926e+04 1.535363e+05 5.842622e+03 1.971268e+04 1.312273e+05 1.080363e+05 4.266907e+02 1.359043e+03 1.238903e+05 1.486716e+05 5.223419e+02 9.602527e+02 1.620006e+05 2.832307e+05 1.230451e+03 2.829410e+03 2.036932e+05 4.908846e+05 2.407054e+03 4.670446e+03 1.526372e+05 1.965442e+05 2.043634e+03 4.432304e+03
<GCONST> 4.661671e+02
<MIXTURE> 5 1.134361e-01
<MEAN> 40
 2.267205e+03 3.978311e+03 2.169349e+01 1.727869e+01 8.546048e+02 3.632740e+03 3.835446e+01 5.309713e+01 3.865325e+02 3.222853e+03 2.923479e+01 8.175343e+01 -3.510152e+02 3.119667e+03 4.496049e+00 9.209189e+01 4.132940e+01 3.214052e+03 2.007367e+01 7.240927e+01 -2.816554e+03 3.268246e+03 3.288401e+00 8.135806e+01 -1.223243e+03 2.789929e+03 -3.705591e+01 9.845306e+01 -7.060070e+02 2.520235e+03 -1.612586e+01 7.216956e+01 -4.968942e+02 2.652975e+03 9.245943e+00 1.074204e+02 -5.597220e+02 2.662584e+03 1.936916e+01 9.145755e+01
<VARIANCE> 40
 8.008527e+04 8.032227e+04 1.855108e+03 1.072503e+03 4.666579e+04 3.490592e+04 3.761541e+03 5.294867e+03 3.541925e+04 3.782185e+04 7.322595e+03 1.500812e+04 9.930534e+04 1.197739e+05 2.567417e+04 2.966482e+04 4.846123e+04 4.049014e+04 8.413094e+03 1.565458e+04 2.185840e+05 1.031913e+05 4.459248e+03 7.740929e+03 7.670007e+04 6.321096e+04 6.271958e+03 1.133540e+04 6.824273e+04 7.876986e+04 2.844899e+04 3.406477e+04 1.586966e+05 1.349495e+05 5.559432e+04 4.275261e+04 9.304720e+04 7.838784e+04 6.312196e+04 4.196570e+04
<GCONST> 4.863546e+02
<MIXTURE> 6 1.145081e-01
<MEAN> 40
 2.062917e+03 3.509831e+03 4.436674e+01 2.272971e+01 9.535283e+02 2.944348e+03 6.130791e+01 5.793091e+01 4.238336e+02 2.656822e+03 6.866497e+01 7.438821e+01 -2.052922e+02 2.412260e+03 7.986803e+01 9.853886e+01 9.211984e+01 2.578935e+03 4.845171e+01 7.512862e+01 -2.544666e+03 2.779459e+03 1.750174e+01 1.075982e+02 -1.240931e+03 1.981773e+03 -1.423892e+01 6.454362e+01 -7.511847e+02 1.764030e+03 -1.401798e+01 3.190744e+01 -4.319411e+02 1.826551e+03 4.979375e+01 4.972801e+01 -6.187991e+02 1.925764e+03 3.461996e+01 2.769325e+01
<VARIANCE> 40
 1.490830e+05 9.818398e+04 4.239218e+03 2.346994e+03 8.450103e+04 5.065793e+04 5.944541e+03 8.676474e+03 3.668774e+04 4.387970e+04 9.143081e+03 1.046738e+04 1.046730e+05 1.280474e+05 4.463098e+04 3.961429e+04 4.073180e+04 5.225052e+04 1.088018e+04 2.519212e+04 1.648634e+05 1.227250e+05 7.763698e+03 1.191467e+04 6.153090e+04 1.045923e+05 1.467201e+04 2.006860e+04 8.506442e+04 1.150487e+05 2.625798e+04 3.252967e+04 1.729085e+05 2.488782e+05 5.359266e+04 5.562691e+04 8.391716e+04 1.082811e+05 3.854729e+04 3.934453e+04
<GCONST> 4.961662e+02
<MIXTURE> 7 1.168577e-01
<MEAN> 40
 2.264685e+03 3.894554e+03 6.194051e+00 2.042990e+00 7.938668e+02 3.608802e+03 1.049060e+01 1.034095e+01 3.214943e+02 3.214585e+03 5.626147e+00 1.020145e+01 -3.846586e+02 3.135940e+03 -1.875734e+00 1.437266e+01 -2.274074e+01 3.194043e+03 9.657488e-01 1.259168e+01 -2.714066e+03 3.199438e+03 -2.022101e+00 2.167023e+01 -1.066896e+03 2.792875e+03 -1.240337e+01 1.952927e+01 -6.363777e+02 2.511452e+03 -1.028298e+01 7.264488e+00 -4.861470e+02 2.641778e+03 -8.432312e-01 1.097626e+01 -4.215767e+02 2.663584e+03 -9.437313e-02 6.603180e+00
<VARIANCE> 40
 4.962389e+04 7.901950e+04 1.762604e+02 8.443772e+01 6.909664e+04 4.540848e+04 3.713998e+02 3.960520e+02 4.570700e+04 4.973534e+04 3.868748e+02 4.090313e+02 1.609698e+05 1.141646e+05 8.730694e+02 8.591861e+02 4.392899e+04 4.348112e+04 3.683644e+02 7.217975e+02 1.523372e+05 9.162274e+04 2.609768e+02 5.623644e+02 5.700772e+04 7.083276e+04 4.440379e+02 5.181763e+02 7.451740e+04 8.000987e+04 1.678940e+03 2.020044e+03 1.775452e+05 1.620515e+05 9.093975e+02 1.411911e+03 5.565158e+04 9.008403e+04 9.883429e+02 1.262702e+03
<GCONST> 4.253054e+02
<MIXTURE> 8 1.367775e-01
<MEAN> 40
 2.152933e+03 3.813464e+03 1.530091e+01 4.930662e+00 6.422087e+02 3.513498e+03 2.398892e+01 2.171553e+01 2.351414e+02 3.026337e+03 7.293363e+00 2.321487e+01 -5.689924e+02 2.872888e+03 -1.324978e+01 4.164726e+01 -1.056470e+02 2.975025e+03 -2.805826e+00 3.301899e+01 -2.424490e+03 3.226588e+03 -8.157174e+00 3.751536e+01 -8.702810e+02 2.719045e+03 -2.391087e+01 4.256661e+01 -7.593359e+02 2.326126e+03 -1.686804e+01 2.665166e+01 -5.765764e+02 2.338064e+03 -2.752758e+00 2.295019e+01 -4.550492e+02 2.474688e+03 1.178613e+01 2.114314e+01
<VARIANCE> 40
 4.655775e+04 5.011707e+04 5.951279e+02 2.279055e+02 3.676383e+04 2.464954e+04 1.244288e+03 1.694955e+03 2.079270e+04 3.135017e+04 1.477088e+03 1.589964e+03 4.220223e+04 9.212946e+04 5.954688e+03 6.118601e+03 2.089441e+04 3.099777e+04 1.766616e+03 2.835972e+03 4.712602e+04 9.450030e+04 1.704079e+03 1.681533e+03 3.566782e+04 4.523723e+04 2.164360e+03 3.185169e+03 6.245033e+04 5.032606e+04 1.339554e+04 8.433562e+03 8.579740e+04 1.240944e+05 8.076979e+03 7.160927e+03 6.471802e+04 5.614482e+04 1.817215e+04 1.560939e+04
<GCONST> 4.491450e+02
<MIXTURE> 9 1.213925e-01
<MEAN> 40
