~o
<STREAMINFO> 1 40
<VECSIZE> 40<NULLD><USER><DIAGC>
~h "in"
<BEGINHMM>
<NUMSTATES> 14
<STATE> 2
<NUMMIXES> 10
<MIXTURE> 1 9.527521e-02
<MEAN> 40
 1.628193e+03 3.643619e+03 -2.006692e+01 -1.253747e+01 1.174537e+03 3.168959e+03 -2.590381e+01 -2.556947e+01 7.362610e+02 2.928239e+03 -2.253415e+01 -4.049762e+01 3.869914e+02 2.766841e+03 -5.845833e+01 -4.973657e+01 3.238419e+02 2.916312e+03 -3.623120e+01 -3.546016e+01 -1.665185e+03 3.545065e+03 5.984056e+00 -7.070701e+00 -1.623891e+03 3.221055e+03 -3.566682e+01 -1.072071e+01 -1.507164e+03 3.054639e+03 -7.070847e+01 -1.219609e+01 -1.386256e+03 2.884628e+03 -8.136780e+01 8.770391e+00 -1.187353e+03 2.878311e+03 -5.972897e+01 -1.706795e+01
<VARIANCE> 40
 2.985800e+04 1.584182e+04 3.587146e+03 1.678265e+03 5.917606e+04 6.723523e+04 4.508014e+03 1.020306e+04 4.245707e+04 8.525742e+04 9.028570e+03 1.154426e+04 1.073745e+05 2.076942e+05 2.189102e+04 3.928552e+04 4.085737e+04 9.439442e+04 1.164258e+04 2.950989e+04 2.259051e+04 1.000160e+04 4.558840e+03 2.269625e+03 2.702347e+04 7.118249e+04 6.302667e+03 3.514625e+04 6.370889e+04 1.802579e+05 2.116899e+04 5.506753e+04 8.331824e+04 2.211872e+05 3.309418e+04 7.297877e+04 4.202677e+04 1.278329e+05 1.838392e+04 5.396516e+04
<GCONST> 4.838331e+02
<MIXTURE> 2 8.846159e-02
<MEAN> 40
 2.509175e+03 4.173783e+03 -3.634892e+01 1.295665e+01 1.774521e+03 5.101084e+03 -7.484344e+01 -6.421243e+01 1.591335e+03 4.862899e+03 -9.748028e+01 -7.154407e+01 1.261333e+03 5.113405e+03 -9.802214e+01 -6.741674e+01 1.046022e+03 4.876448e+03 -1.095846e+02 -8.521541e+01 -2.675940e+03 3.696087e+03 -7.546027e+00 -1.794113e+01 -2.614472e+03 3.649117e+03 3.414802e+00 -3.194155e+02 -2.718375e+03 3.074429e+03 3.865106e+01 -3.681067e+02 -2.689690e+03 2.817892e+03 3.732911e+01 -5.010415e+02 -2.367314e+03 3.023170e+03 3.625684e+01 -3.609941e+02
<VARIANCE> 40
 2.394675e+05 1.421050e+05 8.298460e+03 4.265318e+03 4.128159e+05 2.636329e+05 1.901707e+04 3.198741e+04 3.706858e+05 2.355062e+05 3.900886e+04 3.248888e+04 4.566373e+05 4.890623e+05 5.456321e+04 8.914038e+04 3.995928e+05 2.986890e+05 3.574877e+04 6.760575e+04 7.005425e+05 1.450344e+05 1.397250e+04 1.305413e+04 6.103353e+05 5.722201e+05 3.132380e+04 8.724693e+04 3.706012e+05 7.161890e+05 5.469038e+04 1.138472e+05 5.062393e+05 1.223989e+06 1.385692e+05 2.784239e+05 3.212763e+05 7.098151e+05 8.757897e+04 1.402628e+05
<GCONST> 5.449310e+02
<MIXTURE> 3 1.062603e-01
<MEAN> 40
 2.157980e+03 3.928595e+03 -1.118691e+01 -1.338909e+00 1.371462e+03 4.174336e+03 -3.453733e+01 -5.415024e+01 9.251613e+02 4.061795e+03 -4.715963e+01 -5.390768e+01 3.739756e+02 4.149158e+03 -7.403077e+01 -6.941349e+01 4.474418e+02 3.998367e+03 -5.145352e+01 -6.566831e+01 -2.554730e+03 3.314557e+03 -1.681687e+01 -3.025408e+01 -1.972608e+03 2.079700e+03 2.090744e+01 -7.385883e+01 -1.786186e+03 1.531592e+03 4.394384e+01 -9.228983e+01 -1.412521e+03 1.269787e+03 8.939899e+01 -7.934184e+01 -1.477090e+03 1.561022e+03 5.981488e+01 -7.653116e+01
<VARIANCE> 40
 2.275827e+05 1.117993e+05 1.270665e+03 3.691380e+02 4.705463e+05 2.380009e+05 4.192944e+03 6.665191e+03 2.592323e+05 2.360270e+05 5.788035e+03 8.832258e+03 3.530404e+05 4.868728e+05 1.344837e+04 2.333497e+04 2.642354e+05 2.779224e+05 9.350375e+03 2.099193e+04 3.310951e+05 2.578365e+05 1.931835e+03 1.514661e+03 4.219583e+05 3.305275e+05 3.335218e+03 6.828544e+03 3.498330e+05 3.461877e+05 7.643560e+03 1.050559e+04 5.955706e+05 5.460931e+05 2.140938e+04 1.728688e+04 3.661706e+05 3.670355e+05 1.384178e+04 1.639684e+04
<GCONST> 5.027411e+02
<MIXTURE> 4 6.432355e-02
<MEAN> 40
 2.313619e+03 3.702196e+03 4.173598e+01 -1.476330e+01 9.610225e+02 3.385165e+03 2.479765e+01 -1.411176e+01 5.921466e+02 3.126285e+03 2.510864e+00 -7.675951e+00 -1.742561e+02 3.064385e+03 -1.363558e+01 2.925297e+01 1.726969e+02 3.104231e+03 -7.240621e+00 2.019490e+01 -2.527168e+03 3.048011e+03 -4.404002e+01 -6.117810e+01 -1.183360e+03 1.852029e+03 -3.399361e+01 -9.212067e+01 -9.882126e+02 1.320338e+03 -5.344389e+00 -8.656982e+01 -3.894546e+02 1.410200e+03 4.442517e+01 -5.276096e+01 -6.431893e+02 1.574690e+03 -1.032895e+01 -6.935335e+01
<VARIANCE> 40
 8.822075e+04 5.206954e+04 1.480858e+03 5.240089e+02 8.292703e+04 5.739444e+04 1.588857e+03 2.041219e+03 3.940031e+04 7.356100e+04 1.401423e+03 2.406112e+03 6.406272e+04 1.307319e+05 5.823691e+03 4.437781e+03 4.496617e+04 7.806162e+04 2.118771e+03 3.877885e+03 7.256883e+04 4.934926e+04 2.138881e+03 2.598771e+03 5.076233e+04 5.410396e+04 3.571535e+03 6.023227e+03 4.841600e+04 5.563024e+04 6.796734e+03 6.512671e+03 1.027760e+05 1.327070e+05 1.296475e+04 9.948614e+03 3.275670e+04 4.741664e+04 8.986165e+03 1.137337e+04
<GCONST> 4.583201e+02
<MIXTURE> 5 1.125430e-01
<MEAN> 40
 2.220161e+03 3.596304e+03 -4.837712e+01 -3.153020e+00 1.023505e+03 3.286545e+03 -9.045203e+01 -1.153931e+02 6.466846e+02 3.096812e+03 -8.156705e+01 -1.364896e+02 2.006837e+02 3.128062e+03 -1.100712e+02 -1.694788e+02 2.667282e+02 3.099340e+03 -8.593281e+01 -1.158616e+02 -2.520194e+03 3.120471e+03 5.438199e+01 -5.137007e+00 -1.449512e+03 2.412870e+03 1.036726e+02 -2.657156e+02 -1.360514e+03 2.092257e+03 2.741338e-01 -2.719953e+02 -1.166239e+03 2.076957e+03 -6.582722e+01 -3.131793e+02 -1.155419e+03 2.174035e+03 4.941923e+00 -2.642266e+02
<VARIANCE> 40
 1.817191e+05 1.077944e+05 1.514094e+04 6.533290e+03 1.367727e+05 1.443433e+05 2.106846e+04 2.472656e+04 9.278804e+04 1.618065e+05 3.636587e+04 3.296427e+04 2.552319e+05 2.983439e+05 8.199761e+04 8.627887e+04 9.792930e+04 1.785909e+05 4.074592e+04 4.999749e+04 2.057058e+05 1.613427e+05 4.495390e+04 3.845214e+04 2.062474e+05 5.489456e+05 8.625738e+04 3.432112e+05 2.475346e+05 6.035719e+05 1.827866e+05 4.053239e+05 3.488901e+05 7.700772e+05 2.877404e+05 5.277761e+05 2.517447e+05 5.249798e+05 2.471127e+05 4.249480e+05
<GCONST> 5.453583e+02
<MIXTURE> 6 9.231097e-02
<MEAN> 40
 2.645199e+03 4.288682e+03 -4.823088e+01 7.182221e-01 1.842350e+03 3.804828e+03 -1.298515e+02 -2.046306e+02 1.359007e+03 3.709154e+03 -1.741443e+02 -2.539142e+02 7.061765e+02 3.740992e+03 -2.385268e+02 -2.947209e+02 8.234955e+02 3.621945e+03 -1.679800e+02 -2.591218e+02 -3.771495e+03 2.548398e+03 3.061727e+01 -1.875238e+02 -2.843895e+03 1.065289e+03 1.951358e+02 -1.942186e+02 -2.225079e+03 5.155479e+02 2.876444e+02 -1.828467e+02 -1.538770e+03 4.149022e+02 3.477296e+02 -1.525312e+02 -1.927710e+03 6.950809e+02 2.559144e+02 -2.074152e+02
<VARIANCE> 40
 1.118235e+05 1.186717e+05 1.547892e+04 4.349010e+03 4.365327e+05 4.296326e+05 2.077105e+04 3.355489e+04 2.511121e+05 3.937575e+05 3.872010e+04 4.505454e+04 2.513473e+05 6.145371e+05 6.583374e+04 1.013164e+05 2.663954e+05 4.636381e+05 5.608556e+04 7.700040e+04 2.013108e+05 4.261874e+05 9.743205e+03 1.944626e+04 2.203899e+05 3.399083e+05 3.114881e+04 3.370991e+04 2.352108e+05 3.428535e+05 6.277213e+04 8.694241e+04 2.929358e+05 5.154808e+05 1.271488e+05 2.021428e+05 2.229184e+05 4.182944e+05 1.095212e+05 1.499349e+05
<GCONST> 5.399461e+02
<MIXTURE> 7 9.529570e-02
<MEAN> 40
 2.268353e+03 3.778655e+03 -2.695542e-01 -3.197989e+01 1.332956e+03 3.807425e+03 -1.890161e+02 -3.081750e+02 1.018132e+03 3.716877e+03 -2.226790e+02 -3.558858e+02 7.366912e+02 3.831971e+03 -2.017405e+02 -4.356938e+02 6.356169e+02 3.715922e+03 -2.172638e+02 -3.373262e+02 -2.633324e+03 2.917654e+03 -1.103928e+00 -8.690401e+01 -1.476673e+03 1.737551e+03 6.244582e+01 -1.782628e+02 -1.093279e+03 1.305321e+03 8.914493e+01 -1.704206e+02 -6.001140e+02 1.330875e+03 9.999935e+01 -1.084694e+02 -8.187157e+02 1.496440e+03 8.923162e+01 -1.385423e+02
<VARIANCE> 40
 1.301854e+05 1.062133e+05 3.127790e+04 1.239423e+04 5.481035e+05 3.304318e+05 1.035513e+05 1.454460e+05 3.862526e+05 4.043043e+05 1.717986e+05 1.792060e+05 4.597678e+05 6.533709e+05 3.216363e+05 3.198774e+05 3.942591e+05 4.592163e+05 2.478996e+05 2.617640e+05 1.893420e+05 2.073770e+05 1.851687e+04 1.742617e+04 2.024986e+05 1.987067e+05 2.669621e+04 7.878917e+04 1.746946e+05 2.510317e+05 4.842707e+04 1.309689e+05 2.536410e+05 3.940728e+05 8.408779e+04 1.777688e+05 1.785599e+05 2.321824e+05 6.848604e+04 1.469530e+05
<GCONST> 5.517075e+02
<MIXTURE> 8 9.399761e-02
<MEAN> 40
 2.693546e+03 3.563123e+03 -1.201385e+02 6.861682e+01 1.372977e+03 3.310792e+03 -1.883157e+02 -1.399404e+02 9.604626e+02 3.196307e+03 -2.113020e+02 -1.914128e+02 6.450143e+02 3.385130e+03 -2.563213e+02 -1.598658e+02 5.731552e+02 3.260760e+03 -2.151241e+02 -1.897434e+02 -3.181320e+03 2.818203e+03 5.819309e+01 -2.410607e+01 -1.716571e+03 1.992472e+03 1.635736e+02 -2.495004e+02 -1.498926e+03 1.549900e+03 2.174159e+02 -2.751501e+02 -1.349699e+03 1.675581e+03 1.829029e+02 -3.020896e+02 -1.399995e+03 1.824622e+03 1.813356e+02 -2.205270e+02
<VARIANCE> 40
 8.382955e+04 8.950217e+04 7.455645e+03 5.943846e+03 1.038944e+05 7.730230e+04 1.934375e+04 1.757468e+04 7.721180e+04 9.366465e+04 3.102121e+04 2.877568e+04 2.154305e+05 1.470386e+05 8.715802e+04 5.141713e+04 6.930702e+04 1.052977e+05 4.865493e+04 4.488944e+04 1.513888e+05 1.725382e+05 7.422420e+03 7.728341e+03 9.463535e+04 1.413712e+05 1.557699e+04 2.970575e+04 1.345211e+05 1.544584e+05 7.092383e+04 4.544744e+04 2.643876e+05 2.988312e+05 1.023315e+05 1.119529e+05 2.048640e+05 2.110292e+05 1.100021e+05 8.315316e+04
<GCONST> 5.166927e+02
<MIXTURE> 9 1.566880e-01
<MEAN> 40
 2.603268e+03 4.005406e+03 -6.267593e+01 7.961649e+00 1.130986e+03 4.106338e+03 -1.234901e+02 -1.325744e+02 8.413253e+02 3.984533e+03 -1.283453e+02 -1.498489e+02 3.202617e+02 4.142822e+03 -2.201514e+02 -2.127432e+02 3.054463e+02 4.009848e+03 -1.455621e+02 -1.351670e+02 -3.195251e+03 3.215740e+03 1.488048e+01 -8.648751e+01 -1.821164e+03 2.157966e+03 9.747447e+01 -2.583609e+02 -1.661165e+03 1.644284e+03 1.479769e+02 -2.691569e+02 -1.278277e+03 1.742081e+03 1.570151e+02 -2.399755e+02 -1.388287e+03 1.858285e+03 1.185803e+02 -2.498693e+02
<VARIANCE> 40
 9.245234e+04 9.637849e+04 8.781679e+03 2.474791e+03 8.998394e+04 6.571184e+04 1.863166e+04 2.140355e+04 7.644512e+04 8.296148e+04 3.696021e+04 2.827749e+04 1.302155e+05 1.779581e+05 8.118043e+04 8.945198e+04 5.369762e+04 8.150820e+04 3.913411e+04 3.085298e+04 2.366709e+05 1.121959e+05 1.299270e+04 1.290144e+04 1.683309e+05 1.423115e+05 2.560893e+04 3.716499e+04 1.235324e+05 1.593992e+05 5.538369e+04 5.565381e+04 2.624381e+05 2.479378e+05 1.028350e+05 9.730548e+04 2.025659e+05 1.909584e+05 1.384731e+05 1.129392e+05
<GCONST> 5.174877e+02
<MIXTURE> 10 9.484200e-02
<MEAN> 40
 2.028138e+03 3.489567e+03 5.324953e+01 -2.133286e+01 1.114373e+03 2.939365e+03 2.501072e+01 8.971472e+00 6.323550e+02 2.823951e+03 1.731161e+01 3.498834e+01 -1.090079e+01 2.647009e+03 -2.465491e+01 9.976312e+01 1.818907e+02 2.705976e+03 -6.161135e-01 6.120631e+01 -2.523854e+03 2.367794e+03 -3.208154e+01 -8.573824e+01 -1.554682e+03 1.079189e+03 -2.558677e+01 -1.153834e+02 -1.111029e+03 5.160484e+02 -1.793184e+01 -1.400569e+02 -5.093127e+02 3.991645e+02 -3.242433e+00 -1.323562e+02 -7.511366e+02 7.428268e+02 4.788034e+00 -1.373514e+02
<VARIANCE> 40
 1.573152e+05 1.111770e+05 4.924936e+03 1.854375e+03 1.763982e+05 2.183085e+05 4.167043e+03 9.436440e+03 8.461259e+04 2.500552e+05 7.958232e+03 1.681736e+04 1.565438e+05 4.731238e+05 1.682878e+04 3.871566e+04 9.336873e+04 2.960839e+05 1.147354e+04 3.806558e+04 2.930137e+05 2.860007e+05 6.744899e+03 9.672202e+03 1.614725e+05 2.726327e+05 7.553028e+03 2.158341e+04 1.328331e+05 3.279735e+05 1.588426e+04 3.377523e+04 2.053969e+05 4.517299e+05 4.750286e+04 4.935635e+04 1.381676e+05 3.518220e+05 2.322221e+04 5.402308e+04
<GCONST> 5.102836e+02
<STATE> 3
<NUMMIXES> 10
<MIXTURE> 1 7.217643e-02
<MEAN> 40
 2.148610e+03 4.190634e+03 -3.254865e+01 -9.970004e+00 6.468526e+02 4.261002e+03 -5.584428e+01 -1.377436e+02 3.988502e+02 4.175453e+03 -7.065176e+01 -1.447175e+02 -2.245842e+02 4.282209e+03 -1.041435e+02 -1.729886e+02 -9.303285e+01 4.161767e+03 -5.360736e+01 -1.376393e+02 -2.621701e+03 3.604169e+03 -1.029382e+00 -5.503280e+01 -1.455525e+03 2.211091e+03 7.038605e+01 -6.926510e+01 -1.474105e+03 1.583313e+03 1.531700e+02 -4.209928e+01 -1.139698e+03 1.400027e+03 1.713990e+02 4.401181e+01 -1.164590e+03 1.689079e+03 1.266585e+02 4.161999e+01
<VARIANCE> 40
 5.022297e+04 4.620930e+04 2.503114e+03 9.081897e+02 8.197818e+04 1.215836e+05 7.692354e+03 1.722821e+04 7.102827e+04 1.503402e+05 2.068982e+04 2.260904e+04 1.146442e+05 2.349123e+05 4.107209e+04 5.436467e+04 5.850984e+04 1.753646e+05 3.101429e+04 2.748541e+04 1.186449e+05 9.981900e+04 4.552229e+03 4.190093e+03 9.424555e+04 2.443364e+05 6.634148e+03 1.686798e+04 1.021102e+05 3.163639e+05 2.657379e+04 3.210707e+04 1.714428e+05 3.279870e+05 5.631016e+04 5.250251e+04 1.040779e+05 2.489883e+05 4.397630e+04 4.061542e+04
<GCONST> 5.026115e+02
<MIXTURE> 2 6.217371e-02
<MEAN> 40
 2.372763e+03 4.019154e+03 -5.231732e+01 1.859389e+01 1.565348e+03 4.462676e+03 -1.569137e+02 -1.519067e+02 1.262301e+03 4.269664e+03 -1.921292e+02 -1.690815e+02 9.227474e+02 4.397430e+03 -1.442150e+02 -2.404939e+02 8.282525e+02 4.267106e+03 -1.488586e+02 -1.339735e+02 -2.635804e+03 3.219632e+03 3.840586e+01 1.144389e+01 -2.110168e+03 2.655957e+03 1.633456e+02 -1.594529e+02 -1.972795e+03 2.087662e+03 2.223208e+02 -1.488499e+02 -1.729633e+03 1.820450e+03 3.023737e+02 -1.523064e+02 -1.682408e+03 2.106124e+03 2.102787e+02 -1.232668e+02
<VARIANCE> 40
 2.389467e+05 2.033811e+05 2.373938e+04 1.248387e+04 4.624115e+05 1.025465e+06 8.643991e+04 9.894432e+04 4.690548e+05 1.032761e+06 9.371488e+04 1.466975e+05 7.065049e+05 1.636502e+06 1.542201e+05 2.731729e+05 4.184284e+05 1.094909e+06 1.145875e+05 1.483175e+05 5.639522e+05 8.493451e+05 2.545745e+04 8.282233e+04 5.641365e+05 2.178762e+06 6.531834e+04 1.268658e+05 4.835894e+05 2.244109e+06 1.142581e+05 1.212417e+05 7.718228e+05 2.341060e+06 2.260008e+05 2.417240e+05 4.049359e+05 2.026163e+06 1.226077e+05 1.576716e+05
<GCONST> 5.744492e+02
<MIXTURE> 3 6.449527e-02
<MEAN> 40
 2.169365e+03 3.651102e+03 -1.085087e-01 -5.210613e-02 1.175182e+03 3.234542e+03 -2.955784e-01 -5.093080e-01 7.395115e+02 3.119219e+03 -4.420331e-01 -8.935815e-01 1.465195e+02 3.044059e+03 -1.019158e+00 -1.116789e+00 2.895026e+02 3.061580e+03 -9.114837e-01 -1.539041e+00 -2.588911e+03 2.828076e+03 -6.937752e-02 -7.641830e-01 -1.663628e+03 1.749236e+03 2.247105e-01 -8.662727e-01 -1.309980e+03 1.266024e+03 3.723517e-01 -1.145925e+00 -8.388896e+02 1.264648e+03 7.131055e-01 -1.254918e+00 -9.792042e+02 1.452355e+03 9.391902e-01 -1.581784e+00
<VARIANCE> 40
 2.101468e+05 1.473226e+05 2.725061e-01 1.344370e-01 2.330276e+05 3.389797e+05 4.130941e-01 6.921232e-01 1.303413e+05 3.200105e+05 1.582774e+00 4.561785e+00 2.095296e+05 5.818741e+05 4.713082e+00 1.465764e+01 1.331533e+05 3.785326e+05 5.782827e+00 3.478887e+01 4.370353e+05 3.649026e+05 4.156239e-01 1.316910e+00 2.288927e+05 8.909376e+05 5.459977e-01 2.268115e+00 1.700135e+05 1.040245e+06 2.477819e+00 5.584132e+00 3.573294e+05 1.070210e+06 5.278203e+00 1.465355e+01 1.886023e+05 8.734199e+05 9.598586e+00 2.007265e+01
<GCONST> 3.464250e+02
<MIXTURE> 4 9.622007e-02
<MEAN> 40
 2.172161e+03 3.772479e+03 -1.968450e+00 -4.991494e-02 1.216465e+03 3.361567e+03 -4.473037e+00 -6.553288e+00 7.509588e+02 3.252141e+03 -6.310020e+00 -1.272492e+01 1.640854e+02 3.233023e+03 -1.252497e+01 -1.702821e+01 2.753886e+02 3.194540e+03 -1.117630e+01 -1.568811e+01 -2.708768e+03 2.784594e+03 -8.115674e-01 -1.014155e+01 -1.770690e+03 1.598414e+03 3.609816e+00 -9.245298e+00 -1.388205e+03 1.126378e+03 9.218364e+00 -9.503083e+00 -8.593031e+02 1.051805e+03 1.311873e+01 -9.567892e+00 -1.084090e+03 1.277672e+03 1.933173e+01 -1.818305e+00
<VARIANCE> 40
 1.864067e+05 1.657424e+05 5.029255e+01 3.647070e+01 2.996957e+05 4.227442e+05 6.473474e+01 1.193114e+02 1.553021e+05 4.193580e+05 2.442699e+02 5.852388e+02 2.546965e+05 7.043670e+05 7.782944e+02 1.894599e+03 1.624007e+05 4.736842e+05 4.630967e+02 2.590437e+03 5.029409e+05 4.187955e+05 1.196057e+02 1.998632e+02 3.544896e+05 8.409789e+05 1.469068e+02 2.345565e+02 2.657290e+05 1.016177e+06 6.499648e+02 7.478354e+02 3.941979e+05 1.142099e+06 9.937327e+02 1.899611e+03 2.900299e+05 9.473882e+05 1.695987e+03 3.265650e+03
<GCONST> 4.512404e+02
<MIXTURE> 5 1.069048e-01
<MEAN> 40
 2.625409e+03 4.321270e+03 -4.152329e+01 -1.011818e+01 1.161145e+03 3.948466e+03 -7.894205e+01 -1.061409e+02 7.888628e+02 3.581441e+03 -8.324416e+01 -1.533850e+02 9.806558e+01 3.624048e+03 -1.195768e+02 -1.842093e+02 2.853846e+02 3.636173e+03 -5.479203e+01 -1.177884e+02 -3.673431e+03 2.380293e+03 6.011650e+01 -1.312779e+02 -2.123980e+03 1.263443e+03 1.768935e+02 -7.578207e+01 -1.470643e+03 7.741388e+02 2.359640e+02 -4.947993e+01 -6.898956e+02 9.132566e+02 2.878234e+02 4.218983e+01 -1.191927e+03 1.067917e+03 2.273893e+02 7.552684e+00
<VARIANCE> 40
 3.816776e+04 5.699042e+04 4.580313e+03 1.662503e+03 4.167746e+04 7.838927e+04 6.426031e+03 5.454618e+03 6.350306e+04 1.022058e+05 1.318658e+04 1.435535e+04 1.315362e+05 1.837203e+05 5.078052e+04 3.376132e+04 4.943911e+04 8.944342e+04 1.898153e+04 2.441784e+04 1.240221e+05 1.697839e+05 4.488451e+03 8.162075e+03 7.161134e+04 1.024568e+05 1.096419e+04 1.581243e+04 8.762395e+04 1.059179e+05 2.139075e+04 2.923881e+04 1.273373e+05 1.991596e+05 4.238936e+04 4.601121e+04 1.355332e+05 1.269346e+05 4.230790e+04 3.656547e+04
<GCONST> 4.952828e+02
<MIXTURE> 6 1.244000e-01
<MEAN> 40
 1.793017e+03 3.591048e+03 -3.520461e+01 -8.862805e+00 9.283129e+02 3.125523e+03 -6.266225e+01 -5.200574e+01 5.414089e+02 2.894678e+03 -6.578511e+01 -5.959107e+01 1.720051e+02 2.842734e+03 -6.329150e+01 -6.265656e+01 1.436582e+02 2.903686e+03 -6.237484e+01 -5.730719e+01 -1.970130e+03 3.435244e+03 3.577318e+00 -1.497715e+01 -1.510829e+03 2.776275e+03 2.164713e+01 -1.801599e+02 -1.438526e+03 2.469229e+03 3.037935e+01 -2.139125e+02 -1.317384e+03 2.359912e+03 1.769629e+01 -2.024950e+02 -1.185559e+03 2.444697e+03 6.449794e+00 -1.474559e+02
<VARIANCE> 40
 1.075577e+05 4.172066e+04 3.897104e+03 1.658559e+03 1.031731e+05 9.907562e+04 6.141285e+03 8.302776e+03 5.076286e+04 1.269407e+05 8.979046e+03 1.039052e+04 1.433697e+05 2.218981e+05 5.253044e+04 2.399274e+04 5.824996e+04 1.315319e+05 1.433222e+04 2.009929e+04 1.320223e+05 2.820288e+04 7.554292e+03 6.697152e+03 1.309100e+05 1.357805e+05 1.208444e+04 8.060471e+04 1.441872e+05 1.504097e+05 4.489370e+04 1.214961e+05 2.099354e+05 2.388246e+05 6.541723e+04 1.520921e+05 1.157499e+05 1.423824e+05 4.994746e+04 1.242040e+05
<GCONST> 5.045576e+02
<MIXTURE> 7 1.122981e-01
<MEAN> 40
 2.222795e+03 3.695469e+03 6.917313e+00 -1.899268e+01 1.144203e+03 3.278731e+03 -4.238609e+00 -5.876072e+01 6.833903e+02 3.122090e+03 -1.645092e+01 -7.043414e+01 1.576942e+02 3.108164e+03 -8.779306e+00 -7.138187e+01 2.656158e+02 3.080500e+03 -1.735618e+01 -7.474918e+01 -2.555975e+03 2.759056e+03 -2.379057e+01 -6.863434e+01 -1.379763e+03 1.552296e+03 -1.884598e+00 -7.045213e+01 -9.862115e+02 1.068736e+03 2.246133e+01 -7.898967e+01 -4.201968e+02 1.123161e+03 3.982920e+01 -6.458072e+01 -6.593857e+02 1.314546e+03 2.619938e+01 -6.573953e+01
<VARIANCE> 40
 1.748012e+05 9.008060e+04 3.397104e+03 1.365947e+03 2.185898e+05 1.773532e+05 5.448737e+03 9.746461e+03 1.250754e+05 1.888368e+05 1.274758e+04 1.921013e+04 2.539590e+05 3.563906e+05 5.732082e+04 4.357216e+04 1.281084e+05 2.460000e+05 2.071721e+04 3.793701e+04 1.566753e+05 1.403701e+05 2.897431e+03 3.874764e+03 1.442811e+05 1.707095e+05 4.059087e+03 6.645995e+03 1.084451e+05 2.414365e+05 8.131959e+03 1.374310e+04 1.614804e+05 3.957714e+05 1.319111e+04 1.959475e+04 9.408459e+04 2.261454e+05 7.939203e+03 1.263854e+04
<GCONST> 4.993006e+02
<MIXTURE> 8 1.157328e-01
<MEAN> 40
 2.431620e+03 3.746587e+03 -8.584412e+01 2.044562e+01 9.362875e+02 3.418106e+03 -1.197038e+02 -1.564423e+02 6.167047e+02 3.264169e+03 -1.609366e+02 -1.870655e+02 2.612304e+02 3.380209e+03 -1.727416e+02 -1.981680e+02 2.534654e+02 3.271702e+03 -1.080752e+02 -2.244320e+02 -2.881110e+03 3.021566e+03 6.580838e+01 -7.871840e+01 -1.346931e+03 1.962717e+03 9.852776e+01 -2.010696e+02 -1.196352e+03 1.543544e+03 1.859722e+02 -1.930413e+02 -9.556772e+02 1.705515e+03 1.738899e+02 -1.471147e+02 -1.046235e+03 1.785461e+03 1.393755e+02 -1.948062e+02
<VARIANCE> 40
 7.095503e+04 6.239423e+04 1.001745e+04 5.395355e+03 1.145534e+05 1.058444e+05 2.339489e+04 2.371660e+04 6.398404e+04 1.374590e+05 6.571314e+04 3.966543e+04 2.636641e+05 2.168992e+05 1.044043e+05 6.366079e+04 1.150777e+05 1.719930e+05 1.010689e+05 7.781902e+04 1.336664e+05 8.691336e+04 1.243910e+04 9.728265e+03 8.230395e+04 9.198729e+04 2.221245e+04 7.199262e+04 1.605909e+05 1.224075e+05 7.321339e+04 1.322092e+05 3.159507e+05 2.130995e+05 1.309814e+05 1.676595e+05 2.461562e+05 1.917995e+05 2.049258e+05 1.572785e+05
<GCONST> 5.252861e+02
<MIXTURE> 9 1.215240e-01
<MEAN> 40
 2.599736e+03 3.788965e+03 -9.067158e+01 -4.570864e+00 1.044812e+03 3.831260e+03 -1.164726e+02 -8.975742e+01 7.047739e+02 3.737212e+03 -1.257649e+02 -9.884842e+01 1.794690e+02 3.924998e+03 -1.398160e+02 -9.805296e+01 1.841634e+02 3.782188e+03 -1.113264e+02 -1.048783e+02 -3.104056e+03 3.036339e+03 6.326714e+01 -6.614194e+01 -1.585081e+03 2.008082e+03 8.942074e+01 -1.104642e+02 -1.317931e+03 1.451756e+03 1.303220e+02 -1.191721e+02 -9.226265e+02 1.739843e+03 1.384426e+02 -9.639559e+01 -1.053573e+03 1.805822e+03 1.198814e+02 -9.862605e+01
<VARIANCE> 40
 5.388132e+04 5.109189e+04 4.022324e+03 1.827967e+03 9.749339e+04 7.082867e+04 6.495159e+03 7.921410e+03 5.816151e+04 7.626332e+04 1.092379e+04 1.007700e+04 1.392606e+05 1.102595e+05 2.083698e+04 1.598977e+04 5.162587e+04 7.031055e+04 1.007484e+04 1.161145e+04 1.022677e+05 8.501483e+04 7.115318e+03 3.831993e+03 6.882546e+04 8.643884e+04 9.059105e+03 9.151163e+03 6.252963e+04 8.769391e+04 1.633702e+04 1.176506e+04 2.668930e+05 1.503673e+05 2.039154e+04 2.083929e+04 1.153719e+05 9.371296e+04 2.175180e+04 2.603100e+04
<GCONST> 4.856590e+02
<MIXTURE> 10 1.240744e-01
<MEAN> 40
 2.357859e+03 3.557753e+03 -7.048183e+01 -3.769975e+01 1.198199e+03 3.043834e+03 -9.483427e+01 -1.492686e+02 7.255349e+02 2.879185e+03 -1.442198e+02 -1.930811e+02 1.836401e+02 2.897103e+03 -2.013078e+02 -2.317185e+02 3.776169e+02 2.905886e+03 -1.199691e+02 -1.730054e+02 -2.827007e+03 2.415623e+03 7.141306e+01 -1.325152e+02 -1.558938e+03 1.224346e+03 1.002154e+02 -1.351454e+02 -1.136293e+03 7.785871e+02 1.658137e+02 -1.603463e+02 -6.981976e+02 8.525435e+02 2.051293e+02 -1.224918e+02 -9.299687e+02 1.023994e+03 1.828344e+02 -1.593382e+02
<VARIANCE> 40
 1.309517e+05 1.445398e+05 1.236316e+04 6.066431e+03 1.556644e+05 9.288341e+04 2.234494e+04 2.078634e+04 1.028467e+05 9.263475e+04 3.466507e+04 2.770907e+04 2.327318e+05 1.557056e+05 7.139195e+04 7.202626e+04 1.070272e+05 1.035667e+05 6.404220e+04 6.541426e+04 2.346483e+05 1.730301e+05 1.107130e+04 1.853506e+04 1.400470e+05 1.094936e+05 2.091950e+04 5.372438e+04 1.490292e+05 1.328687e+05 5.752594e+04 1.223296e+05 2.465343e+05 2.459750e+05 1.387929e+05 1.965370e+05 1.732834e+05 1.528713e+05 1.443174e+05 1.673679e+05
<GCONST> 5.252908e+02
<STATE> 4
<NUMMIXES> 10
<MIXTURE> 1 5.600937e-02
<MEAN> 40
 2.116004e+03 3.578100e+03 -1.162193e-02 -8.119875e-03 1.031813e+03 3.141977e+03 -2.042658e-02 -3.262209e-02 6.064240e+02 2.974898e+03 -3.384029e-02 -5.214582e-02 6.247216e+01 2.886861e+03 -5.764162e-02 -7.105513e-02 1.670144e+02 2.952192e+03 -4.443116e-02 -6.717099e-02 -2.526157e+03 2.657104e+03 -5.127706e-03 -3.581000e-02 -1.493952e+03 1.554652e+03 6.944830e-03 -3.202571e-02 -1.132578e+03 1.070690e+03 1.824419e-02 -4.470894e-02 -7.063362e+02 1.071571e+03 3.586629e-02 -5.307472e-02 -8.639078e+02 1.272172e+03 3.362573e-02 -5.823325e-02
<VARIANCE> 40
 1.562773e+05 1.615648e+05 9.065830e-04 1.142887e-03 1.870865e+05 4.714092e+05 1.810891e-03 4.601067e-03 1.204160e+05 4.791651e+05 5.770279e-03 1.532443e-02 2.184796e+05 7.640122e+05 2.351540e-02 5.734829e-02 1.122658e+05 5.050961e+05 2.278551e-02 7.422696e-02 3.013787e+05 3.576887e+05 2.238527e-03 1.019946e-02 2.051271e+05 6.863588e+05 3.474061e-03 9.374532e-03 2.158181e+05 8.179749e+05 1.246740e-02 2.785539e-02 3.804139e+05 8.564189e+05 3.059353e-02 5.722000e-02 1.806022e+05 6.878765e+05 3.734545e-02 6.680775e-02
<GCONST> 2.379502e+02
<MIXTURE> 2 5.657332e-02
<MEAN> 40
 2.222561e+03 4.138505e+03 -4.835846e+01 1.172399e+01 1.358741e+03 4.919414e+03 -1.097113e+02 -5.932022e+01 1.174400e+03 4.706504e+03 -1.201949e+02 -6.990642e+01 8.859620e+02 4.908437e+03 -1.416389e+02 -5.671025e+01 5.970931e+02 4.645542e+03 -1.378677e+02 -8.314323e+01 -2.243466e+03 3.691742e+03 1.500244e+01 1.235138e+01 -1.950809e+03 3.306921e+03 1.120055e+02 -7.041324e+01 -1.955738e+03 2.697424e+03 1.886699e+02 -5.382847e+01 -1.751046e+03 2.254306e+03 2.659186e+02 -5.203085e+01 -1.587142e+03 2.664093e+03 1.938348e+02 -1.366193e+01
<VARIANCE> 40
 2.203804e+05 1.371618e+05 8.152024e+03 2.800960e+03 4.679039e+05 3.204249e+05 2.301766e+04 2.353782e+04 3.769688e+05 3.247073e+05 3.256573e+04 2.132696e+04 6.127012e+05 7.540028e+05 4.461782e+04 4.975248e+04 3.961889e+05 3.714997e+05 5.363558e+04 5.804561e+04 3.489804e+05 2.935329e+05 1.083251e+04 6.032749e+03 5.890729e+05 5.443505e+05 3.137659e+04 7.989761e+04 3.287073e+05 6.875462e+05 5.150966e+04 7.741473e+04 4.624611e+05 1.041662e+06 9.401913e+04 1.371155e+05 2.829428e+05 7.015201e+05 5.816621e+04 9.228338e+04
<GCONST> 5.406096e+02
<MIXTURE> 3 1.009130e-01
<MEAN> 40
 2.384360e+03 3.783823e+03 -1.761970e+01 -5.262027e+00 8.582170e+02 3.666813e+03 -2.969197e+01 -4.837232e+01 4.793963e+02 3.497774e+03 -3.170736e+01 -5.936857e+01 -1.118150e+02 3.620221e+03 -6.061779e+01 -6.717959e+01 3.412078e+01 3.530878e+03 -2.821787e+01 -7.319307e+01 -3.007515e+03 2.857079e+03 1.554130e+01 -2.371759e+01 -1.430730e+03 1.905264e+03 3.548746e+01 -1.044840e+01 -1.107481e+03 1.375009e+03 5.104548e+01 -1.848246e+01 -6.453931e+02 1.636919e+03 5.267338e+01 -1.068427e+01 -8.633444e+02 1.710971e+03 3.427094e+01 -6.357067e+00
<VARIANCE> 40
 7.617609e+04 8.228619e+04 1.169288e+03 5.421567e+02 9.945874e+04 7.006421e+04 2.161278e+03 1.726507e+03 5.355385e+04 7.712404e+04 2.444653e+03 2.117209e+03 1.728037e+05 1.128386e+05 1.021243e+04 4.849307e+03 5.009693e+04 6.920767e+04 3.514115e+03 4.233726e+03 1.664826e+05 1.705716e+05 1.247488e+03 1.099244e+03 8.707602e+04 1.113207e+05 1.510938e+03 1.902216e+03 7.703855e+04 9.938991e+04 3.913599e+03 3.026321e+03 2.638142e+05 1.873630e+05 4.440340e+03 2.912486e+03 1.186150e+05 9.723164e+04 3.253518e+03 3.232033e+03
<GCONST> 4.601741e+02
<MIXTURE> 4 1.440029e-01
<MEAN> 40
 2.379593e+03 4.024733e+03 -7.674319e+01 -3.108061e+01 8.395972e+02 3.761285e+03 -7.488660e+01 -1.384843e+02 4.812305e+02 3.494853e+03 -7.654123e+01 -1.931083e+02 -1.836618e+02 3.586899e+03 -1.181522e+02 -2.101554e+02 3.785093e+01 3.568959e+03 -5.148003e+01 -1.586579e+02 -3.029861e+03 2.814523e+03 9.773464e+01 -7.646281e+01 -1.433780e+03 1.827765e+03 1.694238e+02 1.498077e+01 -1.005403e+03 1.358659e+03 2.285812e+02 5.959331e+01 -5.812664e+02 1.539359e+03 1.802289e+02 1.024858e+02 -8.195142e+02 1.650018e+03 1.651198e+02 8.014630e+01
<VARIANCE> 40
 5.421342e+04 1.153415e+05 6.269853e+03 2.616342e+03 6.953000e+04 6.299961e+04 1.080512e+04 1.156691e+04 4.962021e+04 7.519310e+04 1.695025e+04 1.772307e+04 9.332448e+04 1.191390e+05 3.603410e+04 3.830316e+04 5.102160e+04 6.366602e+04 2.550984e+04 2.425467e+04 2.173606e+05 2.636445e+05 1.120455e+04 9.213340e+03 9.099685e+04 1.811536e+05 1.719597e+04 1.758907e+04 8.349279e+04 1.771201e+05 4.371681e+04 3.676438e+04 2.269372e+05 2.569827e+05 9.336933e+04 7.151538e+04 1.062937e+05 1.478356e+05 7.079355e+04 5.402549e+04
<GCONST> 5.052570e+02
<MIXTURE> 5 1.231586e-01
<MEAN> 40
 1.659574e+03 3.570993e+03 -5.863065e+00 -1.113467e+01 9.296135e+02 3.008848e+03 -2.910941e+01 -4.508012e+01 4.787312e+02 2.772016e+03 -3.924032e+01 -4.761503e+01 5.468272e+01 2.698204e+03 -7.322667e+01 -4.755625e+01 1.038504e+02 2.793602e+03 -2.775719e+01 -4.704387e+01 -1.829663e+03 3.386635e+03 -4.821717e+01 -4.787245e+01 -1.583655e+03 2.361113e+03 1.076640e+01 -1.918897e+02 -1.335720e+03 2.046403e+03 6.979149e+01 -1.914382e+02 -1.197670e+03 1.990192e+03 8.278256e+01 -1.675774e+02 -1.166688e+03 2.143600e+03 1.791152e+01 -1.301995e+02
<VARIANCE> 40
 3.509387e+04 1.990600e+04 7.712242e+02 6.057726e+02 7.302643e+04 4.768710e+04 1.369875e+03 2.300695e+03 3.360580e+04 6.154451e+04 2.521230e+03 2.486058e+03 1.171792e+05 9.697515e+04 1.112827e+04 7.623646e+03 4.321699e+04 5.821643e+04 3.243161e+03 3.876790e+03 6.006677e+04 2.528280e+04 3.227034e+03 4.237731e+03 4.115414e+04 1.005116e+05 4.797886e+03 2.247813e+04 9.092149e+04 1.028664e+05 2.641292e+04 3.999323e+04 1.555527e+05 2.131792e+05 4.689658e+04 5.457308e+04 6.953637e+04 8.440699e+04 4.324510e+04 5.063716e+04
<GCONST> 4.722087e+02
<MIXTURE> 6 6.768371e-02
<MEAN> 40
 2.422256e+03 3.764106e+03 2.729466e-02 -4.055646e+01 1.700138e+03 2.456902e+03 -7.786285e+01 -1.664215e+02 1.018525e+03 2.103023e+03 -8.415865e+01 -2.286723e+02 2.444584e+02 1.796887e+03 -7.021976e+01 -2.684856e+02 6.154606e+02 1.959980e+03 -4.903607e+01 -2.324492e+02 -3.161247e+03 1.950976e+03 4.514836e+01 -1.170524e+01 -2.117769e+03 6.220605e+02 7.548253e+01 9.449448e+01 -1.285086e+03 2.522841e+02 8.650465e+01 1.067997e+02 -4.322159e+02 2.414556e+02 9.952406e+01 7.611176e+01 -9.930966e+02 4.502489e+02 9.118027e+01 1.144035e+02
<VARIANCE> 40
 2.325655e+05 2.573422e+05 2.798067e+04 2.858809e+04 2.130347e+05 1.870681e+05 5.233650e+04 4.347317e+04 1.265139e+05 2.725451e+05 7.182394e+04 5.956016e+04 1.288871e+05 5.035158e+05 9.028484e+04 9.526625e+04 1.453006e+05 3.362364e+05 8.807694e+04 1.012913e+05 4.472630e+05 2.003728e+05 1.336307e+04 3.036909e+04 2.537703e+05 2.601915e+05 1.982785e+04 4.222944e+04 1.624349e+05 2.510077e+05 2.447083e+04 4.522721e+04 1.358634e+05 3.019942e+05 4.733128e+04 7.072524e+04 1.814314e+05 3.255150e+05 5.613920e+04 7.665130e+04
<GCONST> 5.356281e+02
<MIXTURE> 7 1.027654e-01
<MEAN> 40
 2.204792e+03 3.767785e+03 -1.088506e+02 -1.112082e+01 7.550905e+02 3.272838e+03 -1.285682e+02 -1.307016e+02 4.188810e+02 2.981757e+03 -1.813947e+02 -2.494766e+02 1.378516e+02 3.002445e+03 -1.789768e+02 -3.229900e+02 8.834728e+01 2.972815e+03 -1.580722e+02 -2.321815e+02 -2.697087e+03 2.955146e+03 5.971586e+01 -5.767259e+01 -1.166985e+03 2.014997e+03 1.346731e+02 2.009392e+00 -9.501470e+02 1.663090e+03 1.517729e+02 6.077774e+01 -6.951161e+02 1.746782e+03 1.253565e+02 9.159997e+01 -8.146183e+02 1.879389e+03 1.410730e+02 6.529636e+01
<VARIANCE> 40
 9.757723e+04 8.926495e+04 1.531388e+04 5.171099e+03 1.351326e+05 2.078407e+05 3.701388e+04 4.305730e+04 7.565210e+04 2.379353e+05 7.449596e+04 7.706329e+04 2.889822e+05 3.937868e+05 2.722008e+05 1.969367e+05 1.359775e+05 2.673965e+05 1.362755e+05 1.376762e+05 1.691738e+05 1.546902e+05 2.538807e+04 1.373339e+04 1.390727e+05 2.160459e+05 4.751321e+04 1.085117e+05 1.518028e+05 2.422676e+05 1.209206e+05 1.647460e+05 2.602542e+05 3.367798e+05 2.104629e+05 2.149861e+05 1.745775e+05 2.652164e+05 1.622081e+05 1.775094e+05
<GCONST> 5.406209e+02
<MIXTURE> 8 1.430578e-01
<MEAN> 40
 2.256876e+03 3.723264e+03 -4.877227e+01 -1.332323e+01 1.040058e+03 3.140739e+03 -6.094868e+01 -9.651676e+01 5.649078e+02 2.912268e+03 -7.141084e+01 -1.232636e+02 -4.672795e+01 2.894343e+03 -9.259805e+01 -1.671329e+02 1.958908e+02 2.923242e+03 -7.705615e+01 -1.285540e+02 -2.786109e+03 2.687617e+03 4.161370e+01 -8.615008e+01 -1.423605e+03 1.544964e+03 9.891532e+01 -2.687068e+01 -1.045806e+03 1.117839e+03 1.499907e+02 6.230208e+00 -7.236423e+02 1.215906e+03 1.516675e+02 5.176009e+00 -8.790665e+02 1.369889e+03 1.226457e+02 8.845933e+00
<VARIANCE> 40
 1.141331e+05 5.408162e+04 3.112141e+03 1.447648e+03 1.208847e+05 6.281749e+04 5.946118e+03 6.263521e+03 5.310189e+04 6.439891e+04 9.066948e+03 8.510703e+03 1.618891e+05 1.418497e+05 2.137444e+04 2.486976e+04 7.016995e+04 8.408458e+04 1.763295e+04 1.939343e+04 1.646028e+05 1.586871e+05 6.869397e+03 8.185783e+03 1.005444e+05 9.417880e+04 1.053458e+04 1.969602e+04 1.346650e+05 1.078007e+05 3.304171e+04 5.238097e+04 2.640864e+05 2.358621e+05 8.208279e+04 9.410993e+04 1.397709e+05 1.375451e+05 6.418976e+04 7.445568e+04
<GCONST> 4.999871e+02
<MIXTURE> 9 9.821307e-02
<MEAN> 40
 2.221743e+03 3.474703e+03 -5.587123e+00 -6.740881e+00 1.142315e+03 2.937794e+03 -1.035099e+01 -3.081883e+01 5.752071e+02 2.736037e+03 -1.676814e+01 -4.597947e+01 1.119068e+00 2.646108e+03 -3.234951e+01 -6.058731e+01 2.154049e+02 2.727086e+03 -1.878978e+01 -3.858755e+01 -2.602294e+03 2.327811e+03 -7.259299e-01 -2.608949e+01 -1.395973e+03 1.180913e+03 1.874471e+01 -1.017378e+01 -9.208384e+02 6.985006e+02 3.412944e+01 -7.270774e+00 -3.435291e+02 7.495911e+02 3.761573e+01 -2.651005e+00 -6.295392e+02 9.627212e+02 2.993020e+01 3.254570e+00
<VARIANCE> 40
 1.478033e+05 1.552798e+05 4.901112e+02 4.276617e+02 1.541702e+05 9.506322e+04 4.941817e+02 9.561714e+02 7.212043e+04 1.001916e+05 9.947930e+02 2.447584e+03 2.352015e+05 1.998237e+05 4.184162e+03 7.144903e+03 7.867259e+04 1.195971e+05 2.280634e+03 8.202409e+03 1.984914e+05 2.209182e+05 1.112374e+03 1.354299e+03 1.174152e+05 1.513921e+05 1.252277e+03 2.021520e+03 7.885209e+04 1.965149e+05 2.114855e+03 3.099288e+03 1.162709e+05 2.989501e+05 4.839735e+03 6.453904e+03 8.011487e+04 2.141063e+05 3.091939e+03 6.762974e+03
<GCONST> 4.631851e+02
<MIXTURE> 10 1.076215e-01
<MEAN> 40
 2.208626e+03 3.338539e+03 -2.499701e+01 -4.628761e+01 1.053948e+03 2.811472e+03 -2.435144e+01 -9.199312e+01 5.210559e+02 2.669576e+03 -4.960977e+01 -1.269238e+02 -1.560697e+02 2.646096e+03 -6.964252e+01 -1.334652e+02 1.152544e+02 2.702424e+03 -3.855788e+01 -1.185181e+02 -2.678992e+03 2.047782e+03 2.289687e+01 -7.581858e+01 -1.456265e+03 8.805573e+02 5.612231e+01 -2.782569e+01 -9.181670e+02 3.822126e+02 8.844031e+01 -1.028647e+01 -3.270289e+02 4.676784e+02 8.311397e+01 -7.351565e+00 -6.669998e+02 6.559271e+02 5.328242e+01 -3.249407e+01
<VARIANCE> 40
 1.107258e+05 1.534386e+05 5.174767e+03 3.355157e+03 9.159755e+04 8.707644e+04 4.844521e+03 5.765055e+03 4.834479e+04 8.392340e+04 8.244377e+03 1.298546e+04 8.355678e+04 1.495848e+05 2.472624e+04 3.365241e+04 4.970650e+04 8.779154e+04 1.118147e+04 2.235928e+04 2.365393e+05 1.344582e+05 7.131903e+03 1.441876e+04 1.185066e+05 1.060390e+05 8.766353e+03 2.920147e+04 8.160640e+04 1.225997e+05 2.078286e+04 5.058053e+04 8.425941e+04 2.598939e+05 4.561750e+04 8.907608e+04 8.837196e+04 1.567045e+05 2.908553e+04 6.216218e+04
<GCONST> 4.992682e+02
<STATE> 5
<NUMMIXES> 10
<MIXTURE> 1 5.937129e-02
<MEAN> 40
 2.265743e+03 4.051267e+03 -6.295552e+01 -2.660553e+00 1.207275e+03 4.511905e+03 -1.302748e+02 -1.462894e+02 9.590439e+02 4.312501e+03 -1.623572e+02 -1.451536e+02 5.364322e+02 4.484920e+03 -2.576454e+02 -2.026059e+02 4.638148e+02 4.264376e+03 -1.134136e+02 -1.483194e+02 -2.327813e+03 3.558898e+03 6.671594e+01 -6.401858e+00 -1.627304e+03 3.275704e+03 2.089106e+02 4.168254e+01 -1.553720e+03 2.743279e+03 2.629373e+02 7.184731e+01 -1.339134e+03 2.461363e+03 2.772542e+02 1.028863e+02 -1.265782e+03 2.767189e+03 2.590625e+02 7.854505e+01
<VARIANCE> 40
 2.117013e+05 1.742346e+05 1.141391e+04 4.871684e+03 4.463712e+05 6.564983e+05 3.882964e+04 3.811465e+04 3.987789e+05 7.781326e+05 7.169296e+04 6.235935e+04 6.677950e+05 1.203773e+06 9.784459e+04 1.218639e+05 3.526606e+05 7.640074e+05 8.930778e+04 6.775607e+04 3.522513e+05 3.161122e+05 4.238655e+04 3.445427e+04 7.240021e+05 6.832494e+05 1.842846e+05 4.880747e+05 5.172213e+05 7.500620e+05 3.120557e+05 4.787478e+05 5.159274e+05 1.015654e+06 4.024856e+05 4.061395e+05 4.064070e+05 6.807899e+05 2.916258e+05 4.621412e+05
<GCONST> 5.672172e+02
<MIXTURE> 2 8.358386e-02
<MEAN> 40
 2.155858e+03 4.061843e+03 -5.316005e+01 -6.249888e+00 6.379986e+02 3.824503e+03 -4.553053e+01 -1.189272e+02 3.497227e+02 3.596580e+03 -6.831120e+01 -1.501888e+02 -2.437644e+02 3.658807e+03 -1.121731e+02 -1.590292e+02 -7.181148e+01 3.516931e+03 -3.733012e+01 -1.721909e+02 -2.609525e+03 3.413920e+03 2.554785e+01 -2.637746e+01 -1.121217e+03 2.548615e+03 1.116645e+02 1.162650e+02 -1.018661e+03 2.133418e+03 1.161749e+02 1.727412e+02 -7.737484e+02 2.130926e+03 8.529527e+01 1.704042e+02 -7.940378e+02 2.274963e+03 1.235898e+02 1.388464e+02
<VARIANCE> 40
 5.493157e+04 6.588782e+04 4.556379e+03 1.241476e+03 1.101229e+05 9.924672e+04 8.303839e+03 1.470590e+04 4.760026e+04 1.070962e+05 2.391352e+04 2.975386e+04 1.099659e+05 1.550300e+05 7.085445e+04 7.301470e+04 7.184758e+04 1.313196e+05 2.845574e+04 3.658328e+04 9.895153e+04 1.151483e+05 7.068160e+03 3.835314e+03 9.797326e+04 1.290795e+05 1.457693e+04 2.841174e+04 1.182643e+05 1.611843e+05 5.471772e+04 6.400154e+04 1.637487e+05 1.714502e+05 6.932464e+04 7.310717e+04 1.170843e+05 1.312047e+05 7.014168e+04 5.794013e+04
<GCONST> 5.062070e+02
<MIXTURE> 3 9.175402e-02
<MEAN> 40
 2.141504e+03 3.539448e+03 -1.739124e+00 -8.835338e-01 9.444197e+02 3.004159e+03 -2.732941e+00 -3.925795e+00 4.610493e+02 2.777910e+03 -3.952375e+00 -6.888185e+00 -8.278021e+01 2.682319e+03 -1.062611e+01 -1.036922e+01 1.099395e+02 2.784407e+03 -5.824376e+00 -1.016662e+01 -2.527796e+03 2.579863e+03 -1.632658e-01 -1.788460e+00 -1.315609e+03 1.591291e+03 1.708564e+00 -2.473512e+00 -9.048340e+02 1.217270e+03 3.768739e+00 -2.506653e+00 -5.134939e+02 1.275255e+03 5.763227e+00 -2.834067e+00 -7.579625e+02 1.455582e+03 8.255540e+00 -2.261869e+00
<VARIANCE> 40
 1.271246e+05 1.644116e+05 1.050027e+01 9.061995e+00 1.493177e+05 2.196130e+05 1.469833e+01 2.645176e+01 7.205747e+04 2.130935e+05 3.924717e+01 7.661452e+01 1.696100e+05 3.521907e+05 2.053780e+02 2.009664e+02 9.187383e+04 2.454928e+05 9.763649e+01 2.780135e+02 2.722774e+05 3.579777e+05 3.247821e+01 4.459221e+01 1.391582e+05 3.841705e+05 3.409044e+01 1.061235e+02 1.582316e+05 4.517563e+05 9.277527e+01 2.668395e+02 2.823688e+05 4.720657e+05 3.130607e+02 4.534065e+02 1.797905e+05 3.894199e+05 4.225226e+02 5.863110e+02
<GCONST> 4.084202e+02
<MIXTURE> 4 8.735875e-02
<MEAN> 40
 2.281398e+03 2.874973e+03 -1.074870e+01 -2.008899e+01 9.709391e+02 2.682221e+03 -1.135128e+00 -2.298173e+01 3.527207e+02 2.489908e+03 -1.365895e+01 -2.962268e+01 -1.320354e+02 2.487783e+03 -1.432465e+01 -3.133141e+01 5.472227e+01 2.586511e+03 -1.166602e+01 -2.229385e+01 -2.385042e+03 1.919340e+03 1.361623e+01 1.291730e+01 -1.074023e+03 1.213574e+03 1.924118e+01 1.064514e+02 -5.412039e+02 7.678902e+02 5.327233e+01 1.208302e+02 -6.932709e+01 9.106068e+02 3.925414e+01 7.800022e+01 -4.371016e+02 9.948420e+02 2.143345e+01 7.694238e+01
<VARIANCE> 40
 1.511930e+04 1.866783e+04 1.405352e+03 1.565533e+03 2.257758e+04 3.000064e+04 1.358758e+03 1.847256e+03 2.423868e+04 5.288158e+04 1.703612e+03 2.189280e+03 1.311253e+05 1.077829e+05 1.165566e+04 6.346735e+03 2.499161e+04 4.714300e+04 1.846473e+03 2.130045e+03 2.370126e+04 5.919162e+04 4.288855e+03 9.072424e+03 2.034207e+04 1.425010e+05 8.374170e+03 3.727451e+04 4.792198e+04 1.757367e+05 2.989129e+04 6.418844e+04 7.906267e+04 1.999890e+05 3.089908e+04 6.772677e+04 6.564574e+04 9.311287e+04 3.998009e+04 4.390282e+04
<GCONST> 4.691926e+02
<MIXTURE> 5 1.012616e-01
<MEAN> 40
 2.462370e+03 4.249860e+03 -4.290102e+01 -4.017382e+01 8.951808e+02 3.550017e+03 -6.658601e+01 -1.224578e+02 5.578033e+02 3.018042e+03 -4.979763e+01 -1.519674e+02 -2.214761e+02 2.990010e+03 -9.822526e+01 -1.912352e+02 1.054278e+02 3.222754e+03 -6.673629e+01 -1.311558e+02 -3.453832e+03 2.189903e+03 6.935860e+01 9.598535e+00 -1.510403e+03 1.456440e+03 1.359321e+02 9.904293e+01 -6.777846e+02 1.087717e+03 1.489883e+02 1.216625e+02 -1.305116e+02 1.565003e+03 4.093191e+01 1.802122e+02 -5.614846e+02 1.474062e+03 1.083974e+02 8.474133e+01
<VARIANCE> 40
 4.113279e+04 6.259679e+04 3.621046e+03 2.410344e+03 3.998296e+04 7.589295e+04 4.655960e+03 6.383896e+03 4.879752e+04 7.032917e+04 8.215137e+03 8.981434e+03 1.082850e+05 1.500519e+05 4.640054e+04 3.270056e+04 5.584493e+04 7.311389e+04 1.385254e+04 1.237377e+04 3.683359e+04 8.835733e+04 2.431849e+03 3.947392e+03 3.207866e+04 6.999173e+04 4.201373e+03 6.518260e+03 3.346982e+04 7.290541e+04 1.699677e+04 2.734361e+04 4.384250e+04 1.627890e+05 2.046931e+04 3.888884e+04 3.533933e+04 5.735385e+04 1.395040e+04 1.656327e+04
<GCONST> 4.781032e+02
<MIXTURE> 6 9.326500e-02
<MEAN> 40
 2.139796e+03 3.712797e+03 -3.185618e+01 -1.451722e+01 1.196755e+03 2.922026e+03 -4.311539e+01 -5.686909e+01 6.002960e+02 2.724424e+03 -4.499754e+01 -7.469415e+01 8.819334e+01 2.608282e+03 -8.649553e+01 -8.703085e+01 3.240824e+02 2.674580e+03 -4.663733e+01 -7.124837e+01 -2.493643e+03 2.643133e+03 -2.604437e-01 -4.190716e+01 -1.157505e+03 1.614271e+03 4.949279e+01 3.481248e+01 -6.097503e+02 1.396905e+03 6.116569e+01 1.190667e+02 -2.265549e+02 1.577945e+03 1.575224e+01 1.292371e+02 -5.354692e+02 1.596553e+03 3.992588e+01 7.677096e+01
<VARIANCE> 40
 1.012486e+05 4.856065e+04 2.400005e+03 1.319890e+03 9.820923e+04 5.315121e+04 4.143620e+03 6.387629e+03 4.228165e+04 5.898287e+04 5.732299e+03 9.828456e+03 2.134708e+05 1.618131e+05 4.560899e+04 2.220895e+04 5.577329e+04 8.215600e+04 1.091782e+04 1.550522e+04 7.274061e+04 6.624779e+04 3.444897e+03 3.568008e+03 5.095659e+04 7.577155e+04 8.152583e+03 1.067733e+04 8.326662e+04 1.260987e+05 2.484028e+04 3.053630e+04 1.717912e+05 2.750413e+05 4.670324e+04 4.920413e+04 9.535805e+04 1.152227e+05 4.142562e+04 2.738796e+04
<GCONST> 4.885463e+02
<MIXTURE> 7 1.052096e-01
<MEAN> 40
 2.125341e+03 3.507280e+03 -7.508868e+01 -4.103194e+01 1.148037e+03 2.451540e+03 -1.182675e+02 -1.172012e+02 6.048925e+02 2.161362e+03 -1.128406e+02 -1.756305e+02 7.621735e+00 1.857079e+03 -8.528044e+01 -2.928608e+02 2.357716e+02 2.045511e+03 -6.170927e+01 -2.129153e+02 -2.677904e+03 2.235125e+03 3.583448e+01 2.394083e+01 -1.494067e+03 1.206883e+03 9.191463e+01 1.696333e+02 -8.926792e+02 8.141471e+02 7.289486e+01 2.111439e+02 -3.016359e+02 7.312091e+02 1.912333e+01 1.759855e+02 -6.716479e+02 1.020247e+03 4.448346e+01 1.719912e+02
<VARIANCE> 40
 1.993493e+05 1.483072e+05 2.456747e+04 1.009084e+04 1.977701e+05 1.056611e+05 3.730917e+04 3.160689e+04 1.083838e+05 1.258936e+05 3.551830e+04 4.820381e+04 1.948244e+05 3.178216e+05 7.742640e+04 1.700832e+05 1.173200e+05 2.065923e+05 7.061348e+04 1.225709e+05 2.265752e+05 1.377802e+05 1.701512e+04 1.827829e+04 1.407972e+05 1.156274e+05 3.403946e+04 4.557770e+04 9.915495e+04 1.652800e+05 4.825844e+04 6.997068e+04 1.156830e+05 2.964978e+05 7.833226e+04 8.655098e+04 1.170010e+05 1.801458e+05 9.904995e+04 9.354612e+04
<GCONST> 5.286168e+02
<MIXTURE> 8 8.647244e-02
<MEAN> 40
 1.636468e+03 3.515693e+03 -3.253947e+01 -2.751164e+01 8.424603e+02 2.841895e+03 -3.953333e+01 -8.904147e+01 3.696926e+02 2.596199e+03 -6.460149e+01 -9.427372e+01 -3.546295e+01 2.455506e+03 -8.308732e+01 -1.411206e+02 5.026160e+01 2.605197e+03 -3.666966e+01 -1.037095e+02 -2.020283e+03 3.110412e+03 -9.252852e+01 -1.714319e+02 -1.447185e+03 1.868567e+03 6.692320e+01 -2.683402e+02 -1.026392e+03 1.615043e+03 1.838645e+02 -2.325117e+02 -9.161816e+02 1.675744e+03 2.016630e+02 -1.932282e+02 -1.042360e+03 1.840996e+03 7.603239e+01 -1.811368e+02
<VARIANCE> 40
 3.384361e+04 2.014226e+04 2.249342e+03 1.744302e+03 9.152821e+04 3.680263e+04 4.112472e+03 5.248204e+03 3.988188e+04 4.768933e+04 7.787777e+03 1.026583e+04 1.664617e+05 1.002403e+05 5.258155e+04 2.881595e+04 4.681138e+04 4.584636e+04 1.419715e+04 1.727166e+04 6.563712e+04 4.114345e+04 8.978282e+03 1.047002e+04 6.719209e+04 8.058678e+04 1.875148e+04 4.048042e+04 7.588374e+04 8.847992e+04 5.742809e+04 7.309405e+04 2.051589e+05 1.999806e+05 1.263009e+05 1.224146e+05 1.046835e+05 1.235466e+05 1.133540e+05 9.394977e+04
<GCONST> 4.948988e+02
<MIXTURE> 9 1.581308e-01
<MEAN> 40
 2.180961e+03 3.665188e+03 -6.479452e+01 -1.721447e+01 7.370143e+02 3.088021e+03 -7.509055e+01 -8.400531e+01 2.954850e+02 2.732882e+03 -9.767381e+01 -1.393164e+02 -2.783187e+02 2.651462e+03 -1.275992e+02 -2.383810e+02 -4.689342e+01 2.779309e+03 -7.689687e+01 -1.492148e+02 -2.871221e+03 2.579335e+03 5.018602e+01 -2.097802e+01 -1.232288e+03 1.787127e+03 1.274460e+02 1.434960e+02 -9.751044e+02 1.483002e+03 9.433134e+01 2.411601e+02 -7.870510e+02 1.523897e+03 8.553049e+00 2.274888e+02 -9.192656e+02 1.664777e+03 -1.920317e-02 2.117178e+02
<VARIANCE> 40
 8.835895e+04 6.624019e+04 4.887387e+03 2.089736e+03 9.322479e+04 5.979739e+04 9.117762e+03 1.334523e+04 3.993472e+04 7.376452e+04 1.498279e+04 2.044975e+04 1.604272e+05 1.675533e+05 4.635678e+04 5.748376e+04 5.625804e+04 9.199035e+04 2.154565e+04 4.088721e+04 1.758166e+05 1.874427e+05 9.763841e+03 1.055983e+04 1.308291e+05 1.233686e+05 2.316073e+04 4.588255e+04 1.377156e+05 1.743454e+05 1.127209e+05 1.222782e+05 2.145950e+05 2.677089e+05 2.055769e+05 1.888496e+05 2.145477e+05 1.864167e+05 2.360180e+05 1.668297e+05
<GCONST> 5.154001e+02
<MIXTURE> 10 1.335953e-01
<MEAN> 40
 2.244793e+03 3.739223e+03 -3.716094e+01 -1.568338e+01 6.872331e+02 3.458277e+03 -4.274753e+01 -9.412067e+01 3.334469e+02 3.229830e+03 -4.479892e+01 -1.226724e+02 -1.816971e+02 3.304273e+03 -4.811192e+01 -1.607368e+02 -5.724623e+01 3.260207e+03 -1.421130e+01 -1.390374e+02 -2.851049e+03 2.906874e+03 3.048058e+01 -2.091413e+01 -1.202245e+03 2.097024e+03 7.126096e+01 7.093407e+01 -9.428755e+02 1.600167e+03 6.644702e+01 7.852425e+01 -6.305649e+02 1.813952e+03 1.685227e+01 4.640847e+01 -7.827148e+02 1.841835e+03 2.634376e+01 4.389349e+01
<VARIANCE> 40
 3.943264e+04 7.174185e+04 3.026902e+03 1.244841e+03 5.535933e+04 4.434793e+04 5.380950e+03 5.100232e+03 3.736121e+04 5.033631e+04 1.023536e+04 7.260033e+03 2.074973e+05 1.106578e+05 1.003707e+05 2.536792e+04 4.044575e+04 5.617145e+04 1.110739e+04 1.369892e+04 1.570938e+05 9.695874e+04 3.800226e+03 3.375023e+03 8.208383e+04 6.977727e+04 7.202498e+03 1.411849e+04 1.039732e+05 7.503133e+04 2.442778e+04 2.698744e+04 1.890717e+05 1.585959e+05 2.330612e+04 2.405597e+04 9.921935e+04 8.112066e+04 1.539821e+04 1.455477e+04
<GCONST> 4.846560e+02
<STATE> 6
<NUMMIXES> 10
<MIXTURE> 1 5.951800e-02
<MEAN> 40
 2.180372e+03 4.172493e+03 -5.366713e+01 8.770802e+00 1.097237e+03 4.725971e+03 -1.092697e+02 -8.683488e+01 8.831188e+02 4.512633e+03 -1.479233e+02 -1.213861e+02 4.828312e+02 4.683476e+03 -1.613183e+02 -1.116653e+02 3.388859e+02 4.406389e+03 -1.310226e+02 -1.211704e+02 -2.285976e+03 3.731448e+03 5.629239e+00 2.456092e+00 -1.597781e+03 3.312337e+03 1.012571e+02 5.397386e+00 -1.403255e+03 2.790179e+03 1.992710e+02 3.964907e+01 -1.046823e+03 2.527205e+03 2.520852e+02 1.106250e+02 -1.019735e+03 2.827036e+03 2.090311e+02 5.912091e+01
<VARIANCE> 40
 2.175619e+05 1.134301e+05 5.804405e+03 3.118175e+03 4.695390e+05 2.994365e+05 1.528203e+04 2.477792e+04 3.343285e+05 3.080724e+05 3.496972e+04 2.765067e+04 5.218704e+05 6.295140e+05 4.807955e+04 4.641231e+04 3.709350e+05 3.324461e+05 4.400054e+04 5.315586e+04 3.748787e+05 1.905223e+05 7.017960e+03 6.261008e+03 4.661221e+05 4.410336e+05 1.244936e+04 5.993565e+04 2.737444e+05 5.191142e+05 3.617423e+04 8.266788e+04 3.633983e+05 7.963791e+05 7.319663e+04 1.659812e+05 2.861828e+05 5.154483e+05 6.911048e+04 1.174993e+05
<GCONST> 5.354940e+02
<MIXTURE> 2 1.356940e-01
<MEAN> 40
 2.175428e+03 3.866603e+03 -4.994255e+01 -1.064168e+01 6.244570e+02 3.510261e+03 -4.354805e+01 -7.242323e+01 2.898539e+02 3.172574e+03 -7.030995e+01 -1.433288e+02 -3.596325e+02 3.186993e+03 -9.491180e+01 -1.894875e+02 -7.089050e+01 3.133667e+03 -2.062113e+01 -1.540627e+02 -2.630339e+03 3.112302e+03 5.360029e+01 -3.744392e+00 -9.856002e+02 2.595781e+03 8.806731e+01 1.904623e+02 -8.854510e+02 2.215153e+03 7.609213e+01 2.880625e+02 -6.753807e+02 2.247456e+03 2.335545e+01 2.650336e+02 -7.261693e+02 2.333558e+03 6.508826e+01 2.328562e+02
<VARIANCE> 40
 4.674184e+04 8.332784e+04 3.414308e+03 9.323182e+02 7.564534e+04 4.820939e+04 7.259924e+03 9.771801e+03 4.332371e+04 7.104136e+04 1.719677e+04 1.910849e+04 1.298100e+05 1.163061e+05 2.912372e+04 4.600165e+04 4.614730e+04 6.431521e+04 1.465954e+04 2.137938e+04 1.078396e+05 1.300668e+05 8.453975e+03 5.061051e+03 9.707477e+04 1.735311e+05 1.996104e+04 6.903580e+04 1.485588e+05 1.604928e+05 9.291720e+04 1.081112e+05 1.439653e+05 2.340680e+05 1.353098e+05 1.257783e+05 1.375457e+05 1.432821e+05 1.370222e+05 7.799656e+04
<GCONST> 5.049987e+02
<MIXTURE> 3 9.421881e-02
<MEAN> 40
 2.432417e+03 4.190444e+03 -1.382899e+01 -3.307186e+01 7.917603e+02 3.369310e+03 -3.892170e+01 -7.028503e+01 5.290709e+02 2.747809e+03 -3.620300e+00 -9.447095e+01 -2.582760e+02 2.523903e+03 -1.812300e+01 -1.679402e+02 1.769213e+01 2.931606e+03 -1.811708e+01 -1.074600e+02 -3.367232e+03 2.309662e+03 2.526847e+01 7.683818e+01 -1.335041e+03 1.709398e+03 4.477026e+01 1.303517e+02 -4.689540e+02 1.367696e+03 4.054461e+01 1.550822e+02 -1.784769e+02 1.995332e+03 -4.318017e+01 1.738387e+02 -4.046208e+02 1.691583e+03 4.089109e+01 1.028061e+02
<VARIANCE> 40
 3.295270e+04 5.379468e+04 2.805736e+03 1.634388e+03 2.468305e+04 5.098490e+04 4.089046e+03 5.037899e+03 3.089800e+04 7.976469e+04 7.099029e+03 6.461751e+03 7.525509e+04 1.820138e+05 2.639610e+04 4.057366e+04 3.653504e+04 7.715459e+04 1.510063e+04 1.531739e+04 1.931293e+04 9.057133e+04 1.632523e+03 2.598582e+03 2.012490e+04 5.547557e+04 2.234785e+03 4.035718e+03 2.669281e+04 6.648897e+04 1.057647e+04 2.260405e+04 3.567045e+04 1.620718e+05 1.586207e+04 3.163292e+04 3.524425e+04 5.597079e+04 2.245951e+04 2.543020e+04
<GCONST> 4.704189e+02
<MIXTURE> 4 7.347957e-02
<MEAN> 40
 1.982670e+03 3.336221e+03 -1.200424e+01 1.174441e+01 1.163679e+03 2.218338e+03 -1.301711e+01 1.969110e+01 5.413604e+02 1.887920e+03 -1.566466e+01 2.102157e+01 -7.607302e+01 1.494664e+03 -3.342117e+01 1.783530e+01 1.856238e+02 1.724018e+03 -1.422625e+01 -2.650243e+00 -2.620197e+03 2.022213e+03 -1.002705e+00 2.594966e+01 -1.482337e+03 9.923953e+02 3.087913e+00 3.481141e+01 -8.240908e+02 5.757061e+02 1.368314e+00 3.681755e+01 -2.059308e+02 4.150750e+02 -6.305154e+00 3.456763e+01 -5.656854e+02 7.921120e+02 2.020622e+00 4.119394e+01
<VARIANCE> 40
 1.454607e+05 1.476904e+05 1.496280e+03 8.968901e+02 1.760825e+05 6.293956e+04 1.320177e+03 4.541313e+03 1.066314e+05 7.131231e+04 2.513879e+03 8.031090e+03 1.540601e+05 1.272383e+05 1.057096e+04 2.067031e+04 9.502095e+04 9.643449e+04 8.085881e+03 2.154401e+04 3.250589e+05 2.890608e+05 1.744641e+03 3.551274e+03 1.034406e+05 2.461709e+05 2.730168e+03 5.423492e+03 7.499498e+04 2.353129e+05 4.091121e+03 1.216181e+04 9.794062e+04 2.966536e+05 1.190045e+04 2.555979e+04 5.763823e+04 2.147492e+05 1.112359e+04 2.438570e+04
<GCONST> 4.835149e+02
<MIXTURE> 5 6.877702e-02
<MEAN> 40
 2.179457e+03 3.375557e+03 -3.357677e+01 -5.087656e+00 1.027149e+03 2.667304e+03 -3.285902e+01 -1.152932e+01 4.711970e+02 2.357296e+03 -2.623777e+01 -3.193982e+01 -1.403316e+02 2.131450e+03 -4.828533e+01 -5.600846e+01 1.708205e+02 2.345308e+03 -3.375757e+01 -3.507022e+00 -2.601839e+03 2.412115e+03 -5.029878e+01 6.403599e+01 -1.477830e+03 1.952139e+03 -6.983138e+01 2.474800e+02 -1.143861e+03 1.675803e+03 -2.041951e+02 3.101371e+02 -8.595452e+02 1.521736e+03 -2.613942e+02 2.341006e+02 -1.062835e+03 1.691195e+03 -1.937520e+02 2.268682e+02
<VARIANCE> 40
 1.533118e+05 2.074780e+05 1.121179e+04 4.654000e+03 2.361984e+05 1.728801e+05 1.090404e+04 1.660541e+04 1.266878e+05 1.756414e+05 7.341424e+03 2.392875e+04 2.214836e+05 3.632905e+05 2.744981e+04 7.800420e+04 1.110424e+05 2.324701e+05 3.880412e+04 7.624756e+04 1.688181e+05 1.883543e+05 6.365676e+04 4.421010e+04 3.855238e+05 4.577572e+05 2.567826e+05 4.926309e+05 2.779193e+05 3.493684e+05 3.078998e+05 5.128773e+05 4.185725e+05 3.968250e+05 3.570052e+05 4.051799e+05 4.368410e+05 3.434173e+05 4.097565e+05 4.110486e+05
<GCONST> 5.457053e+02
<MIXTURE> 6 1.350669e-01
<MEAN> 40
 2.198135e+03 3.594331e+03 -7.358197e+00 3.673808e+00 8.261020e+02 3.054982e+03 -1.086218e+01 8.181738e+00 2.980708e+02 2.725760e+03 -1.620582e+01 -7.910947e+00 -2.158672e+02 2.595278e+03 -2.539086e+01 -1.715138e+01 2.401020e+01 2.738492e+03 -1.711425e+01 -1.707169e+01 -2.794678e+03 2.512092e+03 9.792976e+00 2.426420e+01 -1.239536e+03 1.935004e+03 1.949313e+01 6.248159e+01 -8.259615e+02 1.677557e+03 1.402041e+01 5.229700e+01 -6.093022e+02 1.692389e+03 1.552422e+01 3.253087e+01 -7.522240e+02 1.834394e+03 4.202597e+01 3.886115e+01
<VARIANCE> 40
 8.326591e+04 1.335351e+05 6.247836e+02 4.402000e+02 1.074082e+05 6.027688e+04 9.300012e+02 2.206669e+03 5.656402e+04 6.531230e+04 1.543557e+03 3.060415e+03 2.488787e+05 1.415699e+05 3.760663e+03 3.768437e+03 8.520330e+04 7.779866e+04 1.968664e+03 4.092749e+03 2.520465e+05 1.986103e+05 1.547015e+03 2.217628e+03 1.337141e+05 1.199036e+05 2.704711e+03 7.748344e+03 1.483072e+05 1.350697e+05 1.098486e+04 1.251021e+04 2.670402e+05 2.518407e+05 8.219267e+03 1.098346e+04 1.918032e+05 1.361490e+05 2.468134e+04 1.538232e+04
<GCONST> 4.724545e+02
<MIXTURE> 7 1.213134e-01
<MEAN> 40
 2.099423e+03 3.792722e+03 -6.102617e+01 -1.760396e+01 7.796374e+02 3.140411e+03 -5.328940e+01 -5.378201e+01 3.464157e+02 2.831725e+03 -9.226110e+01 -8.575571e+01 -5.317147e+01 2.723543e+03 -5.062822e+01 -1.707593e+02 1.178382e+02 2.800847e+03 -3.017811e+00 -1.357238e+02 -2.663298e+03 2.821355e+03 1.877407e+01 -1.376663e+01 -1.122602e+03 2.029874e+03 5.275648e+01 8.624219e+01 -7.228687e+02 1.856931e+03 6.857269e+01 1.346022e+02 -5.158451e+02 1.930927e+03 4.059163e+01 1.207433e+02 -6.182743e+02 1.963838e+03 7.754372e+01 1.186654e+02
<VARIANCE> 40
 9.400148e+04 6.833729e+04 8.700026e+03 3.391704e+03 1.633710e+05 8.910283e+04 2.166281e+04 2.923934e+04 9.206683e+04 8.896788e+04 4.918789e+04 6.446434e+04 2.546854e+05 2.115387e+05 2.459731e+05 2.015348e+05 1.508916e+05 1.417748e+05 1.522319e+05 1.439343e+05 1.459175e+05 1.260671e+05 7.613794e+03 6.180363e+03 1.050088e+05 1.249565e+05 1.321852e+04 2.399299e+04 1.055426e+05 1.233844e+05 4.185923e+04 7.389377e+04 2.005685e+05 2.293557e+05 6.834656e+04 8.176619e+04 1.217199e+05 1.109101e+05 6.604027e+04 7.512350e+04
<GCONST> 5.205670e+02
<MIXTURE> 8 1.282445e-01
<MEAN> 40
 2.163266e+03 3.562549e+03 -3.317898e+01 -1.297288e+01 8.138379e+02 2.959211e+03 -4.660432e+01 -4.501161e+01 3.350932e+02 2.605528e+03 -4.790477e+01 -8.236246e+01 -3.913226e+02 2.436364e+03 -6.655538e+01 -1.325353e+02 1.541179e+01 2.621866e+03 -3.627032e+01 -9.440763e+01 -2.664117e+03 2.525424e+03 3.831042e+01 -1.791953e+00 -1.072443e+03 1.771807e+03 9.970402e+01 1.348091e+02 -8.219731e+02 1.502004e+03 4.041805e+01 2.159966e+02 -6.203733e+02 1.542838e+03 -2.094691e+01 1.639171e+02 -6.658887e+02 1.641856e+03 5.755992e+01 1.619730e+02
<VARIANCE> 40
 7.334719e+04 8.258545e+04 1.648633e+03 1.224889e+03 8.285191e+04 5.023549e+04 2.546585e+03 5.075507e+03 2.674584e+04 4.241864e+04 4.153375e+03 7.569910e+03 4.817123e+04 8.674605e+04 1.817725e+04 2.509957e+04 3.429038e+04 4.793376e+04 5.740440e+03 8.554778e+03 1.169720e+05 1.357363e+05 8.915798e+03 8.129600e+03 6.629405e+04 9.182563e+04 1.763654e+04 2.501681e+04 1.171873e+05 1.177132e+05 9.387453e+04 8.397313e+04 1.921509e+05 1.819222e+05 1.328388e+05 1.055660e+05 1.189825e+05 1.187278e+05 1.148706e+05 6.631620e+04
<GCONST> 4.921400e+02
<MIXTURE> 9 8.561926e-02
<MEAN> 40
 1.633693e+03 3.485794e+03 -1.222410e+01 -7.531577e+00 8.200903e+02 2.757333e+03 -1.501045e+01 -3.702310e+01 3.586971e+02 2.491787e+03 -1.977701e+01 -4.575174e+01 -1.314947e+02 2.333366e+03 -4.736739e+01 -6.556273e+01 2.729446e+01 2.497967e+03 -8.243796e+00 -6.083820e+01 -2.100215e+03 2.942735e+03 -5.289095e+01 -7.666353e+01 -1.339669e+03 1.737546e+03 1.793614e+01 -4.635888e+01 -8.903482e+02 1.516613e+03 4.075510e+01 -2.417276e+01 -7.328480e+02 1.632408e+03 4.419056e+01 -1.584845e+01 -8.918466e+02 1.721356e+03 4.827750e+01 -2.899356e+01
<VARIANCE> 40
 3.243645e+04 1.949611e+04 6.127217e+02 3.506780e+02 1.092915e+05 3.606698e+04 5.515663e+02 1.039032e+03 3.554957e+04 4.814075e+04 1.273940e+03 1.771657e+03 1.191159e+05 1.057830e+05 8.149074e+03 6.796051e+03 4.824882e+04 4.446154e+04 1.620350e+03 2.569859e+03 6.618873e+04 7.242870e+04 3.602043e+03 3.601438e+03 6.798386e+04 7.272499e+04 3.992576e+03 4.621634e+03 9.059427e+04 1.180299e+05 5.246276e+03 5.126131e+03 2.497088e+05 1.721672e+05 8.276628e+03 7.107033e+03 9.612718e+04 1.030320e+05 8.010433e+03 7.844571e+03
<GCONST> 4.563849e+02
<MIXTURE> 10 9.806936e-02
<MEAN> 40
 1.766674e+03 3.455204e+03 -4.681221e+01 -3.542030e+01 7.118632e+02 2.609001e+03 -5.646370e+01 -5.887283e+01 2.511545e+02 2.273435e+03 -8.248395e+01 -1.088766e+02 -2.991502e+02 1.956842e+03 -1.559466e+02 -2.112297e+02 -3.796365e+01 2.187231e+03 -5.874334e+01 -1.462505e+02 -2.495659e+03 2.567050e+03 -2.762544e+01 -1.030226e+02 -1.273323e+03 1.516820e+03 9.277023e+01 -9.887288e+00 -8.860856e+02 1.251465e+03 8.676790e+01 3.489196e+01 -6.327290e+02 1.246973e+03 3.140510e+01 4.030482e+01 -8.013832e+02 1.476096e+03 6.395402e+01 8.760972e+00
<VARIANCE> 40
 1.017247e+05 3.269066e+04 4.020409e+03 2.714789e+03 1.535062e+05 3.899515e+04 6.203110e+03 1.941662e+04 5.040759e+04 5.302735e+04 3.025714e+04 3.250309e+04 1.143407e+05 1.387656e+05 8.848791e+04 1.004127e+05 6.603680e+04 7.791882e+04 3.751714e+04 7.968493e+04 1.703028e+05 1.281525e+05 1.373782e+04 2.262621e+04 7.208760e+04 9.295077e+04 2.024107e+04 4.103790e+04 6.518748e+04 1.270570e+05 4.870732e+04 6.469245e+04 1.579723e+05 2.730801e+05 8.306460e+04 9.392240e+04 1.236825e+05 1.659342e+05 9.262288e+04 8.665623e+04
<GCONST> 5.108016e+02
<STATE> 7
<NUMMIXES> 10
<MIXTURE> 1 4.071302e-02
<MEAN> 40
 2.098904e+03 4.178579e+03 -6.552284e+01 1.021434e+01 9.230092e+02 4.459123e+03 -1.166258e+02 -1.408854e+02 6.282332e+02 4.232593e+03 -1.796104e+02 -1.439774e+02 1.879343e+02 4.339574e+03 -2.189148e+02 -1.933674e+02 1.878565e+02 4.150333e+03 -1.075369e+02 -1.465684e+02 -2.320954e+03 3.702791e+03 -1.602391e+00 1.126608e+01 -1.417357e+03 3.342073e+03 1.455846e+02 7.634398e+01 -1.160578e+03 2.906794e+03 2.279079e+02 1.459798e+02 -8.065784e+02 2.734969e+03 2.358673e+02 2.151630e+02 -8.443124e+02 3.010701e+03 1.715801e+02 2.004327e+02
<VARIANCE> 40
 2.072343e+05 1.202653e+05 1.501534e+04 4.512332e+03 3.891118e+05 3.012268e+05 8.876627e+04 4.576850e+04 2.696643e+05 3.531628e+05 1.091657e+05 6.235558e+04 4.712725e+05 6.708628e+05 1.324266e+05 1.808680e+05 2.633378e+05 4.192198e+05 1.171663e+05 9.263866e+04 3.319176e+05 1.856686e+05 1.230622e+04 8.263894e+03 4.185322e+05 3.532178e+05 5.481261e+04 5.153599e+04 2.848947e+05 4.233631e+05 5.121843e+04 8.608902e+04 2.867464e+05 7.318939e+05 1.134369e+05 1.406608e+05 2.849743e+05 4.198558e+05 1.060917e+05 9.601842e+04
<GCONST> 5.465335e+02
<MIXTURE> 2 1.313573e-01
<MEAN> 40
 2.178543e+03 3.870724e+03 -9.190773e+00 -5.751256e-01 6.915364e+02 3.519757e+03 1.573954e-01 1.898073e+01 2.643457e+02 3.156303e+03 -1.319295e+01 7.347938e+00 -2.994324e+02 3.182837e+03 -3.607190e+01 -4.184735e+00 -5.043280e+01 3.122812e+03 -1.187797e+01 -4.677001e+00 -2.746243e+03 3.073534e+03 1.508274e+01 2.116918e+01 -1.061920e+03 2.637630e+03 6.375566e+00 7.819178e+01 -7.524304e+02 2.335938e+03 5.892411e+01 9.858086e+01 -5.831855e+02 2.368412e+03 2.802608e+01 9.537840e+01 -6.452310e+02 2.488067e+03 5.362642e+01 9.911046e+01
<VARIANCE> 40
 5.660755e+04 7.439641e+04 1.781433e+03 5.989155e+02 8.861234e+04 4.536884e+04 4.019365e+03 7.145263e+03 4.696629e+04 5.360920e+04 9.710772e+03 1.444817e+04 1.834217e+05 1.084539e+05 2.726292e+04 2.872170e+04 6.015981e+04 5.515650e+04 1.709505e+04 1.852150e+04 1.482271e+05 1.399044e+05 2.562505e+03 2.039676e+03 7.519706e+04 1.123095e+05 5.027386e+03 1.128078e+04 9.169671e+04 1.186994e+05 3.467997e+04 3.701404e+04 1.575413e+05 2.296506e+05 3.573157e+04 4.216573e+04 1.445538e+05 1.150692e+05 8.490873e+04 4.688098e+04
<GCONST> 4.900411e+02
<MIXTURE> 3 7.575563e-02
<MEAN> 40
 2.445167e+03 4.075099e+03 6.425216e+00 -8.593015e+00 7.573118e+02 3.319872e+03 4.104608e+00 2.654836e+01 5.477731e+02 2.635885e+03 5.803648e+00 1.598982e+01 -2.952357e+02 2.381387e+03 -1.131589e+01 2.215829e+01 4.416018e+01 2.777075e+03 1.150913e+01 3.366624e+00 -3.317142e+03 2.490506e+03 1.409991e+01 8.133421e+01 -1.282810e+03 1.975477e+03 3.545946e+00 8.812923e+01 -4.566605e+02 1.617641e+03 -8.403791e+00 8.447449e+01 -2.341587e+02 2.283914e+03 -3.866972e+00 6.172121e+01 -3.583355e+02 1.921102e+03 1.096778e+01 6.854314e+01
<VARIANCE> 40
 3.250245e+04 5.800418e+04 9.268772e+02 1.045808e+03 2.685338e+04 2.612601e+04 1.627712e+03 3.087134e+03 2.396684e+04 4.491743e+04 2.041962e+03 3.023679e+03 5.752418e+04 1.151594e+05 3.855996e+03 5.100276e+03 2.164280e+04 4.517226e+04 2.444850e+03 3.009570e+03 2.211222e+04 8.982004e+04 1.120847e+03 2.133196e+03 2.055615e+04 3.397687e+04 1.162870e+03 2.174625e+03 3.720354e+04 3.943391e+04 3.509426e+03 1.285540e+04 3.038731e+04 1.102054e+05 2.419797e+03 7.862864e+03 3.561014e+04 4.893903e+04 6.184497e+03 8.009387e+03
<GCONST> 4.444345e+02
<MIXTURE> 4 7.224416e-02
<MEAN> 40
 1.982891e+03 3.578720e+03 -1.713880e-01 5.667700e-03 8.978829e+02 2.882833e+03 -2.796839e-01 -1.497799e-01 3.729767e+02 2.586074e+03 -3.403578e-01 -1.871056e-01 -1.941408e+02 2.347641e+03 -9.983427e-01 -4.087555e-01 6.070222e+01 2.481827e+03 -8.768765e-01 -1.666650e-01 -2.534770e+03 2.579085e+03 -1.602664e-02 4.146174e-02 -1.256796e+03 1.734655e+03 4.839931e-02 -1.308077e-01 -7.777625e+02 1.480317e+03 1.157347e-01 -2.186659e-01 -4.694594e+02 1.480935e+03 3.802646e-01 -1.069752e-01 -6.545549e+02 1.645687e+03 6.901674e-01 -3.551196e-01
<VARIANCE> 40
 1.180967e+05 1.079697e+05 3.809415e-01 3.151366e-01 1.775462e+05 2.095179e+05 6.280162e-01 1.814963e+00 7.741684e+04 2.134971e+05 1.622087e+00 6.564296e+00 1.436502e+05 4.540424e+05 6.368523e+00 2.032760e+01 9.015244e+04 2.802424e+05 7.452429e+00 2.078153e+01 2.259972e+05 1.818887e+05 6.095461e-01 1.091470e+00 1.188382e+05 3.029602e+05 5.822185e-01 1.432908e+00 1.241138e+05 3.435095e+05 1.408955e+00 4.103106e+00 2.263254e+05 5.270842e+05 4.562360e+00 7.537695e+00 1.387315e+05 3.339764e+05 5.116728e+00 9.033296e+00
<GCONST> 3.356112e+02
<MIXTURE> 5 1.080975e-01
<MEAN> 40
 2.040626e+03 3.690313e+03 -2.024535e+00 7.802048e-01 7.174371e+02 3.166279e+03 -3.641589e+00 3.464762e+00 2.614257e+02 2.837710e+03 -8.550254e+00 -6.388778e-01 -1.423501e+02 2.716858e+03 -1.364162e+01 -9.945241e-01 -1.403582e+01 2.783701e+03 -1.339224e+01 -5.485058e+00 -2.614394e+03 2.786052e+03 2.105634e+00 6.332384e+00 -1.096531e+03 2.105126e+03 3.269888e+00 3.074782e+00 -7.447750e+02 1.870431e+03 4.819191e+00 -4.080495e+00 -5.919779e+02 1.925536e+03 8.241132e+00 -1.480371e+00 -7.089206e+02 2.049818e+03 1.509625e+01 2.075426e+00
<VARIANCE> 40
 9.518673e+04 5.312564e+04 2.042558e+02 1.187110e+02 1.696726e+05 7.496423e+04 3.055654e+02 7.919213e+02 7.496686e+04 7.171420e+04 7.194866e+02 1.723821e+03 2.699826e+05 2.037840e+05 2.157358e+03 2.280991e+03 1.034630e+05 1.007676e+05 1.727966e+03 3.026088e+03 1.388077e+05 1.115774e+05 3.572774e+02 4.438347e+02 1.145459e+05 1.450873e+05 4.571746e+02 1.002371e+03 1.389471e+05 1.117434e+05 1.276949e+03 1.832846e+03 2.306637e+05 2.213453e+05 1.172983e+03 1.923985e+03 1.737797e+05 1.121179e+05 1.864581e+03 1.900831e+03
<GCONST> 4.449288e+02
<MIXTURE> 6 1.333671e-01
<MEAN> 40
 2.122835e+03 3.718810e+03 -1.714100e+01 -7.912920e+00 6.247756e+02 3.156293e+03 -1.897160e+01 -2.365662e+00 2.643068e+02 2.743550e+03 -2.704278e+01 -3.189674e+01 -2.801467e+02 2.561983e+03 -5.366544e+01 -9.533727e+01 -4.295145e+01 2.705771e+03 -1.365555e+01 -6.258601e+01 -2.671516e+03 2.788617e+03 3.037531e+01 2.073813e+01 -9.680961e+02 2.170574e+03 5.477730e+01 7.458606e+01 -7.485671e+02 1.899550e+03 8.480772e+01 1.236421e+02 -6.383055e+02 1.937767e+03 1.974010e+01 1.356148e+02 -6.818220e+02 2.059824e+03 2.364447e+01 1.345251e+02
<VARIANCE> 40
 7.222976e+04 7.538891e+04 3.762668e+03 1.680513e+03 9.220207e+04 5.092058e+04 7.865349e+03 1.580087e+04 5.009316e+04 5.790959e+04 2.220621e+04 3.313058e+04 1.440763e+05 1.507364e+05 8.142993e+04 9.721490e+04 5.548116e+04 8.004823e+04 3.966065e+04 4.898225e+04 1.368545e+05 1.250682e+05 1.352654e+04 9.375319e+03 9.259892e+04 1.425403e+05 2.170909e+04 1.008832e+05 1.221209e+05 1.452738e+05 1.277911e+05 1.833743e+05 2.272187e+05 2.576557e+05 2.033028e+05 2.150043e+05 2.141579e+05 1.460649e+05 2.263751e+05 1.702756e+05
<GCONST> 5.172444e+02
<MIXTURE> 7 1.214235e-01
<MEAN> 40
 1.899453e+03 3.415038e+03 4.194272e+00 6.850389e+00 9.305951e+02 2.713953e+03 -1.800733e+01 1.625606e+01 3.282423e+02 2.468683e+03 -2.068745e+01 1.608330e+01 -3.616499e+02 2.179179e+03 -4.946766e+01 -1.561842e+01 7.120499e+01 2.385465e+03 -1.355226e+01 -1.229085e+01 -2.421199e+03 2.513187e+03 -1.485346e+01 4.707995e+00 -1.238797e+03 1.655066e+03 3.343431e+01 4.784637e+01 -7.613019e+02 1.586559e+03 5.860395e+01 1.122617e+02 -6.054534e+02 1.578739e+03 6.740245e+00 9.168434e+01 -7.647968e+02 1.701407e+03 1.234752e+01 9.507397e+01
<VARIANCE> 40
 1.175729e+05 9.265093e+04 2.459573e+03 1.518133e+03 6.417103e+04 3.254529e+04 3.161198e+03 5.739768e+03 2.299276e+04 3.485145e+04 3.716696e+03 5.778245e+03 4.093772e+04 7.892672e+04 1.845540e+04 1.133926e+04 2.663313e+04 4.628464e+04 3.946052e+03 6.899112e+03 9.160951e+04 9.791880e+04 1.102528e+04 1.505716e+04 6.957105e+04 1.095646e+05 2.910564e+04 4.634493e+04 9.615060e+04 8.272488e+04 5.724915e+04 5.522656e+04 2.167407e+05 1.709012e+05 1.092506e+05 8.737699e+04 1.582982e+05 8.711533e+04 1.246568e+05 7.622499e+04
<GCONST> 4.903542e+02
<MIXTURE> 8 1.142519e-01
<MEAN> 40
 1.895664e+03 3.437630e+03 -4.598935e+00 4.657964e+00 1.012758e+03 2.491574e+03 -9.378757e+00 2.515190e+01 4.693329e+02 2.191583e+03 -1.075322e+01 3.033175e+01 -8.509293e+01 1.844711e+03 -1.190355e+01 2.390586e+01 1.168972e+02 2.023206e+03 -4.779089e+00 1.870507e+01 -2.587420e+03 2.291010e+03 -7.770187e+00 2.003842e+01 -1.379022e+03 1.471894e+03 6.980668e+00 4.708380e+01 -8.217719e+02 1.166781e+03 1.669465e+01 5.600595e+01 -3.921585e+02 1.071989e+03 -4.879899e+00 4.959952e+01 -6.378844e+02 1.351804e+03 2.326427e+01 4.957031e+01
<VARIANCE> 40
 1.904006e+05 1.402016e+05 2.991831e+03 1.490237e+03 1.989224e+05 7.412417e+04 4.919935e+03 1.042407e+04 9.906584e+04 8.108137e+04 1.185512e+04 2.039087e+04 1.596389e+05 1.889264e+05 3.388869e+04 5.177840e+04 9.141388e+04 1.036438e+05 1.936815e+04 4.479986e+04 2.669813e+05 1.569484e+05 4.889676e+03 6.686245e+03 9.400574e+04 1.229783e+05 9.384378e+03 1.203790e+04 9.592736e+04 1.467187e+05 2.106485e+04 1.810826e+04 1.692919e+05 3.124629e+05 2.223657e+04 1.944323e+04 1.034461e+05 1.449791e+05 2.195318e+04 2.615940e+04
<GCONST> 4.998569e+02
<MIXTURE> 9 7.667204e-02
<MEAN> 40
 1.868540e+03 3.344346e+03 -3.096516e+00 3.463761e+00 1.047077e+03 2.535656e+03 -6.472870e+00 5.938043e+00 4.189789e+02 2.240873e+03 -7.905812e+00 1.037345e+01 -2.167279e+02 1.855502e+03 -1.653413e+01 1.371690e+01 8.834317e+01 2.072408e+03 -1.336254e+01 1.231690e+01 -2.437567e+03 2.375354e+03 -1.215623e+00 5.300327e+00 -1.402138e+03 1.482442e+03 -3.593565e-01 5.353014e+00 -8.403483e+02 1.139949e+03 3.310605e-01 4.624434e+00 -3.428716e+02 9.736295e+02 3.988300e+00 5.526344e+00 -6.580884e+02 1.293201e+03 5.097473e+00 1.051845e+01
<VARIANCE> 40
 1.530848e+05 1.164422e+05 1.518019e+02 1.100346e+02 1.432405e+05 8.236881e+04 2.197021e+02 5.764896e+02 6.434998e+04 8.253624e+04 5.743740e+02 1.589050e+03 1.284807e+05 2.033135e+05 2.206333e+03 4.647945e+03 7.085092e+04 1.299585e+05 2.422957e+03 6.912922e+03 1.776419e+05 1.410752e+05 1.277690e+02 4.731390e+02 6.828858e+04 1.065396e+05 9.501383e+01 2.603675e+02 8.126810e+04 1.584639e+05 2.166585e+02 2.785531e+02 1.433500e+05 3.250921e+05 3.754138e+02 5.444471e+02 1.124125e+05 1.590232e+05 5.768972e+02 1.266627e+03
<GCONST> 4.335726e+02
<MIXTURE> 10 1.261174e-01
<MEAN> 40
 1.974615e+03 3.691369e+03 -5.243582e+00 1.567431e+00 3.468778e+02 3.105814e+03 -1.948466e+00 2.818663e+01 7.649017e+01 2.676691e+03 -1.032211e+01 1.301102e+01 -2.963620e+02 2.496939e+03 -1.866767e+01 -1.376867e+01 -2.639203e+02 2.588815e+03 -8.803634e+00 1.575730e+00 -2.758527e+03 2.785392e+03 3.283181e-01 7.024284e+00 -9.557198e+02 2.144184e+03 1.079481e+01 3.980766e+01 -8.922021e+02 1.796694e+03 6.073591e+00 3.106882e+01 -7.724565e+02 1.700931e+03 4.491338e+00 1.888166e+01 -7.456733e+02 1.955459e+03 1.474456e+01 2.893780e+01
<VARIANCE> 40
 5.967788e+04 3.235490e+04 2.067994e+03 6.007130e+02 3.510688e+04 3.502570e+04 3.205890e+03 1.063876e+04 3.120413e+04 5.505336e+04 1.271972e+04 1.542075e+04 1.610861e+05 1.695371e+05 2.510686e+04 3.364192e+04 2.862544e+04 6.991623e+04 1.891299e+04 3.246496e+04 1.012342e+05 8.522030e+04 2.981602e+03 3.126259e+03 6.843400e+04 6.783033e+04 5.184102e+03 1.513968e+04 9.220012e+04 7.657808e+04 1.981942e+04 3.063511e+04 1.302013e+05 1.823333e+05 2.603489e+04 2.292518e+04 1.157214e+05 1.008537e+05 2.459249e+04 1.753405e+04
<GCONST> 4.832250e+02
<STATE> 8
<NUMMIXES> 10
<MIXTURE> 1 5.699755e-02
<MEAN> 40
 1.921010e+03 4.218337e+03 -2.817756e+01 -1.072016e+00 7.442062e+02 4.442138e+03 -3.506338e+01 -4.561504e+01 4.105573e+02 4.216106e+03 -7.181977e+01 -5.413000e+01 -1.519262e+02 4.309502e+03 -1.075544e+02 -8.431211e+01 2.055684e+01 4.075315e+03 -7.810503e+00 -7.858199e+01 -2.165542e+03 3.817740e+03 8.186677e+00 -8.121828e-01 -1.238015e+03 3.483636e+03 4.312591e+01 7.224641e+01 -9.297763e+02 3.186523e+03 5.970296e+01 1.459204e+02 -5.805626e+02 3.030856e+03 7.422492e+01 1.589619e+02 -6.100057e+02 3.236395e+03 7.392239e+01 1.230072e+02
<VARIANCE> 40
 6.889898e+04 6.188075e+04 2.630592e+03 6.296823e+02 2.096289e+05 1.433384e+05 4.882776e+03 1.426514e+04 5.786675e+04 1.530262e+05 1.571067e+04 1.792304e+04 1.707039e+05 3.170237e+05 4.018408e+04 3.688601e+04 7.673076e+04 1.937007e+05 3.732603e+04 4.794563e+04 1.630844e+05 4.948123e+04 3.643715e+03 1.221592e+03 2.300897e+05 1.248179e+05 7.462250e+03 1.636193e+04 9.459241e+04 1.740066e+05 4.865701e+04 3.595244e+04 1.202202e+05 3.057030e+05 4.757551e+04 5.411060e+04 1.071047e+05 1.731038e+05 4.748653e+04 4.918977e+04
<GCONST> 5.019515e+02
<MIXTURE> 2 7.805484e-02
<MEAN> 40
 1.962370e+03 3.560477e+03 -1.329572e-02 5.637527e-03 8.096957e+02 2.992200e+03 -2.386189e-02 5.137765e-03 3.284138e+02 2.667035e+03 -4.752136e-02 1.886089e-02 -2.877296e+02 2.434933e+03 -1.211611e-01 3.222740e-02 1.520216e+01 2.542111e+03 -1.011385e-01 2.383936e-02 -2.513195e+03 2.695190e+03 8.864005e-03 3.478594e-02 -1.185486e+03 2.008221e+03 6.971732e-03 1.435350e-02 -7.733467e+02 1.724298e+03 2.115200e-02 -3.681748e-04 -5.151927e+02 1.687915e+03 3.003813e-02 1.614259e-02 -6.449802e+02 1.853376e+03 6.748874e-02 1.304108e-02
<VARIANCE> 40
 1.075428e+05 9.778678e+04 2.948668e-03 2.651684e-03 1.652309e+05 2.250045e+05 5.918298e-03 1.152763e-02 5.846223e+04 2.099945e+05 1.789341e-02 4.611092e-02 1.112514e+05 4.190290e+05 6.023032e-02 1.562028e-01 6.802948e+04 2.730791e+05 8.358014e-02 1.527095e-01 1.345686e+05 1.530175e+05 4.069764e-03 9.933177e-03 1.395963e+05 3.460099e+05 5.904998e-03 1.176837e-02 1.210803e+05 3.658849e+05 2.187259e-02 3.704033e-02 1.924427e+05 5.542146e+05 3.208453e-02 4.261151e-02 1.263903e+05 2.975064e+05 7.504202e-02 9.882376e-02
<GCONST> 2.391912e+02
<MIXTURE> 3 8.385658e-02
<MEAN> 40
 2.141035e+03 4.005732e+03 5.775942e+00 3.822367e+00 5.718511e+02 3.765852e+03 9.057672e+00 3.846333e+01 2.005060e+02 3.422005e+03 -2.683090e+00 4.611503e+01 -5.034525e+02 3.386542e+03 -1.228110e+01 4.611288e+01 -1.246194e+02 3.251474e+03 -6.291518e+00 2.887243e+01 -2.596597e+03 3.415993e+03 5.153606e+00 2.887089e+01 -1.021668e+03 3.036410e+03 -1.294368e+01 5.733334e+01 -8.360283e+02 2.677302e+03 2.230477e+01 6.168231e+01 -6.938610e+02 2.721193e+03 4.424989e+00 5.123794e+01 -5.549831e+02 2.790265e+03 2.642217e+01 6.576783e+01
<VARIANCE> 40
 5.014845e+04 7.896581e+04 8.161357e+02 2.064110e+02 8.362330e+04 4.897782e+04 1.733897e+03 3.100536e+03 3.193702e+04 6.356885e+04 2.765725e+03 5.042927e+03 1.626643e+05 1.024535e+05 6.684954e+03 8.517827e+03 3.160597e+04 4.610510e+04 4.034681e+03 5.783147e+03 9.799302e+04 1.306414e+05 2.438536e+03 1.042416e+03 7.187493e+04 9.849452e+04 4.308562e+03 6.247253e+03 9.252561e+04 7.406617e+04 1.890657e+04 1.305257e+04 1.455401e+05 1.376706e+05 1.687610e+04 1.332679e+04 9.252625e+04 8.209673e+04 1.896575e+04 1.997170e+04
<GCONST> 4.678586e+02
<MIXTURE> 4 6.429514e-02
<MEAN> 40
 2.188298e+03 3.517263e+03 -3.754305e+00 4.884808e+00 1.084041e+03 2.913832e+03 -7.177129e+00 -1.000920e+01 5.792247e+02 2.663947e+03 1.319735e+01 1.190981e+01 3.128069e+01 2.471698e+03 1.126169e+01 4.434142e-01 2.898052e+02 2.567411e+03 3.299918e+01 -1.489349e+01 -2.632313e+03 2.697033e+03 2.798823e+00 5.554241e+01 -1.428671e+03 2.100735e+03 3.417326e+01 7.109756e+01 -1.000048e+03 1.842254e+03 -1.729085e+01 8.954607e+01 -5.998162e+02 1.751102e+03 -2.854713e+01 5.248847e+01 -7.891156e+02 1.966912e+03 -1.029027e+01 7.680006e+01
<VARIANCE> 40
 2.586586e+05 3.374016e+05 1.223912e+04 4.759215e+03 3.075290e+05 5.674999e+05 3.482922e+04 3.109584e+04 2.678245e+05 6.496374e+05 4.744413e+04 4.920211e+04 3.885634e+05 1.071882e+06 1.248356e+05 1.155284e+05 2.218433e+05 7.771934e+05 8.418835e+04 9.570678e+04 2.359314e+05 2.248859e+05 5.028180e+04 1.943434e+04 3.219483e+05 5.508418e+05 1.256012e+05 1.558112e+05 2.993351e+05 6.429199e+05 1.703532e+05 1.476541e+05 3.915793e+05 8.346195e+05 1.493038e+05 1.405706e+05 3.060103e+05 5.936813e+05 1.524621e+05 1.504522e+05
<GCONST> 5.545457e+02
<MIXTURE> 5 8.516227e-02
<MEAN> 40
 2.040124e+03 3.594436e+03 -2.633996e-01 3.457640e-01 7.867772e+02 2.987712e+03 -7.220250e-01 5.119236e-01 2.883969e+02 2.651856e+03 -1.449716e+00 1.180649e+00 -3.146832e+02 2.408981e+03 -5.115504e+00 1.440226e+00 -5.513639e+00 2.543407e+03 -3.226208e+00 7.730951e-01 -2.570160e+03 2.702872e+03 3.963974e-01 2.186117e+00 -1.151178e+03 2.014864e+03 3.129461e-01 1.297935e+00 -7.336239e+02 1.760521e+03 7.659453e-01 4.349603e-01 -4.927529e+02 1.767792e+03 2.219172e+00 1.405514e+00 -6.401998e+02 1.908953e+03 2.714403e+00 1.173696e+00
<VARIANCE> 40
 1.190861e+05 1.120405e+05 4.636864e+00 4.133150e+00 1.386275e+05 1.802152e+05 7.602938e+00 1.408296e+01 5.792506e+04 1.665960e+05 2.619069e+01 6.400846e+01 1.648776e+05 3.451231e+05 9.899631e+01 2.101574e+02 6.120188e+04 2.303166e+05 2.032698e+02 4.039320e+02 1.217208e+05 1.537664e+05 7.745329e+00 1.614503e+01 1.097328e+05 2.513838e+05 1.051388e+01 1.686657e+01 1.179306e+05 2.299613e+05 2.805157e+01 3.827832e+01 1.732817e+05 4.599144e+05 4.957127e+01 5.297441e+01 1.581618e+05 2.281236e+05 8.165960e+01 9.069372e+01
<GCONST> 3.831006e+02
<MIXTURE> 6 1.568354e-01
<MEAN> 40
 2.072820e+03 3.659472e+03 3.923883e+00 1.141180e+01 6.562703e+02 3.118388e+03 5.169249e+00 4.561124e+01 2.204736e+02 2.668772e+03 -3.952211e+00 3.089992e+01 -5.161581e+02 2.332096e+03 -2.068804e+01 2.351886e+01 -6.982025e+01 2.586353e+03 -4.606910e-01 2.212264e+01 -2.627900e+03 2.766896e+03 1.634217e+01 5.591498e+01 -9.711864e+02 2.147383e+03 3.218789e+00 6.457304e+01 -7.028925e+02 1.882051e+03 2.464410e+01 7.630328e+01 -6.331359e+02 1.882597e+03 1.299060e+01 5.458095e+01 -6.348424e+02 2.064019e+03 2.057865e+01 1.008281e+02
<VARIANCE> 40
 9.848112e+04 6.632220e+04 8.300313e+02 4.779465e+02 5.877055e+04 3.682972e+04 1.253761e+03 2.553291e+03 2.457554e+04 3.183229e+04 1.671264e+03 2.845086e+03 3.255247e+04 8.780636e+04 3.429466e+03 4.995689e+03 2.027886e+04 3.701067e+04 1.965279e+03 3.385202e+03 1.256514e+05 1.062664e+05 3.164947e+03 3.727674e+03 9.514222e+04 9.354791e+04 5.286509e+03 1.169678e+04 8.660341e+04 7.381100e+04 4.623789e+04 4.424166e+04 1.446267e+05 1.784848e+05 6.975251e+04 4.380554e+04 1.463516e+05 8.858575e+04 1.295983e+05 7.343752e+04
<GCONST> 4.724510e+02
<MIXTURE> 7 7.949193e-02
<MEAN> 40
 1.599461e+03 3.574607e+03 4.775910e+00 1.893540e+01 9.422672e+02 2.844194e+03 5.555127e+00 4.433352e+01 3.013829e+02 2.655844e+03 7.157084e+00 4.760931e+01 -4.036976e+02 2.248506e+03 7.057057e+00 4.553989e+01 7.893540e+01 2.478441e+03 5.206770e+00 3.951242e+01 -2.180728e+03 2.819741e+03 1.540006e+01 5.067624e+01 -1.321430e+03 1.607125e+03 -4.545830e+00 5.507848e+01 -7.019545e+02 1.791430e+03 1.755829e+01 4.349378e+01 -4.883841e+02 1.813951e+03 3.121165e+01 3.608617e+01 -6.869385e+02 1.856292e+03 3.584150e+01 3.535220e+01
<VARIANCE> 40
 3.658050e+04 1.740607e+04 7.905407e+02 5.822387e+02 2.833883e+04 2.603666e+04 9.955944e+02 2.528727e+03 1.387866e+04 2.221444e+04 9.987930e+02 2.193029e+03 1.596436e+04 4.092526e+04 1.494335e+03 2.879665e+03 1.216617e+04 2.675839e+04 1.417538e+03 2.865324e+03 2.679897e+04 6.074598e+04 2.845765e+03 3.338918e+03 2.436949e+04 4.948189e+04 4.007467e+03 4.982659e+03 5.091989e+04 4.722622e+04 7.139457e+03 7.529975e+03 1.621139e+05 1.694048e+05 8.617031e+03 6.382599e+03 8.153330e+04 6.475606e+04 1.015164e+04 7.524126e+03
<GCONST> 4.433171e+02
<MIXTURE> 8 1.404210e-01
<MEAN> 40
 1.926679e+03 3.486597e+03 8.887422e+00 1.371320e+01 6.812117e+02 2.731658e+03 7.849623e+00 3.842910e+01 2.523306e+02 2.370511e+03 2.491520e+00 4.265828e+01 -3.234283e+02 2.027679e+03 -1.260615e+01 1.250879e+01 -5.549667e+01 2.251898e+03 3.054238e+00 1.972489e+01 -2.652831e+03 2.453342e+03 -5.528476e-02 2.804876e+01 -1.147993e+03 1.683382e+03 7.821753e+00 3.749072e+01 -6.995988e+02 1.492106e+03 2.098785e+01 4.326585e+01 -5.050260e+02 1.578580e+03 2.140288e+01 3.935881e+01 -5.719183e+02 1.674569e+03 2.780405e+01 3.657657e+01
<VARIANCE> 40
 1.275200e+05 5.981356e+04 9.958129e+02 1.000916e+03 1.142376e+05 4.151979e+04 2.092781e+03 4.537255e+03 4.968766e+04 3.800044e+04 3.910761e+03 6.144068e+03 1.227762e+05 1.167112e+05 2.016638e+04 1.342821e+04 5.183839e+04 4.656187e+04 4.992723e+03 8.598338e+03 1.435788e+05 1.011084e+05 2.017357e+03 5.438525e+03 7.437719e+04 8.140927e+04 4.947633e+03 7.486316e+03 1.021282e+05 8.805752e+04 1.787659e+04 1.769944e+04 1.894364e+05 2.269375e+05 1.572190e+04 1.522066e+04 1.284176e+05 9.179834e+04 1.844650e+04 1.535810e+04
<GCONST> 4.772473e+02
<MIXTURE> 9 1.446615e-01
<MEAN> 40
 2.166166e+03 3.862639e+03 6.478164e+00 4.774749e+00 7.447103e+02 3.338401e+03 1.167165e+01 3.548888e+01 3.307024e+02 2.906702e+03 5.562798e+00 3.414754e+01 -2.519525e+02 2.722528e+03 -9.683843e+00 2.787988e+01 -1.845623e+01 2.864502e+03 -2.458439e+00 2.903393e+01 -2.799038e+03 2.872143e+03 3.995764e+00 4.111724e+01 -1.147970e+03 2.315107e+03 -5.189403e+00 5.005149e+01 -6.519255e+02 2.066570e+03 -7.676303e-01 4.128444e+01 -4.235694e+02 2.226545e+03 1.107174e+01 3.050428e+01 -5.317488e+02 2.214077e+03 1.406804e+01 3.052237e+01
<VARIANCE> 40
 8.350884e+04 1.157486e+05 1.250121e+03 6.502944e+02 8.876012e+04 3.645391e+04 3.400770e+03 4.610475e+03 5.534011e+04 4.040456e+04 7.490128e+03 8.353590e+03 1.479659e+05 1.287309e+05 2.377280e+04 3.186434e+04 5.857934e+04 5.738541e+04 1.143088e+04 1.482381e+04 2.058773e+05 9.939693e+04 1.168412e+03 2.860247e+03 9.706420e+04 8.205495e+04 2.123007e+03 4.431025e+03 8.493078e+04 6.419804e+04 6.230005e+03 9.580947e+03 1.280225e+05 1.770892e+05 4.161387e+03 7.957856e+03 9.684706e+04 6.371423e+04 5.626821e+03 8.503151e+03
<GCONST> 4.723896e+02
<MIXTURE> 10 1.102247e-01
<MEAN> 40
 2.030775e+03 3.389719e+03 1.532176e+00 8.582070e+00 7.666342e+02 2.809149e+03 2.807185e+00 1.505546e+01 2.494461e+02 2.444471e+03 1.167410e+00 1.163362e+01 -4.509186e+02 2.086318e+03 -9.400217e+00 8.757023e+00 -3.197356e+01 2.359428e+03 -4.452983e+00 9.912628e+00 -2.595769e+03 2.491891e+03 4.403383e+00 2.589462e+01 -1.139614e+03 1.849586e+03 3.986849e-01 1.909756e+01 -6.902270e+02 1.625636e+03 2.517556e+00 1.173001e+01 -4.898440e+02 1.652232e+03 7.449188e+00 9.340530e+00 -6.923333e+02 1.782763e+03 1.171483e+01 1.106274e+01
<VARIANCE> 40
 1.286324e+05 1.161186e+05 2.296122e+02 2.683460e+02 8.489717e+04 5.023342e+04 3.534332e+02 5.608193e+02 3.037775e+04 4.324001e+04 4.150785e+02 6.067361e+02 3.343349e+04 9.680351e+04 1.034978e+03 1.091065e+03 3.194489e+04 5.732329e+04 5.414680e+02 8.395179e+02 1.175410e+05 1.267741e+05 5.579713e+02 9.608311e+02 8.687484e+04 1.154835e+05 7.326163e+02 9.205677e+02 1.095149e+05 8.115147e+04 1.608412e+03 1.551575e+03 1.744201e+05 2.468698e+05 1.208956e+03 1.740382e+03 1.931084e+05 8.840593e+04 1.219665e+03 1.158122e+03
<GCONST> 4.334365e+02
<STATE> 9
<NUMMIXES> 10
<MIXTURE> 1 4.905262e-02
<MEAN> 40
 2.089857e+03 4.041990e+03 -8.899867e+00 2.219188e+00 8.376306e+02 3.982263e+03 -6.072152e+00 -5.988564e-01 4.460940e+02 3.715774e+03 -2.087603e+01 -1.108595e+01 -9.728085e+01 3.688461e+03 -4.778156e+01 -6.281833e+01 1.432546e+02 3.598436e+03 1.103914e+01 -1.565625e+01 -2.388215e+03 3.558909e+03 1.229181e+01 2.242010e+01 -1.226831e+03 3.260963e+03 1.212436e+01 7.485418e+01 -8.820492e+02 2.992303e+03 3.572025e+01 9.736521e+01 -5.767029e+02 2.933514e+03 2.218326e+01 1.295935e+02 -6.346232e+02 3.069641e+03 1.332124e+01 1.174388e+02
<VARIANCE> 40
 1.791212e+05 1.732479e+05 5.521588e+03 2.813100e+03 2.575814e+05 6.056976e+05 1.080411e+04 2.053477e+04 1.936679e+05 6.990859e+05 2.837308e+04 4.371524e+04 3.970708e+05 9.902622e+05 1.289461e+05 1.143256e+05 2.019982e+05 7.213684e+05 5.846504e+04 5.288587e+04 2.826114e+05 2.115941e+05 6.262588e+03 4.703396e+03 3.326063e+05 5.581082e+05 2.142383e+04 2.965653e+04 2.562246e+05 6.422609e+05 7.396840e+04 6.183575e+04 2.724099e+05 8.680942e+05 9.079488e+04 1.287534e+05 2.727890e+05 6.364630e+05 1.457459e+05 1.051254e+05
<GCONST> 5.384646e+02
<MIXTURE> 2 1.277926e-01
<MEAN> 40
 2.022381e+03 3.584723e+03 -8.185625e-04 1.845564e-04 7.547078e+02 3.183840e+03 -1.678806e-03 2.268967e-04 2.881535e+02 2.824175e+03 -3.435444e-03 3.264229e-04 -3.651788e+02 2.647866e+03 -6.699250e-03 2.324618e-03 -2.084365e+01 2.757690e+03 -5.022728e-03 3.101695e-04 -2.512784e+03 2.806305e+03 6.260625e-05 3.305546e-03 -1.125259e+03 2.285500e+03 -2.893511e-04 1.853334e-03 -7.811896e+02 1.942650e+03 1.163473e-04 4.719554e-04 -5.555486e+02 1.927872e+03 7.634392e-04 1.998742e-03 -6.127513e+02 2.057167e+03 1.625186e-03 6.213909e-04
<VARIANCE> 40
 1.050313e+05 1.233707e+05 5.000000e-04 5.000000e-04 1.258802e+05 1.955749e+05 5.000000e-04 5.000000e-04 5.283791e+04 1.755488e+05 5.000000e-04 5.000000e-04 1.351682e+05 3.462955e+05 5.141370e-04 7.782970e-04 5.575666e+04 2.250456e+05 5.000000e-04 8.933269e-04 1.333324e+05 1.690066e+05 5.000000e-04 5.000000e-04 1.288825e+05 3.549087e+05 5.000000e-04 5.000000e-04 1.254378e+05 3.694204e+05 5.000000e-04 5.000000e-04 1.553531e+05 6.267497e+05 5.000000e-04 5.000000e-04 1.293342e+05 3.634761e+05 5.000000e-04 5.000000e-04
<GCONST> 1.633514e+02
<MIXTURE> 3 8.887412e-02
<MEAN> 40
 2.188417e+03 3.932234e+03 6.666665e+00 2.865664e+00 6.880336e+02 3.727654e+03 1.055221e+01 1.536091e+01 2.394075e+02 3.352797e+03 4.369454e+00 1.351859e+01 -4.404291e+02 3.301163e+03 -5.886082e+00 2.061813e+01 -8.302888e+01 3.279281e+03 1.723255e+00 1.631940e+01 -2.625615e+03 3.317927e+03 -2.277966e+00 2.008986e+01 -1.024036e+03 2.958302e+03 -1.013463e+01 2.391980e+01 -6.817808e+02 2.642650e+03 -3.267466e+00 2.148513e+01 -5.973214e+02 2.768417e+03 4.540389e+00 2.006637e+01 -4.355222e+02 2.803441e+03 5.937038e+00 1.478913e+01
<VARIANCE> 40
 5.144835e+04 6.951697e+04 2.452037e+02 1.119532e+02 8.120516e+04 5.251158e+04 6.756050e+02 6.790433e+02 3.859639e+04 6.495990e+04 6.633319e+02 7.021155e+02 1.987583e+05 1.277097e+05 1.909697e+03 1.826268e+03 4.047711e+04 4.507143e+04 8.571632e+02 1.181649e+03 1.088747e+05 1.171689e+05 5.213469e+02 5.664019e+02 4.120861e+04 9.638170e+04 6.771669e+02 9.072542e+02 9.389690e+04 7.587001e+04 3.164639e+03 2.893742e+03 1.580109e+05 1.422217e+05 2.072118e+03 1.935277e+03 7.347803e+04 8.645659e+04 1.905475e+03 1.992961e+03
<GCONST> 4.365860e+02
<MIXTURE> 4 7.986216e-02
<MEAN> 40
 2.063866e+03 3.655354e+03 1.430817e-02 3.457076e-02 7.363693e+02 3.250899e+03 -2.949994e-02 1.430869e-01 2.847753e+02 2.879822e+03 -1.582668e-01 1.873353e-01 -3.526921e+02 2.689161e+03 -5.132570e-01 3.184692e-01 -3.214034e+01 2.816886e+03 -3.293924e-01 2.086821e-01 -2.543121e+03 2.875880e+03 2.168364e-02 3.586287e-01 -1.078316e+03 2.374823e+03 -5.267638e-02 2.832146e-01 -7.478042e+02 2.072622e+03 -3.049549e-02 1.703358e-01 -5.516228e+02 2.099479e+03 1.634318e-01 3.563756e-01 -5.707693e+02 2.216472e+03 2.159672e-01 9.714656e-02
<VARIANCE> 40
 9.898855e+04 1.271411e+05 7.869623e-02 6.008305e-02 1.314475e+05 1.831819e+05 1.534675e-01 2.343698e-01 5.810773e+04 1.604042e+05 4.739130e-01 7.983109e-01 1.520139e+05 3.604810e+05 1.755199e+00 2.372256e+00 5.788748e+04 1.997798e+05 1.284390e+00 2.881821e+00 1.321042e+05 1.669245e+05 1.760837e-01 3.837644e-01 1.129158e+05 3.205256e+05 2.903776e-01 3.616491e-01 1.016993e+05 2.967613e+05 9.496320e-01 1.043367e+00 1.701574e+05 4.280172e+05 1.466701e+00 1.758497e+00 1.546468e+05 2.833294e+05 2.366755e+00 3.181815e+00
<GCONST> 3.043959e+02
<MIXTURE> 5 9.945522e-02
<MEAN> 40
 2.117652e+03 3.745986e+03 1.623248e+01 1.379234e+01 6.847471e+02 3.313152e+03 2.554688e+01 4.377555e+01 2.449218e+02 2.894095e+03 8.855576e+00 5.191265e+01 -4.869921e+02 2.679032e+03 -7.305623e+00 4.894737e+01 -7.130996e+01 2.848076e+03 3.630202e+00 5.663565e+01 -2.622246e+03 2.956915e+03 7.074037e+00 7.137633e+01 -1.030647e+03 2.419506e+03 -1.470066e+01 7.480796e+01 -7.314279e+02 2.194780e+03 2.458436e-01 1.218360e+02 -6.270668e+02 2.249731e+03 -9.220348e+00 1.327065e+02 -6.896239e+02 2.353983e+03 -2.079697e+01 1.408462e+02
<VARIANCE> 40
 7.705355e+04 1.097369e+05 1.850804e+03 9.934135e+02 5.641460e+04 5.790680e+04 3.183174e+03 4.686810e+03 3.403136e+04 4.637000e+04 5.865747e+03 8.557801e+03 4.823781e+04 1.170748e+05 1.314268e+04 2.251364e+04 3.059471e+04 5.531951e+04 8.931961e+03 1.293200e+04 1.467091e+05 1.230797e+05 8.673478e+03 8.792729e+03 1.010766e+05 1.177610e+05 1.359878e+04 3.840808e+04 1.155867e+05 1.142945e+05 1.096384e+05 9.875011e+04 1.762345e+05 1.845587e+05 1.597360e+05 1.174534e+05 1.873360e+05 1.241673e+05 2.323909e+05 1.168614e+05
<GCONST> 4.971133e+02
<MIXTURE> 6 7.391180e-02
<MEAN> 40
 1.943497e+03 3.505739e+03 9.295496e+00 4.337762e+00 1.131823e+03 2.669684e+03 4.996377e+00 1.412140e+01 5.130341e+02 2.465790e+03 3.641907e+00 2.630470e+01 -8.438795e+01 2.121481e+03 -2.512023e+00 3.396826e+01 1.595171e+02 2.279090e+03 -1.032893e+01 4.434961e+01 -2.472938e+03 2.577677e+03 -5.254993e-01 2.012668e+01 -1.384427e+03 1.676460e+03 -3.189034e-01 1.423141e+01 -7.969222e+02 1.492934e+03 2.301537e+00 1.233695e+01 -3.910885e+02 1.323917e+03 6.622154e+00 1.728330e+01 -6.295506e+02 1.615686e+03 3.106865e+00 1.609454e+01
<VARIANCE> 40
 1.438947e+05 1.188030e+05 6.648055e+02 3.473362e+02 1.614986e+05 1.230767e+05 7.972097e+02 1.499583e+03 9.991010e+04 1.185362e+05 1.252589e+03 4.397860e+03 2.039283e+05 2.593884e+05 4.856005e+03 1.173824e+04 9.291280e+04 1.498148e+05 5.735510e+03 1.601868e+04 1.437299e+05 1.218687e+05 5.222692e+02 1.282102e+03 1.041445e+05 1.517726e+05 3.779172e+02 8.251987e+02 1.426847e+05 2.608342e+05 9.093016e+02 1.966327e+03 1.825365e+05 4.268291e+05 1.945044e+03 2.796235e+03 1.423200e+05 1.954669e+05 1.222680e+03 3.295696e+03
<GCONST> 4.618109e+02
<MIXTURE> 7 1.210525e-01
<MEAN> 40
 2.237676e+03 3.877002e+03 6.909930e+00 7.754655e+00 7.662067e+02 3.432357e+03 1.293742e+01 3.231431e+01 3.262678e+02 2.960027e+03 5.115012e+00 2.721440e+01 -4.503003e+02 2.755843e+03 -1.326267e+01 3.153078e+01 -2.036539e+01 2.955249e+03 1.410421e+00 2.880319e+01 -2.736212e+03 3.028647e+03 1.174723e+00 5.276131e+01 -1.064397e+03 2.476874e+03 -1.566329e+01 5.548125e+01 -6.443890e+02 2.187832e+03 -1.487464e+01 4.962627e+01 -4.518014e+02 2.331768e+03 2.089334e+00 4.119396e+01 -4.806702e+02 2.345399e+03 2.095778e+01 4.641863e+01
<VARIANCE> 40
 6.107764e+04 1.043113e+05 5.196766e+02 3.482250e+02 5.188444e+04 3.416202e+04 1.041367e+03 1.366374e+03 3.504509e+04 3.438020e+04 1.489345e+03 1.556852e+03 5.188704e+04 8.988269e+04 6.240304e+03 4.346292e+03 2.661723e+04 4.263116e+04 1.519291e+03 2.345167e+03 2.023930e+05 1.195780e+05 1.428599e+03 2.380427e+03 9.580305e+04 7.965308e+04 2.183294e+03 3.280967e+03 6.711005e+04 7.348697e+04 1.574522e+04 1.462726e+04 1.190658e+05 1.416651e+05 1.110549e+04 1.470378e+04 1.018525e+05 7.239170e+04 2.851887e+04 2.344501e+04
<GCONST> 4.591054e+02
<MIXTURE> 8 9.629761e-02
<MEAN> 40
 2.107969e+03 3.639416e+03 1.004507e+00 9.729096e-01 7.650433e+02 3.218933e+03 5.089497e-01 2.753371e+00 2.661576e+02 2.855047e+03 -6.247364e-01 3.247116e+00 -4.083023e+02 2.657230e+03 -8.497554e+00 3.100019e+00 -2.758629e+01 2.814375e+03 -2.506197e+00 3.431832e+00 -2.555758e+03 2.840107e+03 5.501028e-01 8.941550e+00 -1.069460e+03 2.279656e+03 -1.755343e+00 7.152478e+00 -6.534343e+02 2.043890e+03 -4.389943e-01 3.254405e+00 -5.021510e+02 2.068017e+03 1.645334e+00 6.176308e+00 -5.788349e+02 2.187854e+03 5.209898e+00 4.643496e+00
<VARIANCE> 40
 9.896062e+04 1.148304e+05 2.233501e+01 1.443543e+01 8.661509e+04 9.292044e+04 3.838842e+01 4.895322e+01 3.588930e+04 7.100664e+04 7.800130e+01 1.012991e+02 1.172205e+05 1.860608e+05 3.497272e+02 3.277703e+02 3.889028e+04 9.197212e+04 1.441118e+02 2.895677e+02 1.272593e+05 1.315604e+05 4.417875e+01 1.283271e+02 9.628052e+04 1.904007e+05 7.176722e+01 1.126917e+02 9.116223e+04 1.531400e+05 2.353635e+02 2.995453e+02 1.808507e+05 2.871978e+05 3.127356e+02 3.670415e+02 1.522108e+05 1.525422e+05 3.353491e+02 3.751565e+02
<GCONST> 4.027893e+02
<MIXTURE> 9 1.177542e-01
<MEAN> 40
 2.012034e+03 3.568821e+03 2.030183e+01 7.616292e+00 9.798102e+02 2.863037e+03 2.150275e+01 2.683803e+01 4.540656e+02 2.587879e+03 1.204941e+01 3.015877e+01 -1.206181e+02 2.311380e+03 8.297898e-01 3.562975e+01 1.376690e+02 2.483369e+03 1.041352e+01 3.276891e+01 -2.563049e+03 2.661927e+03 -4.031458e+00 5.158300e+01 -1.229530e+03 1.865546e+03 -7.335398e+00 5.211968e+01 -6.900011e+02 1.708984e+03 -4.402396e+00 5.360103e+01 -3.609106e+02 1.735872e+03 9.628993e+00 6.020498e+01 -5.921310e+02 1.873916e+03 2.133342e+01 3.713185e+01
<VARIANCE> 40
 1.356145e+05 9.471380e+04 2.727138e+03 2.043448e+03 1.484116e+05 8.632716e+04 4.379144e+03 9.952293e+03 7.678474e+04 6.618041e+04 1.002215e+04 1.372383e+04 1.584870e+05 1.630589e+05 4.120981e+04 3.722101e+04 7.810726e+04 8.502170e+04 2.384432e+04 3.919995e+04 1.677160e+05 1.192631e+05 4.068400e+03 7.091518e+03 7.689645e+04 1.134023e+05 7.735862e+03 1.390370e+04 8.377704e+04 1.251420e+05 1.655077e+04 2.779581e+04 1.728830e+05 2.947908e+05 2.742015e+04 4.154533e+04 1.032978e+05 1.037730e+05 3.205448e+04 2.884362e+04
<GCONST> 4.972227e+02
<MIXTURE> 10 1.459481e-01
<MEAN> 40
 2.042382e+03 3.680069e+03 6.606155e+00 5.486034e+00 6.173215e+02 3.219388e+03 8.696425e+00 1.631590e+01 1.985601e+02 2.765985e+03 5.248116e-01 1.337135e+01 -5.420968e+02 2.421429e+03 -8.835138e+00 1.257912e+01 -9.802347e+01 2.678478e+03 -1.791144e+00 1.522688e+01 -2.503886e+03 2.918526e+03 -1.204172e+00 3.335689e+01 -9.328962e+02 2.301329e+03 -1.397022e+01 2.774639e+01 -6.962976e+02 2.001327e+03 -7.094069e+00 2.238042e+01 -5.691747e+02 1.976052e+03 4.647106e+00 1.577328e+01 -5.489658e+02 2.165526e+03 7.947597e+00 1.113728e+01
<VARIANCE> 40
 7.299700e+04 6.235323e+04 2.590742e+02 1.789562e+02 5.378142e+04 3.424747e+04 4.472981e+02 7.192545e+02 2.392674e+04 3.373754e+04 4.838367e+02 5.888331e+02 4.137204e+04 9.904197e+04 8.607280e+02 1.112208e+03 2.235538e+04 3.793616e+04 5.606630e+02 1.010386e+03 9.760138e+04 1.019418e+05 7.015664e+02 1.096670e+03 8.268126e+04 9.544009e+04 1.080353e+03 1.617473e+03 8.710762e+04 6.660540e+04 4.233082e+03 4.589727e+03 1.304409e+05 1.557747e+05 3.875470e+03 3.144308e+03 1.079900e+05 7.191613e+04 3.330041e+03 2.937893e+03
<GCONST> 4.352142e+02
<STATE> 10
<NUMMIXES> 10
<MIXTURE> 1 8.816754e-02
<MEAN> 40
 2.200102e+03 3.590390e+03 5.205476e+01 2.611599e+01 1.131169e+03 3.012384e+03 7.517062e+01 4.712652e+01 6.256195e+02 2.738190e+03 8.470550e+01 7.416058e+01 2.218679e+01 2.531477e+03 1.002441e+02 1.271942e+02 2.629998e+02 2.650349e+03 9.548284e+01 7.299674e+01 -2.614604e+03 2.873206e+03 7.953608e+00 1.133237e+02 -1.453335e+03 2.141493e+03 -2.306677e+01 9.397733e+01 -1.025591e+03 1.769483e+03 -2.936016e+01 5.597236e+01 -6.287229e+02 1.656843e+03 -1.161990e+01 7.959171e+01 -8.232415e+02 1.912985e+03 -3.175769e+01 6.500140e+01
<VARIANCE> 40
 2.007387e+05 1.898865e+05 1.293639e+04 5.658395e+03 2.335195e+05 5.206630e+05 2.098076e+04 2.632226e+04 1.945643e+05 5.600942e+05 4.068204e+04 4.283394e+04 3.375192e+05 8.671654e+05 9.347903e+04 1.100608e+05 1.833021e+05 6.470272e+05 6.286887e+04 7.477153e+04 2.600153e+05 2.367004e+05 2.425605e+04 2.739213e+04 2.159251e+05 5.162505e+05 5.363987e+04 1.355711e+05 1.968665e+05 5.289109e+05 9.564809e+04 1.304980e+05 2.608549e+05 7.362611e+05 1.185453e+05 1.652450e+05 2.058052e+05 5.105476e+05 1.080913e+05 1.592558e+05
<GCONST> 5.461053e+02
<MIXTURE> 2 1.393652e-01
<MEAN> 40
 2.004840e+03 4.235200e+03 9.746842e+00 2.091969e+00 6.772084e+02 4.314382e+03 1.654396e+01 3.413755e+01 2.722383e+02 4.104041e+03 8.535034e+00 4.336409e+01 -4.848528e+02 4.050800e+03 -3.204313e+00 4.056304e+01 -7.707915e+01 3.896068e+03 -6.338255e+00 5.074165e+01 -2.254454e+03 3.840804e+03 8.023502e+00 1.195547e+01 -1.152130e+03 3.720351e+03 -1.344010e+01 5.648764e+01 -8.811866e+02 3.447663e+03 -1.106856e+01 5.987235e+01 -5.521360e+02 3.428722e+03 3.899191e+00 7.802823e+01 -5.038691e+02 3.475323e+03 -4.080727e+00 4.709938e+01
<VARIANCE> 40
 5.849434e+04 4.362230e+04 5.527514e+02 1.214096e+02 1.262560e+05 7.433038e+04 1.499551e+03 2.016148e+03 2.825120e+04 7.509609e+04 2.676784e+03 3.555458e+03 6.809049e+04 1.303366e+05 4.391728e+03 5.336310e+03 3.171618e+04 1.061343e+05 3.216316e+03 6.718890e+03 1.060157e+05 4.540519e+04 8.591471e+02 4.096086e+02 1.469631e+05 9.137352e+04 2.096822e+03 3.589489e+03 1.159314e+05 9.209322e+04 7.005689e+03 7.397253e+03 1.303532e+05 2.271473e+05 8.383623e+03 1.157794e+04 7.025958e+04 1.002739e+05 9.933496e+03 9.950528e+03
<GCONST> 4.590814e+02
<MIXTURE> 3 5.825922e-02
<MEAN> 40
 2.156342e+03 3.850455e+03 1.826164e-02 1.136053e-02 8.420775e+02 3.508308e+03 1.292587e-02 5.869917e-02 3.361099e+02 3.200198e+03 -9.444822e-03 9.556637e-02 -3.868920e+02 3.041269e+03 -6.434373e-02 1.364549e-01 8.729864e+00 3.121850e+03 -6.035274e-02 1.031561e-01 -2.569664e+03 3.156692e+03 -1.080411e-02 7.282995e-02 -1.133372e+03 2.689311e+03 -3.504800e-02 8.203785e-02 -7.407897e+02 2.439718e+03 -2.589980e-02 5.861403e-02 -5.459865e+02 2.495820e+03 -1.283756e-03 9.350705e-02 -5.690998e+02 2.588628e+03 -2.019696e-03 7.554015e-02
<VARIANCE> 40
 9.036339e+04 1.351915e+05 4.452927e-03 2.030564e-03 1.134483e+05 3.347677e+05 7.931032e-03 1.081607e-02 4.580432e+04 3.583003e+05 1.824250e-02 3.380399e-02 1.441690e+05 5.289301e+05 5.307096e-02 9.713861e-02 6.100463e+04 3.613311e+05 6.134255e-02 1.250171e-01 1.705128e+05 2.602376e+05 6.864344e-03 1.051923e-02 1.034068e+05 5.744050e+05 1.350353e-02 1.733321e-02 1.110196e+05 4.992903e+05 2.747066e-02 4.504425e-02 1.733828e+05 7.292759e+05 4.543026e-02 6.435207e-02 1.195851e+05 5.229334e+05 6.755847e-02 5.927118e-02
<GCONST> 2.435273e+02
<MIXTURE> 4 1.169993e-01
<MEAN> 40
 2.253257e+03 3.925858e+03 1.533588e+01 5.769991e+00 8.234631e+02 3.664139e+03 2.854226e+01 2.915537e+01 3.227716e+02 3.291962e+03 1.926154e+01 4.722897e+01 -3.730208e+02 3.292794e+03 3.244016e+00 6.312709e+01 1.458180e+01 3.261137e+03 9.935395e+00 4.595999e+01 -2.678427e+03 3.320356e+03 -4.589444e+00 4.407674e+01 -1.104867e+03 2.899023e+03 -3.295997e+01 5.351598e+01 -6.960694e+02 2.653392e+03 -2.221281e+01 3.614104e+01 -5.466202e+02 2.732873e+03 1.665557e+01 6.394386e+01 -4.997649e+02 2.814809e+03 1.694190e+01 5.433675e+01
<VARIANCE> 40
 5.178428e+04 5.552710e+04 1.228455e+03 4.753536e+02 6.361821e+04 4.223444e+04 2.430285e+03 4.035205e+03 3.623826e+04 4.892630e+04 4.145020e+03 8.891125e+03 1.538971e+05 1.052052e+05 1.845871e+04 1.853289e+04 7.555668e+04 4.840714e+04 5.062440e+03 1.155004e+04 1.229618e+05 1.192971e+05 2.241050e+03 2.894707e+03 6.032687e+04 8.204984e+04 3.170903e+03 6.106037e+03 9.297835e+04 6.994330e+04 1.682595e+04 2.266216e+04 1.715158e+05 1.468855e+05 2.072387e+04 2.367856e+04 8.646568e+04 5.727689e+04 4.267059e+04 3.128420e+04
<GCONST> 4.760100e+02
<MIXTURE> 5 7.541192e-02
<MEAN> 40
 2.129584e+03 3.849321e+03 4.328900e-01 2.437632e-01 8.245340e+02 3.562063e+03 2.778703e-01 1.385982e+00 3.321027e+02 3.244971e+03 1.955637e-01 2.195911e+00 -3.836821e+02 3.116335e+03 -2.292896e+00 3.643743e+00 1.816422e+01 3.156377e+03 -1.085639e+00 3.353999e+00 -2.546697e+03 3.169487e+03 -1.280164e-01 2.194115e+00 -1.143779e+03 2.728394e+03 -9.652869e-01 2.238826e+00 -7.375584e+02 2.496045e+03 -1.064894e+00 1.103422e+00 -5.121403e+02 2.519229e+03 -3.210842e-01 1.671062e+00 -5.155058e+02 2.632591e+03 3.701712e-02 1.673779e+00
<VARIANCE> 40
 9.978097e+04 1.406393e+05 2.835125e+00 1.198082e+00 1.120612e+05 3.346289e+05 3.783399e+00 6.174566e+00 4.717492e+04 3.718903e+05 1.042740e+01 2.087361e+01 1.111337e+05 5.295464e+05 4.910127e+01 6.606908e+01 6.105543e+04 3.405952e+05 2.423553e+01 5.287067e+01 1.715592e+05 2.406275e+05 4.215844e+00 9.253573e+00 1.139675e+05 5.716326e+05 8.569186e+00 1.042643e+01 1.173812e+05 5.385319e+05 2.388434e+01 3.738626e+01 1.491076e+05 6.915880e+05 5.049939e+01 6.066376e+01 1.008241e+05 4.731283e+05 4.440570e+01 4.877109e+01
<GCONST> 3.731881e+02
<MIXTURE> 6 1.111229e-01
<MEAN> 40
 1.874283e+03 3.685910e+03 1.693386e+01 9.550369e+00 1.117714e+03 3.024905e+03 2.390265e+01 3.646772e+01 4.422733e+02 2.850323e+03 2.082495e+01 3.529926e+01 -3.006663e+02 2.526881e+03 1.539935e+01 4.009491e+01 1.911660e+02 2.698815e+03 1.327131e+01 2.624433e+01 -2.325242e+03 2.978461e+03 2.324920e+01 7.484723e+01 -1.307186e+03 2.024474e+03 -1.835885e+01 7.399260e+01 -6.607540e+02 2.069126e+03 -1.402189e+01 5.139622e+01 -3.709829e+02 2.104246e+03 3.130181e+01 4.953535e+01 -5.820656e+02 2.143407e+03 1.314941e+01 5.173391e+01
<VARIANCE> 40
 1.536971e+05 1.801836e+04 1.048365e+03 5.490446e+02 3.205992e+04 2.776294e+04 1.468449e+03 2.920791e+03 1.662205e+04 2.590199e+04 1.455771e+03 2.354762e+03 2.921705e+04 5.034597e+04 3.077015e+03 3.380187e+03 1.730374e+04 2.402834e+04 1.836326e+03 2.987566e+03 7.871293e+04 6.447818e+04 2.703794e+03 3.693259e+03 3.854739e+04 8.194084e+04 3.148623e+03 5.978235e+03 5.022971e+04 5.199645e+04 8.570833e+03 1.166396e+04 1.957392e+05 1.663375e+05 1.925236e+04 2.342307e+04 8.008696e+04 6.373860e+04 1.222761e+04 1.404069e+04
<GCONST> 4.545963e+02
<MIXTURE> 7 1.011438e-01
<MEAN> 40
 2.134756e+03 3.430584e+03 2.310847e+01 7.176846e+00 9.200201e+02 2.814622e+03 2.827257e+01 1.351750e+01 3.732896e+02 2.507156e+03 2.467640e+01 1.761616e+01 -1.752331e+02 2.313923e+03 1.673392e+01 2.391142e+01 4.972515e+01 2.428432e+03 1.015864e+01 2.050815e+01 -2.657677e+03 2.591458e+03 4.649336e-01 5.302699e+01 -1.247299e+03 1.939315e+03 -1.193313e+01 2.454301e+01 -7.417009e+02 1.680946e+03 -1.948108e+01 -6.256940e+00 -4.580522e+02 1.736037e+03 7.245065e+00 1.999419e+00 -6.548067e+02 1.877089e+03 8.892331e-01 7.904278e+00
<VARIANCE> 40
 1.282716e+05 1.312891e+05 1.349868e+03 1.239006e+03 9.549836e+04 6.282790e+04 1.501077e+03 2.215682e+03 5.954589e+04 4.903491e+04 2.034282e+03 3.335575e+03 2.045171e+05 1.660862e+05 6.323059e+03 6.125735e+03 4.982175e+04 6.787702e+04 2.438710e+03 4.962343e+03 1.624955e+05 1.307861e+05 1.646231e+03 3.056049e+03 8.520397e+04 1.254698e+05 2.888896e+03 3.961252e+03 1.331910e+05 9.743584e+04 7.251479e+03 8.849102e+03 2.043980e+05 2.870760e+05 7.272487e+03 1.252000e+04 1.424804e+05 1.037485e+05 4.164231e+03 8.083818e+03
<GCONST> 4.701115e+02
<MIXTURE> 8 9.469410e-02
<MEAN> 40
 2.186978e+03 3.770599e+03 2.283708e+01 4.642518e+00 6.350412e+02 3.505540e+03 3.383810e+01 1.891240e+01 2.341104e+02 3.010321e+03 1.783330e+01 2.119420e+01 -5.903181e+02 2.835704e+03 -5.578969e+00 4.361143e+01 -1.143501e+02 2.965627e+03 1.244536e+00 3.185587e+01 -2.460853e+03 3.190934e+03 -9.609674e+00 3.770489e+01 -8.671333e+02 2.749632e+03 -2.539967e+01 3.761320e+01 -8.167678e+02 2.277190e+03 -2.624415e+01 2.346924e+01 -5.935148e+02 2.349592e+03 -1.503774e+00 1.550649e+01 -4.748926e+02 2.433114e+03 5.574993e+00 1.555869e+01
<VARIANCE> 40
 3.973299e+04 5.187114e+04 9.292417e+02 2.483467e+02 2.704163e+04 2.076292e+04 1.791424e+03 1.826836e+03 1.544773e+04 2.944115e+04 2.284322e+03 1.759949e+03 3.784751e+04 8.956077e+04 3.997857e+03 5.742474e+03 1.238833e+04 2.557480e+04 2.328298e+03 2.719119e+03 3.369820e+04 9.321609e+04 1.534264e+03 1.724696e+03 2.728015e+04 3.420693e+04 1.832655e+03 2.921810e+03 4.989693e+04 3.674980e+04 9.153662e+03 6.591196e+03 7.893576e+04 1.167829e+05 3.210439e+03 4.138698e+03 5.398696e+04 4.296905e+04 1.114346e+04 1.137604e+04
<GCONST> 4.433466e+02
<MIXTURE> 9 9.343335e-02
<MEAN> 40
